solver_type L2R_L2LOSS_SVC_DUAL
nr_class 2
label 1 0
nr_feature 12000
bias 1
w
0.0003080090784112653 
0.0003826710111388298 
-0.0005337679718980675 
0 
0.0003080090784112653 
-0.0003826710111388298 
-0.0002129950487024824 
0.0004919092009095404 
-0.0006644030997411771 
0 
-0.0002129950487024824 
-0.0004919092009095404 
1.749912078741485e-05 
5.58689902196769e-05 
-0.0001206722957236454 
0 
1.749912078741485e-05 
-5.58689902196769e-05 
0.0002575381151259972 
-0.0005239489218775776 
0.0005716148730779731 
0 
0.0002575381151259972 
0.0005239489218775776 
0.0001453805616371581 
-0.001665590146302304 
0.001815807810950305 
0 
0.0001453805616371581 
0.001665590146302304 
0.0002913638952179962 
9.903040899400205e-06 
-6.199978493298962e-05 
0 
0.0002913638952179962 
-9.903040899400205e-06 
0.0001280824113393737 
0.0004697228777719654 
-0.0005995195451294165 
0 
0.0001280824113393737 
-0.0004697228777719654 
-4.570504408348992e-05 
-5.904322229326434e-05 
1.839426101725758e-05 
0 
-4.570504408348992e-05 
5.904322229326434e-05 
0.0004141889011016654 
4.189440283950781e-05 
-0.0001110171454527487 
0 
0.0004141889011016654 
-4.189440283950781e-05 
0.0002875553099290463 
-0.0003318248837163422 
0.0003640592630509078 
0 
0.0002875553099290463 
0.0003318248837163422 
0.0004485188915822064 
-0.0005484938350344466 
0.0005743365069505483 
0 
0.0004485188915822064 
0.0005484938350344466 
0.000288392132965432 
-0.0007754809052592935 
0.0008401408653307827 
0 
0.000288392132965432 
0.0007754809052592935 
3.174784017506498e-05 
-0.0008023198001208285 
0.0008767789611247781 
0 
3.174784017506498e-05 
0.0008023198001208285 
7.184181660982238e-05 
0.0005823336747769885 
-0.0007075481352833919 
0 
7.184181660982238e-05 
-0.0005823336747769885 
8.080196425874433e-05 
0.0009869051367102713 
-0.001199444028218614 
0 
8.080196425874433e-05 
-0.0009869051367102713 
0.0001311973065890672 
-0.000729042478490528 
0.000799094256189704 
0 
0.0001311973065890672 
0.000729042478490528 
0.0003302451316131558 
-0.0004404743161808606 
0.0003855478196892143 
0 
0.0003302451316131558 
0.0004404743161808606 
0.0001797236224130252 
0.0008566878069808666 
-0.0009914352622843192 
0 
0.0001797236224130252 
-0.0008566878069808666 
9.276365877173994e-05 
-0.0001471702051458515 
0.0001644814763064699 
0 
9.276365877173994e-05 
0.0001471702051458515 
-8.015664064839779e-05 
-0.001001177005038451 
0.001088477494984046 
0 
-8.015664064839779e-05 
0.001001177005038451 
0.000454770303237142 
-0.0003459968582548035 
0.0003205509698056019 
0 
0.000454770303237142 
0.0003459968582548035 
-0.0002488608914013759 
0.0003525546125207967 
-0.0004897630107444569 
0 
-0.0002488608914013759 
-0.0003525546125207967 
0.0001592712190678898 
0.0008320298240976674 
-0.0009899228998105358 
0 
0.0001592712190678898 
-0.0008320298240976674 
-4.095587594035194e-05 
-0.0008427306545035396 
0.0008433269546438197 
0 
-4.095587594035194e-05 
0.0008427306545035396 
0.0002851916816787179 
0.0002475555913182839 
-0.0003814989407496788 
0 
0.0002851916816787179 
-0.0002475555913182839 
8.157143193423306e-05 
5.392670097869836e-05 
-9.707022288521884e-05 
0 
8.157143193423306e-05 
-5.392670097869836e-05 
0.0001986242233425876 
-0.0005606335475244113 
0.0005460571099716441 
0 
0.0001986242233425876 
0.0005606335475244113 
0.0001983468300687276 
-0.001263207475351741 
0.001373911269951656 
0 
0.0001983468300687276 
0.001263207475351741 
0.0004024722724378016 
-0.000588364543073397 
0.0006316503201926659 
0 
0.0004024722724378016 
0.000588364543073397 
-0.0001525589570871965 
0.0006840217637924813 
-0.0008675958447490837 
0 
-0.0001525589570871965 
-0.0006840217637924813 
-8.353900485081342e-05 
0.0007869425621152071 
-0.0009671798980354674 
0 
-8.353900485081342e-05 
-0.0007869425621152071 
-0.0004413779346135023 
0.0002298501135999838 
-0.0003349882166341446 
0 
-0.0004413779346135023 
-0.0002298501135999838 
0.0003393433932213374 
0.001180426307518254 
-0.001440781849779843 
0 
0.0003393433932213374 
-0.001180426307518254 
0.0001734878922626674 
-0.001373094377788112 
0.00150027174638043 
0 
0.0001734878922626674 
0.001373094377788112 
0.0003181782804297253 
-0.0008259365943872957 
0.0008794875078175946 
0 
0.0003181782804297253 
0.0008259365943872957 
0.0002810967191906363 
-0.0001602129593631331 
0.0001078817049103062 
0 
0.0002810967191906363 
0.0001602129593631331 
-4.164038693481796e-05 
0.0001245574974980761 
-0.0002026697876473238 
0 
-4.164038693481796e-05 
-0.0001245574974980761 
9.122028182916431e-06 
-0.0002743592926643327 
0.0002617619933624397 
0 
9.122028182916431e-06 
0.0002743592926643327 
4.645404672178052e-05 
0.0005078246308707573 
-0.0006471306947836772 
0 
4.645404672178052e-05 
-0.0005078246308707573 
-0.0002009327489880406 
-0.000167119941204427 
0.0001051779316839567 
0 
-0.0002009327489880406 
0.000167119941204427 
0.0002473415880912582 
0.001194119760607259 
-0.001461164891977776 
0 
0.0002473415880912582 
-0.001194119760607259 
-0.0002741636249918642 
-0.0003460897391919757 
0.000295470090437433 
0 
-0.0002741636249918642 
0.0003460897391919757 
2.241835573524659e-05 
0.0001331631393302298 
-0.0001642069121525555 
0 
2.241835573524659e-05 
-0.0001331631393302298 
4.934695737696041e-05 
6.138651456604126e-07 
-0.000101264026702222 
0 
4.934695737696041e-05 
-6.138651456604126e-07 
0.0003442792859828539 
-0.0003906670932896875 
0.0003960630535662981 
0 
0.0003442792859828539 
0.0003906670932896875 
3.271651278299677e-05 
-0.000908980878100551 
0.0009859815156001946 
0 
3.271651278299677e-05 
0.000908980878100551 
0.0001596846014975206 
-0.0007396666942006154 
0.0007938766854636589 
0 
0.0001596846014975206 
0.0007396666942006154 
0.0001739809887157557 
0.0003931631390611871 
-0.0005051900482678817 
0 
0.0001739809887157557 
-0.0003931631390611871 
0.0003469559261481812 
-5.203184649625673e-05 
-3.892787426872319e-05 
0 
0.0003469559261481812 
5.203184649625673e-05 
0.0001834304843464936 
-0.0001722706519303929 
0.0001111288440180312 
0 
0.0001834304843464936 
0.0001722706519303929 
8.34372548899302e-05 
-0.0008302039273257523 
0.0008911036245850599 
0 
8.34372548899302e-05 
0.0008302039273257523 
0.0001771519330274522 
0.0007309780848952508 
-0.0009152440192188969 
0 
0.0001771519330274522 
-0.0007309780848952508 
-0.0001804727987754042 
0.0005196252922938365 
-0.0006856722696005703 
0 
-0.0001804727987754042 
-0.0005196252922938365 
0.0002192532916550122 
-7.809264181814085e-05 
1.587174369986708e-05 
0 
0.0002192532916550122 
7.809264181814085e-05 
4.030060629779842e-05 
-0.0007857921538787536 
0.0008452649746187237 
0 
4.030060629779842e-05 
0.0007857921538787536 
0.0001392953388477754 
-0.0004695178462192404 
0.000488492471432493 
0 
0.0001392953388477754 
0.0004695178462192404 
0.0001873839933565561 
-0.00027187663174831 
0.0002485586856126598 
0 
0.0001873839933565561 
0.00027187663174831 
0.000345017857136328 
-0.00147811136234407 
0.001639715066875347 
0 
0.000345017857136328 
0.00147811136234407 
0.0002163228020784685 
-0.001309368512289868 
0.001483299964097066 
0 
0.0002163228020784685 
0.001309368512289868 
0.0003040658035718482 
-0.0001075667575844783 
9.835940142472779e-05 
0 
0.0003040658035718482 
0.0001075667575844783 
0.000186873334759 
0.001191379581725585 
-0.001414309248698874 
0 
0.000186873334759 
-0.001191379581725585 
2.303695214804195e-05 
0.000834319537966681 
-0.001003566618225035 
0 
2.303695214804195e-05 
-0.000834319537966681 
0.0001999543185302712 
0.0002164102442436883 
-0.0002638136944884994 
0 
0.0001999543185302712 
-0.0002164102442436883 
0.0001121324645197098 
-0.0003532933477508047 
0.0003305664774987568 
0 
0.0001121324645197098 
0.0003532933477508047 
4.131225495227786e-05 
0.0003357894795024367 
-0.0004033655821859349 
0 
4.131225495227786e-05 
-0.0003357894795024367 
0.0003075022652986061 
-0.0006553452540908368 
0.0007591488940854549 
0 
0.0003075022652986061 
0.0006553452540908368 
0.0003367207239653024 
-0.00240389888786505 
0.002740622309072008 
0 
0.0003367207239653024 
0.00240389888786505 
0.0003015037555068568 
-7.42451494846282e-05 
4.421461806808021e-05 
0 
0.0003015037555068568 
7.42451494846282e-05 
0.0001740086742011601 
0.0008145835909381863 
-0.0009232194666838787 
0 
0.0001740086742011601 
-0.0008145835909381863 
-0.0001000355527280637 
-0.0007427345685340152 
0.0007817199685071714 
0 
-0.0001000355527280637 
0.0007427345685340152 
0.000100382300342392 
0.0009385920612970884 
-0.001145303702992106 
0 
0.000100382300342392 
-0.0009385920612970884 
-0.0002023167424164054 
0.001436819732147762 
-0.00170594230492346 
0 
-0.0002023167424164054 
-0.001436819732147762 
0.0002945953920178732 
0.001285957406995077 
-0.001549488700009918 
0 
0.0002945953920178732 
-0.001285957406995077 
-0.0002659382157918321 
-0.0007826611425301608 
0.000833795695326483 
0 
-0.0002659382157918321 
0.0007826611425301608 
-2.004077305197468e-05 
-0.0005383772734445508 
0.0005571058809099059 
0 
-2.004077305197468e-05 
0.0005383772734445508 
4.218888232526244e-05 
0.0001849420739674673 
-0.0003160446150418158 
0 
4.218888232526244e-05 
-0.0001849420739674673 
0.0003306886127903489 
-0.0005998416180157185 
0.0006371229243020681 
0 
0.0003306886127903489 
0.0005998416180157185 
0.0001333603998826777 
-0.0002688999038993113 
0.0002073126079825723 
0 
0.0001333603998826777 
0.0002688999038993113 
0.0001045699182962007 
-0.0003027470721768574 
0.0002695694467578986 
0 
0.0001045699182962007 
0.0003027470721768574 
-0.0001201835112989315 
0.0005023989490677462 
-0.0006719103768599598 
0 
-0.0001201835112989315 
-0.0005023989490677462 
5.369870395445608e-06 
-0.0001725609004412622 
0.0001549526815108336 
0 
5.369870395445608e-06 
0.0001725609004412622 
0.000178106835526914 
-0.001134860247681676 
0.001213299202709987 
0 
0.000178106835526914 
0.001134860247681676 
0.0001642150045650014 
-0.0007598736181444334 
0.0008181178249982522 
0 
0.0001642150045650014 
0.0007598736181444334 
4.570281042810575e-05 
0.0002179893925759664 
-0.0002929725102870125 
0 
4.570281042810575e-05 
-0.0002179893925759664 
4.680342577749312e-05 
0.0001403143268234576 
-0.0002326257982484228 
0 
4.680342577749312e-05 
-0.0001403143268234576 
0.0001882007448577495 
-0.0005227486758046334 
0.0005478017280897913 
0 
0.0001882007448577495 
0.0005227486758046334 
-7.174184263169715e-05 
0.0008513081210528283 
-0.001028965296485889 
0 
-7.174184263169715e-05 
-0.0008513081210528283 
-0.0004067421535710031 
0.001528075658986539 
-0.001844125928009199 
0 
-0.0004067421535710031 
-0.001528075658986539 
8.563791557209632e-05 
-0.0013989930265488 
0.001539313226144753 
0 
8.563791557209632e-05 
0.0013989930265488 
0.0005483726965228833 
-0.001109143133637794 
0.00122645482180964 
0 
0.0005483726965228833 
0.001109143133637794 
0.0002934720319508603 
-0.0009890150713702244 
0.001057830460426595 
0 
0.0002934720319508603 
0.0009890150713702244 
0.0001558031301994874 
0.0007833840549099153 
-0.0009822797897170059 
0 
0.0001558031301994874 
-0.0007833840549099153 
0.0003416619722178209 
0.0001004796750899021 
-0.0001527698393572519 
0 
0.0003416619722178209 
-0.0001004796750899021 
0.0005168022175878807 
-0.0004156748670638349 
0.0004751181823235477 
0 
0.0005168022175878807 
0.0004156748670638349 
8.709870132025291e-05 
5.887290438786503e-05 
-8.448990317420954e-05 
0 
8.709870132025291e-05 
-5.887290438786503e-05 
0.0002838183985728509 
0.0008551735181960754 
-0.0009932931988273432 
0 
0.0002838183985728509 
-0.0008551735181960754 
-3.116106448669014e-05 
-0.00112858316520737 
0.001186073119576684 
0 
-3.116106448669014e-05 
0.00112858316520737 
0.0004032126309410583 
-0.0004529098104107182 
0.0004571594641416347 
0 
0.0004032126309410583 
0.0004529098104107182 
0.0003496000602935581 
-0.0008095015135359487 
0.0008153082509635084 
0 
0.0003496000602935581 
0.0008095015135359487 
0.0003977901545655965 
0.0004090131039350686 
-0.0005324733871063714 
0 
0.0003977901545655965 
-0.0004090131039350686 
0.0004557449954703166 
0.0006502003428813869 
-0.0007633514424047915 
0 
0.0004557449954703166 
-0.0006502003428813869 
0.000118303992246786 
-0.0007391859984731453 
0.0008217092367198445 
0 
0.000118303992246786 
0.0007391859984731453 
0.0002656868762563758 
-0.0003188839410779825 
0.0003155215444398129 
0 
0.0002656868762563758 
0.0003188839410779825 
0.000334702940603128 
-7.135133214505749e-05 
2.619484371319288e-06 
0 
0.000334702940603128 
7.135133214505749e-05 
-8.540288330327873e-05 
-0.001250482581536433 
0.001423810395138441 
0 
-8.540288330327873e-05 
0.001250482581536433 
8.04942041893366e-05 
-0.001515569919381702 
0.001703703204004665 
0 
8.04942041893366e-05 
0.001515569919381702 
0.000324643626101284 
0.000132833637217309 
-0.0001528506853396142 
0 
0.000324643626101284 
-0.000132833637217309 
0.0001568563048033903 
0.0008717362244140983 
-0.001062249168085463 
0 
0.0001568563048033903 
-0.0008717362244140983 
0.0004378624595294238 
0.0003886373310427965 
-0.0005390664878746547 
0 
0.0004378624595294238 
-0.0003886373310427965 
-5.097725059603247e-05 
-0.001089497287191116 
0.001115983158033962 
0 
-5.097725059603247e-05 
0.001089497287191116 
0.0006283061323004627 
8.814011923319822e-05 
-0.0002557143585200428 
0 
0.0006283061323004627 
-8.814011923319822e-05 
0.0002730868008926537 
0.0004454535328706679 
-0.0005425032816661847 
0 
0.0002730868008926537 
-0.0004454535328706679 
5.874670250012111e-05 
-0.000212805594587117 
0.0001951056885526365 
0 
5.874670250012111e-05 
0.000212805594587117 
-0.0003502101179213397 
-0.001402975672935649 
0.001516667998321839 
0 
-0.0003502101179213397 
0.001402975672935649 
0.0001203582324661725 
-0.000394890257152586 
0.0004184321285451437 
0 
0.0001203582324661725 
0.000394890257152586 
0.0003118326635223363 
0.00150548447665758 
-0.00178140723793965 
0 
0.0003118326635223363 
-0.00150548447665758 
-0.0001228750046758864 
0.0007199697728380652 
-0.0008444490412758455 
0 
-0.0001228750046758864 
-0.0007199697728380652 
4.603635649884037e-05 
0.0002321558968037693 
-0.0002537467837583272 
0 
4.603635649884037e-05 
-0.0002321558968037693 
-7.850575984651201e-05 
-0.0005689953625515069 
0.0006050494131610994 
0 
-7.850575984651201e-05 
0.0005689953625515069 
0.000281985275856212 
0.000373610820161556 
-0.000466627818706097 
0 
0.000281985275856212 
-0.000373610820161556 
-0.0002112867650449912 
0.0001799094877431881 
-0.000270452342491691 
0 
-0.0002112867650449912 
-0.0001799094877431881 
-0.0003695889619144873 
-0.001364062477617728 
0.001467162603681918 
0 
-0.0003695889619144873 
0.001364062477617728 
1.472869167691418e-05 
-0.0001551722706150948 
0.0001038043640163966 
0 
1.472869167691418e-05 
0.0001551722706150948 
-0.0001038826426856586 
0.00146421464218607 
-0.00182804496168908 
0 
-0.0001038826426856586 
-0.00146421464218607 
-0.000241083498858867 
0.0006028843524347284 
-0.0007826407846994461 
0 
-0.000241083498858867 
-0.0006028843524347284 
-0.0002108091911900293 
0.0008468247065074396 
-0.00108867690597051 
0 
-0.0002108091911900293 
-0.0008468247065074396 
-0.0002338080750165132 
-0.0002963126137564088 
0.000253390479044184 
0 
-0.0002338080750165132 
0.0002963126137564088 
-8.090776990774229e-05 
0.0003211821393657126 
-0.0004236599765556472 
0 
-8.090776990774229e-05 
-0.0003211821393657126 
-0.0003688389998055052 
0.0008768765505578256 
-0.001078526874721472 
0 
-0.0003688389998055052 
-0.0008768765505578256 
-0.0003040809952969034 
0.0006446047033276188 
-0.0008719430842770192 
0 
-0.0003040809952969034 
-0.0006446047033276188 
-0.0003906941851167154 
0.0009731386754194691 
-0.00121591527871769 
0 
-0.0003906941851167154 
-0.0009731386754194691 
-0.0004851703451529834 
0.001593120038101045 
-0.001941007068119356 
0 
-0.0004851703451529834 
-0.001593120038101045 
-0.0001762843815986636 
0.0007379422163447123 
-0.0009224323451831151 
0 
-0.0001762843815986636 
-0.0007379422163447123 
-0.000579293386123728 
-0.0007655798231795166 
0.000783110608977996 
0 
-0.000579293386123728 
0.0007655798231795166 
-0.0003406031367441878 
-0.001730021329846161 
0.00187905715415194 
0 
-0.0003406031367441878 
0.001730021329846161 
-0.0004865590111913792 
0.001181612377360609 
-0.001461004682814828 
0 
-0.0004865590111913792 
-0.001181612377360609 
-0.0002984159532140769 
0.0004677543913980954 
-0.0005966117642342099 
0 
-0.0002984159532140769 
-0.0004677543913980954 
-0.0002573099376851858 
-0.0001062210733402021 
5.523819863002053e-05 
0 
-0.0002573099376851858 
0.0001062210733402021 
-9.632587347958061e-05 
0.0002906429147852447 
-0.0004536112901458874 
0 
-9.632587347958061e-05 
-0.0002906429147852447 
-0.0004313871830398234 
0.0008342617666179335 
-0.001020142793841483 
0 
-0.0004313871830398234 
-0.0008342617666179335 
-0.0002122426954970873 
0.001249218560243116 
-0.001517287115342957 
0 
-0.0002122426954970873 
-0.001249218560243116 
-0.0003079784948726877 
-0.0002992459334801885 
0.0002000701078197311 
0 
-0.0003079784948726877 
0.0002992459334801885 
7.010406051457516e-06 
-0.0002150607841561962 
0.0001779174171506358 
0 
7.010406051457516e-06 
0.0002150607841561962 
-0.0002524254973598453 
-5.322382226580779e-05 
-1.441563986943242e-05 
0 
-0.0002524254973598453 
5.322382226580779e-05 
-3.065575790276707e-05 
0.0008189025390844936 
-0.001129200241151031 
0 
-3.065575790276707e-05 
-0.0008189025390844936 
-0.0004257793354314022 
-0.00216135852157394 
0.002369884517072912 
0 
-0.0004257793354314022 
0.00216135852157394 
9.522483060724713e-05 
0.0006162350524779912 
-0.0007518972470661936 
0 
9.522483060724713e-05 
-0.0006162350524779912 
-0.0003679301001391044 
0.002254725531657487 
-0.002657280364407209 
0 
-0.0003679301001391044 
-0.002254725531657487 
-0.0003120238472982854 
0.001398345085155793 
-0.001704965032838867 
0 
-0.0003120238472982854 
-0.001398345085155793 
-0.0002236876534983819 
-0.0003206054097864916 
0.0003023281412625313 
0 
-0.0002236876534983819 
0.0003206054097864916 
0.0001681623655219377 
-0.001170134791244314 
0.001306299242440406 
0 
0.0001681623655219377 
0.001170134791244314 
-0.0001020708302673606 
-4.193246734254188e-05 
-3.490000128112665e-06 
0 
-0.0001020708302673606 
4.193246734254188e-05 
2.348151007487169e-07 
0.001349018934652479 
-0.0016855467717347 
0 
2.348151007487169e-07 
-0.001349018934652479 
0.0004033719084116303 
0.0007812751635925892 
-0.0009483652650062426 
0 
0.0004033719084116303 
-0.0007812751635925892 
-8.594055108769938e-06 
0.0002473351600904386 
-0.0004151190717176842 
0 
-8.594055108769938e-06 
-0.0002473351600904386 
-0.0004010062046306886 
0.0007554293896464151 
-0.0009839374081865059 
0 
-0.0004010062046306886 
-0.0007554293896464151 
8.294952692154909e-05 
0.0008099293871342748 
-0.0010257247476702 
0 
8.294952692154909e-05 
-0.0008099293871342748 
-0.0001693573720043064 
-0.001736414513275427 
0.001926506647987049 
0 
-0.0001693573720043064 
0.001736414513275427 
-0.000174872667212033 
-0.001895512651372441 
0.002095623063201352 
0 
-0.000174872667212033 
0.001895512651372441 
-0.0001511524542830483 
-0.0001343725349903587 
2.082987602268179e-05 
0 
-0.0001511524542830483 
0.0001343725349903587 
-0.0002412834144917312 
0.001694953792432412 
-0.001995925053799997 
0 
-0.0002412834144917312 
-0.001694953792432412 
-1.576315902531611e-05 
1.067042910177013e-05 
-0.0001139357378647286 
0 
-1.576315902531611e-05 
-1.067042910177013e-05 
7.127358175053286e-05 
-0.0003676646855720032 
0.0003360887155297452 
0 
7.127358175053286e-05 
0.0003676646855720032 
-0.000409276427080091 
0.0009069078600707276 
-0.001126306947262339 
0 
-0.000409276427080091 
-0.0009069078600707276 
-0.0002898189045164267 
0.0005168378263548656 
-0.0007430587365432575 
0 
-0.0002898189045164267 
-0.0005168378263548656 
0.0002251433952277637 
-0.0004857721624873689 
0.0004830996227006131 
0 
0.0002251433952277637 
0.0004857721624873689 
-0.0001662424223764925 
-0.002045382100457294 
0.002283334370651873 
0 
-0.0001662424223764925 
0.002045382100457294 
-0.0001760501060098743 
0.0009100190412920252 
-0.001125030478813554 
0 
-0.0001760501060098743 
-0.0009100190412920252 
-0.0002506147485397648 
-0.0001474832443019756 
8.104743792648357e-05 
0 
-0.0002506147485397648 
0.0001474832443019756 
-4.838436401837124e-05 
0.0005674527004974542 
-0.0007179635603354245 
0 
-4.838436401837124e-05 
-0.0005674527004974542 
-0.0004237289949491579 
0.000245844140160905 
-0.0004088531881633783 
0 
-0.0004237289949491579 
-0.000245844140160905 
-0.0001697378858546435 
0.001112099606518245 
-0.001371316689453085 
0 
-0.0001697378858546435 
-0.001112099606518245 
-0.0003146746425872749 
0.001231938301665515 
-0.001536779198607438 
0 
-0.0003146746425872749 
-0.001231938301665515 
-0.0001860267042341476 
-0.0008152018944472775 
0.0008619976818085206 
0 
-0.0001860267042341476 
0.0008152018944472775 
-0.0003430939963692882 
-0.0005835404418104028 
0.0006421073357386083 
0 
-0.0003430939963692882 
0.0005835404418104028 
-0.0001779083924801733 
0.0006597704693226249 
-0.0008291243686289713 
0 
-0.0001779083924801733 
-0.0006597704693226249 
-7.850693616815691e-05 
9.93813034581013e-05 
-0.0001621271317351334 
0 
-7.850693616815691e-05 
-9.93813034581013e-05 
-0.0004651953687789985 
-0.001402619421591708 
0.001508600000831802 
0 
-0.0004651953687789985 
0.001402619421591708 
-0.0001525515585390168 
-0.001015094111975417 
0.001053773746227362 
0 
-0.0001525515585390168 
0.001015094111975417 
-0.0004890654210578466 
0.0005356035789301147 
-0.0007081317364792656 
0 
-0.0004890654210578466 
-0.0005356035789301147 
-0.0003164476533178192 
0.001477130662623309 
-0.001814481339291843 
0 
-0.0003164476533178192 
-0.001477130662623309 
7.311935692418095e-06 
0.001807585771277964 
-0.002190297314597162 
0 
7.311935692418095e-06 
-0.001807585771277964 
-0.0003128806037827623 
0.0002041220022495838 
-0.0003773272039258993 
0 
-0.0003128806037827623 
-0.0002041220022495838 
-1.243796776533817e-05 
0.0001763522928901972 
-0.0002640142197345266 
0 
-1.243796776533817e-05 
-0.0001763522928901972 
0.0001054921002100487 
0.0005886121677911853 
-0.0007564901451897809 
0 
0.0001054921002100487 
-0.0005886121677911853 
-0.0004297024615969397 
-0.002375301609321316 
0.002671437380833363 
0 
-0.0004297024615969397 
0.002375301609321316 
-0.0001577707858378351 
-0.0003459165415044509 
0.000303848437761545 
0 
-0.0001577707858378351 
0.0003459165415044509 
-0.0002961210857521164 
0.001334209386733215 
-0.001636901179604789 
0 
-0.0002961210857521164 
-0.001334209386733215 
-0.0002900622323488261 
0.00136990900811162 
-0.001712550066957245 
0 
-0.0002900622323488261 
-0.00136990900811162 
-0.0001563178766992639 
0.00149662463942976 
-0.001902485697651655 
0 
-0.0001563178766992639 
-0.00149662463942976 
-0.0004293426292295114 
-0.0004363176324690006 
0.0003359201685692855 
0 
-0.0004293426292295114 
0.0004363176324690006 
-8.057449375564754e-05 
-5.246686241745726e-05 
-9.606522396747832e-06 
0 
-8.057449375564754e-05 
5.246686241745726e-05 
9.696269747815141e-06 
0.0004389123812787391 
-0.0005407822670478384 
0 
9.696269747815141e-06 
-0.0004389123812787391 
1.808747112847846e-05 
-0.002129807107956149 
0.002336447679958082 
0 
1.808747112847846e-05 
0.002129807107956149 
-0.0006338912090359586 
0.0006717458088779564 
-0.0009257246737375705 
0 
-0.0006338912090359586 
-0.0006717458088779564 
-0.0007109565826604744 
0.003014676750241446 
-0.003605091484968515 
0 
-0.0007109565826604744 
-0.003014676750241446 
-0.0007491561831788036 
0.003645131977047176 
-0.00438987872305923 
0 
-0.0007491561831788036 
-0.003645131977047176 
-0.0005426794690484794 
0.003133060144562872 
-0.003699744207146898 
0 
-0.0005426794690484794 
-0.003133060144562872 
-0.001225532076102471 
-0.003841060923439652 
0.004349705710868568 
0 
-0.001225532076102471 
0.003841060923439652 
0.0001139641484907338 
-0.0009893766030430399 
0.001038555752258225 
0 
0.0001139641484907338 
0.0009893766030430399 
-1.891737149490542e-05 
-2.139725977839714e-05 
-6.126680852179066e-05 
0 
-1.891737149490542e-05 
2.139725977839714e-05 
-8.548808475921419e-05 
-0.001349321769159042 
0.001466504893629021 
0 
-8.548808475921419e-05 
0.001349321769159042 
0.0002195883915640169 
-0.0004782777870992656 
0.0005164337668886317 
0 
0.0002195883915640169 
0.0004782777870992656 
7.440940888953301e-07 
0.0005955465162219947 
-0.000769675877924274 
0 
7.440940888953301e-07 
-0.0005955465162219947 
-8.668618002368005e-05 
-0.0007128020086832771 
0.0007752666335931734 
0 
-8.668618002368005e-05 
0.0007128020086832771 
0.0001346286890864374 
0.0002166767376265979 
-0.0003565162569039023 
0 
0.0001346286890864374 
-0.0002166767376265979 
-6.541452457290937e-05 
0.001071149770110895 
-0.001336399404564587 
0 
-6.541452457290937e-05 
-0.001071149770110895 
-3.868486895960959e-05 
0.0006577917614859355 
-0.0008477005939197715 
0 
-3.868486895960959e-05 
-0.0006577917614859355 
0.0001560425155030893 
-4.762774696409992e-05 
-1.342631276909023e-05 
0 
0.0001560425155030893 
4.762774696409992e-05 
0.0002735748503318522 
-0.0001308424282461753 
0.0001348770147113352 
0 
0.0002735748503318522 
0.0001308424282461753 
0.000299915766624607 
-0.0006444367943061736 
0.0006959813872047338 
0 
0.000299915766624607 
0.0006444367943061736 
0.0002243116931061874 
-7.461591414046576e-05 
6.157873490426846e-05 
0 
0.0002243116931061874 
7.461591414046576e-05 
0.0001740158521849822 
-0.000465164849713266 
0.0004972492600694267 
0 
0.0001740158521849822 
0.000465164849713266 
9.088016101985471e-05 
-8.568062985425808e-05 
4.595021790453265e-05 
0 
9.088016101985471e-05 
8.568062985425808e-05 
2.274355451458261e-07 
6.701348449659446e-05 
-0.0002073739841274296 
0 
2.274355451458261e-07 
-6.701348449659446e-05 
-4.517424676138973e-05 
0.0002317298124562128 
-0.0004158791128937154 
0 
-4.517424676138973e-05 
-0.0002317298124562128 
-8.550219422740338e-05 
-0.0002235799278266588 
0.0001862447790077382 
0 
-8.550219422740338e-05 
0.0002235799278266588 
-8.364175959804413e-05 
0.000280928201655835 
-0.0003518680745830652 
0 
-8.364175959804413e-05 
-0.000280928201655835 
0.0001674665687026438 
0.0002740111107547196 
-0.0003472792532479413 
0 
0.0001674665687026438 
-0.0002740111107547196 
5.036974556246089e-05 
-0.0004999178850787213 
0.0005336522373447063 
0 
5.036974556246089e-05 
0.0004999178850787213 
-6.588884482131297e-05 
-0.0002013514385250973 
0.000187382375636795 
0 
-6.588884482131297e-05 
0.0002013514385250973 
9.365714831982661e-05 
0.000473101625338347 
-0.0006482684037588686 
0 
9.365714831982661e-05 
-0.000473101625338347 
-9.057659420107853e-05 
-0.0001577944602977841 
8.548214835627061e-05 
0 
-9.057659420107853e-05 
0.0001577944602977841 
7.391842517194415e-05 
0.0003645503253931981 
-0.0004596990657385256 
0 
7.391842517194415e-05 
-0.0003645503253931981 
-0.000170051931479539 
-0.0008456645608134033 
0.0008891977394968234 
0 
-0.000170051931479539 
0.0008456645608134033 
-0.0001774096734633386 
-0.0004918069498797278 
0.0004788443618517638 
0 
-0.0001774096734633386 
0.0004918069498797278 
7.387137677524572e-06 
-0.0001534931084568171 
0.0001046755676126398 
0 
7.387137677524572e-06 
0.0001534931084568171 
0.0001436415657977863 
0.0006230687269983377 
-0.0007801163821450069 
0 
0.0001436415657977863 
-0.0006230687269983377 
-0.0001825698399240088 
-0.0004187260588189233 
0.0004177176911825875 
0 
-0.0001825698399240088 
0.0004187260588189233 
4.638711961659139e-05 
0.001036306726457747 
-0.001244369418668045 
0 
4.638711961659139e-05 
-0.001036306726457747 
-3.581407232697285e-05 
0.001047286605594241 
-0.001237859000290026 
0 
-3.581407232697285e-05 
-0.001047286605594241 
-0.0001562131412731649 
3.091539956411478e-05 
-0.0001473303871912051 
0 
-0.0001562131412731649 
-3.091539956411478e-05 
0.0001274058120279094 
0.0006088116914085499 
-0.0008110392600018608 
0 
0.0001274058120279094 
-0.0006088116914085499 
0.0002095874825493304 
-0.0003809119315289186 
0.0003931357551164745 
0 
0.0002095874825493304 
0.0003809119315289186 
0.0002901082246361992 
-0.0001579039344385368 
0.0001763254662366156 
0 
0.0002901082246361992 
0.0001579039344385368 
2.467917007141622e-05 
9.786259005734565e-05 
-0.000176591917681232 
0 
2.467917007141622e-05 
-9.786259005734565e-05 
0.0001384546567658115 
-0.000918678698140618 
0.0009992371984117602 
0 
0.0001384546567658115 
0.000918678698140618 
4.859991252321517e-05 
4.043272681240354e-05 
-9.508961637307249e-05 
0 
4.859991252321517e-05 
-4.043272681240354e-05 
0.0003685000503292286 
0.0001905973085041709 
-0.000216793794376456 
0 
0.0003685000503292286 
-0.0001905973085041709 
3.392641053174747e-05 
-0.000549652928437137 
0.0005426949873650037 
0 
3.392641053174747e-05 
0.000549652928437137 
-9.214183024802973e-05 
0.001128753278911037 
-0.0013926407207318 
0 
-9.214183024802973e-05 
-0.001128753278911037 
6.730089461163721e-05 
0.0005979412118435805 
-0.0007566588549102924 
0 
6.730089461163721e-05 
-0.0005979412118435805 
7.545828488625395e-05 
-0.0003963185878138066 
0.0003828642575030516 
0 
7.545828488625395e-05 
0.0003963185878138066 
0.00022745150110272 
0.0009743044771263185 
-0.001173534387474551 
0 
0.00022745150110272 
-0.0009743044771263185 
9.561751452322629e-05 
-0.001976303206785958 
0.002235306128538503 
0 
9.561751452322629e-05 
0.001976303206785958 
0.0002955092240653861 
-0.0003587743463980001 
0.0003597768553737131 
0 
0.0002955092240653861 
0.0003587743463980001 
-5.590005460496021e-05 
-0.0006799615809694599 
0.0007265987608559467 
0 
-5.590005460496021e-05 
0.0006799615809694599 
-0.000269977275694 
0.0005324478626628753 
-0.0007108774563497754 
0 
-0.000269977275694 
-0.0005324478626628753 
9.369550584242292e-05 
0.00136454089383302 
-0.001618857343770087 
0 
9.369550584242292e-05 
-0.00136454089383302 
-5.208055323261592e-05 
-0.000606195057693634 
0.0005914999217063785 
0 
-5.208055323261592e-05 
0.000606195057693634 
-8.225338673537349e-05 
-0.0008804916372937797 
0.0009191751935380428 
0 
-8.225338673537349e-05 
0.0008804916372937797 
-0.0001103899492124977 
0.000408090246580812 
-0.0004972457268363676 
0 
-0.0001103899492124977 
-0.000408090246580812 
-9.478088627603348e-05 
-0.0002528709883414421 
0.0002454267431004265 
0 
-9.478088627603348e-05 
0.0002528709883414421 
-6.243692639554964e-05 
-0.0001843970067516966 
0.000135116564795144 
0 
-6.243692639554964e-05 
0.0001843970067516966 
7.635997091054404e-05 
0.0002702638148960481 
-0.0003988496200962389 
0 
7.635997091054404e-05 
-0.0002702638148960481 
-0.0003648058497572235 
0.0007891466546412583 
-0.0009599760168165192 
0 
-0.0003648058497572235 
-0.0007891466546412583 
4.396485510379056e-05 
0.0008199342448291107 
-0.001043933928694111 
0 
4.396485510379056e-05 
-0.0008199342448291107 
-1.929834902704579e-05 
-0.0002104180093935606 
0.0001388937402640922 
0 
-1.929834902704579e-05 
0.0002104180093935606 
0.0002068594881215932 
-0.0006116552718390274 
0.0006632162928952255 
0 
0.0002068594881215932 
0.0006116552718390274 
7.139644848923087e-05 
4.166557506414799e-05 
-0.000100931291243597 
0 
7.139644848923087e-05 
-4.166557506414799e-05 
-0.0002888099663921744 
-0.0007139968843492739 
0.000748832964677963 
0 
-0.0002888099663921744 
0.0007139968843492739 
0.0001017077510319855 
-5.306975815608823e-05 
1.058578688832382e-05 
0 
0.0001017077510319855 
5.306975815608823e-05 
-5.491395527799135e-05 
-0.000339072781755088 
0.000337287898658782 
0 
-5.491395527799135e-05 
0.000339072781755088 
1.186423705705815e-06 
0.001263797977335251 
-0.001505973422128766 
0 
1.186423705705815e-06 
-0.001263797977335251 
-1.283135250113196e-05 
-0.001026445585804201 
0.001125814510919384 
0 
-1.283135250113196e-05 
0.001026445585804201 
0.0005135418096974763 
-0.0007638811526377462 
0.0008734729022890903 
0 
0.0005135418096974763 
0.0007638811526377462 
0.0003187256731040875 
-0.001460688630745504 
0.001644513633376425 
0 
0.0003187256731040875 
0.001460688630745504 
0.0001508641910647456 
-0.0001545308863179441 
0.0001447837364400823 
0 
0.0001508641910647456 
0.0001545308863179441 
-0.0001610390288930358 
7.589117669684114e-05 
-0.00013522996233282 
0 
-0.0001610390288930358 
-7.589117669684114e-05 
-1.747433479208138e-05 
0.0008817827789777486 
-0.001044234119636091 
0 
-1.747433479208138e-05 
-0.0008817827789777486 
0.0002595544569823421 
0.0006990069848019823 
-0.0007707198195253499 
0 
0.0002595544569823421 
-0.0006990069848019823 
2.153670316835725e-05 
0.001254970723379099 
-0.001520536556522716 
0 
2.153670316835725e-05 
-0.001254970723379099 
-0.0001857026699447182 
-0.0002001608565914397 
0.000198919687918102 
0 
-0.0001857026699447182 
0.0002001608565914397 
0.0002911044824451633 
-0.0004813431615409556 
0.0005079513474428194 
0 
0.0002911044824451633 
0.0004813431615409556 
7.99248080319119e-05 
-0.0009297722782170245 
0.001031289923363755 
0 
7.99248080319119e-05 
0.0009297722782170245 
0.0001935702608906354 
-8.546206159033986e-05 
5.290869513332623e-05 
0 
0.0001935702608906354 
8.546206159033986e-05 
-8.456035016884056e-05 
-0.0008752060405833211 
0.0009537991172400827 
0 
-8.456035016884056e-05 
0.0008752060405833211 
8.261702315083723e-05 
0.0009162274981504245 
-0.001121220966482335 
0 
8.261702315083723e-05 
-0.0009162274981504245 
-0.0001285643338622701 
0.0009323884316285076 
-0.001101376312631046 
0 
-0.0001285643338622701 
-0.0009323884316285076 
0.000103802414525049 
0.0009276158856224568 
-0.001104449243029878 
0 
0.000103802414525049 
-0.0009276158856224568 
-7.214660681089694e-05 
-0.0005117593979992246 
0.0005559775643636177 
0 
-7.214660681089694e-05 
0.0005117593979992246 
0.0001576500000998795 
-0.0005959469424392851 
0.0006497812463681239 
0 
0.0001576500000998795 
0.0005959469424392851 
0.0001505079746962956 
-0.001061878726126637 
0.001143208103732031 
0 
0.0001505079746962956 
0.001061878726126637 
0.0001499645702274863 
0.0005098006072338789 
-0.0006479255203613527 
0 
0.0001499645702274863 
-0.0005098006072338789 
8.209467205655523e-05 
-1.674538422616204e-05 
3.194725364740576e-05 
0 
8.209467205655523e-05 
1.674538422616204e-05 
0.0002168102954852753 
0.0003303398493650082 
-0.00042741476095711 
0 
0.0002168102954852753 
-0.0003303398493650082 
-3.15356271630422e-05 
-0.0006455183925393122 
0.0006009352635547818 
0 
-3.15356271630422e-05 
0.0006455183925393122 
8.441258719416145e-05 
0.001418742043126621 
-0.001757775904201722 
0 
8.441258719416145e-05 
-0.001418742043126621 
-0.0002659132202190474 
-0.0008991710831822771 
0.001001843728728339 
0 
-0.0002659132202190474 
0.0008991710831822771 
0.0001765711830824033 
-0.0001433351885622337 
0.0001040895656139288 
0 
0.0001765711830824033 
0.0001433351885622337 
6.349999287553028e-05 
-0.0001507069402660253 
7.087312210710227e-05 
0 
6.349999287553028e-05 
0.0001507069402660253 
0.0005663880316950331 
0.0005719958629002316 
-0.0007947907232078251 
0 
0.0005663880316950331 
-0.0005719958629002316 
0.0002609397909181903 
-0.001694352613039621 
0.001841054499042306 
0 
0.0002609397909181903 
0.001694352613039621 
6.9783752952568e-05 
-0.0001704223545823353 
0.0001118236646778716 
0 
6.9783752952568e-05 
0.0001704223545823353 
-0.0001469682280963711 
0.0004361667714336124 
-0.0005539749319997257 
0 
-0.0001469682280963711 
-0.0004361667714336124 
0.0002721403175702406 
0.0009997004926126547 
-0.001166282704304013 
0 
0.0002721403175702406 
-0.0009997004926126547 
-0.0001711879481284053 
-0.001175346903344285 
0.001264651765212353 
0 
-0.0001711879481284053 
0.001175346903344285 
0.0005396898865617226 
-5.278455297987841e-05 
6.170069678020079e-06 
0 
0.0005396898865617226 
5.278455297987841e-05 
-6.034690958498344e-05 
-0.0003828342084986764 
0.0003389783979067845 
0 
-6.034690958498344e-05 
0.0003828342084986764 
4.953846334643839e-05 
0.0007706435788674879 
-0.001005681002637124 
0 
4.953846334643839e-05 
-0.0007706435788674879 
-3.962141036394483e-05 
-0.000269232901709012 
0.000233223080222745 
0 
-3.962141036394483e-05 
0.000269232901709012 
0.0002875532728266935 
0.0001918312571279881 
-0.0002667181721233249 
0 
0.0002875532728266935 
-0.0001918312571279881 
0.0003028661996936888 
0.0001680334778990356 
-0.0002590821344552705 
0 
0.0003028661996936888 
-0.0001680334778990356 
0.0002829684344400601 
-0.0005626706773693591 
0.0006002534238033353 
0 
0.0002829684344400601 
0.0005626706773693591 
-0.0003254061521979049 
-0.001633417677926214 
0.001713384572142034 
0 
-0.0003254061521979049 
0.001633417677926214 
0.0002617311562287662 
-0.000173964426089261 
0.0002162674896634354 
0 
0.0002617311562287662 
0.000173964426089261 
0.0003300194962643056 
-0.0005081106078786696 
0.0005320295860517985 
0 
0.0003300194962643056 
0.0005081106078786696 
0.0002263668363173646 
0.001668911487250026 
-0.001944372925955667 
0 
0.0002263668363173646 
-0.001668911487250026 
0.0001983497668424966 
-0.0009183124530763733 
0.001033361047145371 
0 
0.0001983497668424966 
0.0009183124530763733 
0.0004646418898263104 
-0.001266457092180145 
0.001384124122011858 
0 
0.0004646418898263104 
0.001266457092180145 
0.0001408091489639527 
0.0007840757584953356 
-0.0009961976494397497 
0 
0.0001408091489639527 
-0.0007840757584953356 
-4.279247801847606e-05 
0.0008591907370046401 
-0.001059509349159455 
0 
-4.279247801847606e-05 
-0.0008591907370046401 
-0.00022047870545326 
-0.001614291454330218 
0.001727064403262613 
0 
-0.00022047870545326 
0.001614291454330218 
-7.700109905220898e-05 
3.898731950170557e-05 
-0.0001152204219107364 
0 
-7.700109905220898e-05 
-3.898731950170557e-05 
4.259179052937321e-06 
0.0002825179657869436 
-0.0004059915738640078 
0 
4.259179052937321e-06 
-0.0002825179657869436 
-9.647763880222705e-05 
0.001804388225055324 
-0.00213051169174207 
0 
-9.647763880222705e-05 
-0.001804388225055324 
-0.0005526495245146584 
0.000222144920213292 
-0.0003986154443555111 
0 
-0.0005526495245146584 
-0.000222144920213292 
-0.0003547842566361949 
0.0005140377365051843 
-0.000700992461903732 
0 
-0.0003547842566361949 
-0.0005140377365051843 
-0.0002814000927854409 
0.00144790657624395 
-0.001740094168091323 
0 
-0.0002814000927854409 
-0.00144790657624395 
-0.0001470229360662962 
-0.0008149642065248162 
0.0008393906374469912 
0 
-0.0001470229360662962 
0.0008149642065248162 
-0.0004608833808698449 
-0.001217221255945639 
0.001393674877751153 
0 
-0.0004608833808698449 
0.001217221255945639 
8.271972656797804e-05 
0.0002492958252744823 
-0.0003617466051927755 
0 
8.271972656797804e-05 
-0.0002492958252744823 
0.0001197173113584735 
-0.0001443420000804992 
5.606276636849166e-05 
0 
0.0001197173113584735 
0.0001443420000804992 
-2.272295035001328e-05 
0.0007439660521026151 
-0.0009530659281422995 
0 
-2.272295035001328e-05 
-0.0007439660521026151 
-0.0003702867572238817 
0.0004332290383924411 
-0.0006054800067193233 
0 
-0.0003702867572238817 
-0.0004332290383924411 
-0.0001615454804425022 
0.0008040442761249654 
-0.001011194769980305 
0 
-0.0001615454804425022 
-0.0008040442761249654 
-8.81892086447605e-05 
0.0001887183368843506 
-0.000336883802975621 
0 
-8.81892086447605e-05 
-0.0001887183368843506 
-0.0003716796449980307 
0.0004158757186699728 
-0.0005545929687690208 
0 
-0.0003716796449980307 
-0.0004158757186699728 
-0.0007955343045788808 
-0.002424098146765656 
0.00266022630036053 
0 
-0.0007955343045788808 
0.002424098146765656 
-7.294618080813481e-05 
0.00151820380837939 
-0.001898454367119932 
0 
-7.294618080813481e-05 
-0.00151820380837939 
-7.17206797018604e-05 
0.002090851834799019 
-0.00250378836775571 
0 
-7.17206797018604e-05 
-0.002090851834799019 
-0.0002431829134507302 
0.0007590528534399902 
-0.0009384008286419378 
0 
-0.0002431829134507302 
-0.0007590528534399902 
5.030813646225546e-05 
0.0001109900883583981 
-0.0001899327829586009 
0 
5.030813646225546e-05 
-0.0001109900883583981 
-0.0002766928795944602 
-0.0003701944746174038 
0.0003835473715010487 
0 
-0.0002766928795944602 
0.0003701944746174038 
0.0001226765855558458 
-0.0007663690578198221 
0.0008244411616548599 
0 
0.0001226765855558458 
0.0007663690578198221 
-9.083033414871145e-05 
0.0007421529563617986 
-0.0009083277387918538 
0 
-9.083033414871145e-05 
-0.0007421529563617986 
-0.00022707635564724 
-5.81594987710313e-05 
-5.800350169472347e-06 
0 
-0.00022707635564724 
5.81594987710313e-05 
-6.345504076188793e-05 
-3.258368308284553e-05 
-1.90293517586567e-05 
0 
-6.345504076188793e-05 
3.258368308284553e-05 
-0.0004336706641374794 
0.0002419879065358448 
-0.0004002149112950308 
0 
-0.0004336706641374794 
-0.0002419879065358448 
-0.0002672032829173702 
0.001283337252453701 
-0.001569807638862484 
0 
-0.0002672032829173702 
-0.001283337252453701 
-0.00024218515579599 
0.001458180557559587 
-0.001789378654349848 
0 
-0.00024218515579599 
-0.001458180557559587 
-0.000152788094979996 
0.001405132710024029 
-0.001731139418958566 
0 
-0.000152788094979996 
-0.001405132710024029 
-0.0004139601722037966 
-0.000495822585095994 
0.0004396509752409728 
0 
-0.0004139601722037966 
0.000495822585095994 
-0.0003229632892350487 
-0.001493652638945578 
0.001620767636967506 
0 
-0.0003229632892350487 
0.001493652638945578 
0.0002759381391028802 
0.0008836679778897116 
-0.001142339322390898 
0 
0.0002759381391028802 
-0.0008836679778897116 
-0.0001887986515655019 
-1.716940808100756e-05 
-7.729597522102749e-05 
0 
-0.0001887986515655019 
1.716940808100756e-05 
-0.0002367225170226794 
0.0005976978359992045 
-0.0008058712492808751 
0 
-0.0002367225170226794 
-0.0005976978359992045 
-7.502009086875584e-05 
0.001144411796294494 
-0.001394678599074606 
0 
-7.502009086875584e-05 
-0.001144411796294494 
-0.0001539077914365476 
0.00081447257617464 
-0.0009875837744227503 
0 
-0.0001539077914365476 
-0.00081447257617464 
-8.531589162100324e-07 
-0.0005348773362921088 
0.0005524009008680393 
0 
-8.531589162100324e-07 
0.0005348773362921088 
6.580648384079338e-06 
-0.0008149174307128268 
0.0008823185930011187 
0 
6.580648384079338e-06 
0.0008149174307128268 
-0.0002589921113377898 
-0.001340320357893989 
0.001458593650380692 
0 
-0.0002589921113377898 
0.001340320357893989 
3.108310624968041e-05 
-4.075038286218498e-05 
-5.383229311480565e-05 
0 
3.108310624968041e-05 
4.075038286218498e-05 
4.355644243777098e-05 
0.0003833057830480604 
-0.0004907280981710419 
0 
4.355644243777098e-05 
-0.0003833057830480604 
1.699388494747711e-05 
0.001395469444772791 
-0.001683234483656378 
0 
1.699388494747711e-05 
-0.001395469444772791 
-8.044119282865454e-05 
0.001248378237128487 
-0.00148479363812613 
0 
-8.044119282865454e-05 
-0.001248378237128487 
-0.0004022162667206492 
-3.557768277080917e-05 
-8.465815895541692e-05 
0 
-0.0004022162667206492 
3.557768277080917e-05 
2.322421928284987e-05 
-0.0001177990380935193 
0.000118494975096827 
0 
2.322421928284987e-05 
0.0001177990380935193 
-4.530390482512921e-05 
-0.001143980479807284 
0.001261916199800135 
0 
-4.530390482512921e-05 
0.001143980479807284 
-0.0003951200470323612 
-0.0004183138844192523 
0.000435833425792013 
0 
-0.0003951200470323612 
0.0004183138844192523 
6.91064965700658e-05 
-0.001481324014719531 
0.001649975638675946 
0 
6.91064965700658e-05 
0.001481324014719531 
3.384590007900963e-05 
-0.0004075416795601904 
0.0004394174623215952 
0 
3.384590007900963e-05 
0.0004075416795601904 
0.0001134353374241498 
-0.0002306525653175745 
0.0001672757878908106 
0 
0.0001134353374241498 
0.0002306525653175745 
-0.0003154643479934149 
0.0008826786689894637 
-0.001109339748359187 
0 
-0.0003154643479934149 
-0.0008826786689894637 
-0.0001705586085265284 
0.001393150504044822 
-0.00162046893327129 
0 
-0.0001705586085265284 
-0.001393150504044822 
-0.0001434785998885041 
0.0004763795497201298 
-0.0006230486304474012 
0 
-0.0001434785998885041 
-0.0004763795497201298 
0.000231201084851719 
0.0008115377774170846 
-0.001110714284733133 
0 
0.000231201084851719 
-0.0008115377774170846 
-0.0001164098237871818 
-0.001090064923823282 
0.001168271873923982 
0 
-0.0001164098237871818 
0.001090064923823282 
-0.0005654297361825591 
-0.001387435543866348 
0.001506719003284411 
0 
-0.0005654297361825591 
0.001387435543866348 
0.0001460158233584655 
0.0004854279693373296 
-0.00059079235147098 
0 
0.0001460158233584655 
-0.0004854279693373296 
-0.0004555133802502182 
0.0003415084411844494 
-0.0004387615628761552 
0 
-0.0004555133802502182 
-0.0003415084411844494 
-0.0001693027350551032 
0.0005237981830939529 
-0.0006756363392062599 
0 
-0.0001693027350551032 
-0.0005237981830939529 
-0.0003392045308773737 
0.001297273774833025 
-0.001594496468649412 
0 
-0.0003392045308773737 
-0.001297273774833025 
-0.000240467961446024 
0.0007700184186222544 
-0.0009587232364811142 
0 
-0.000240467961446024 
-0.0007700184186222544 
-0.0004141033992150671 
0.0009113775496340393 
-0.001134398860681798 
0 
-0.0004141033992150671 
-0.0009113775496340393 
-0.0001688597884346749 
-0.0001642719049548553 
8.615193133127111e-05 
0 
-0.0001688597884346749 
0.0001642719049548553 
3.253452207955985e-05 
-0.001462856614685054 
0.001623143196950552 
0 
3.253452207955985e-05 
0.001462856614685054 
-1.688921937828174e-06 
-0.0005156612196586352 
0.0005584137020387772 
0 
-1.688921937828174e-06 
0.0005156612196586352 
7.699746187113333e-05 
-0.0003753044196407423 
0.0003455961921271573 
0 
7.699746187113333e-05 
0.0003753044196407423 
-0.00014113157747008 
0.001195700316584125 
-0.001457102016873736 
0 
-0.00014113157747008 
-0.001195700316584125 
-0.0003881410923812728 
0.0007705089584623522 
-0.001023782339331859 
0 
-0.0003881410923812728 
-0.0007705089584623522 
5.732913116459766e-05 
0.001631439086688618 
-0.001954586331951215 
0 
5.732913116459766e-05 
-0.001631439086688618 
-6.051655971617247e-05 
-0.0001970218385754941 
5.147255877135975e-05 
0 
-6.051655971617247e-05 
0.0001970218385754941 
3.925322514058396e-06 
-0.0007027326652124877 
0.000733904295027728 
0 
3.925322514058396e-06 
0.0007027326652124877 
-0.0001279217500658626 
-0.0002030190360716259 
0.0001294649149153408 
0 
-0.0001279217500658626 
0.0002030190360716259 
-0.0004005317448131801 
-0.002292567697593405 
0.002610494698892136 
0 
-0.0004005317448131801 
0.002292567697593405 
-0.0004995186011631017 
-8.058662882904959e-05 
2.684965769856807e-05 
0 
-0.0004995186011631017 
8.058662882904959e-05 
-0.0004029633304159102 
0.002431557936554137 
-0.002894720470815133 
0 
-0.0004029633304159102 
-0.002431557936554137 
-0.0003993318059452529 
0.00157599457845931 
-0.001989355846323218 
0 
-0.0003993318059452529 
-0.00157599457845931 
-0.000559636660784008 
0.002485849241432542 
-0.002992368376872165 
0 
-0.000559636660784008 
-0.002485849241432542 
-0.0003822889361685991 
0.000712326934054441 
-0.0009360303969694068 
0 
-0.0003822889361685991 
-0.000712326934054441 
-0.0003456276077836969 
-0.001285199883438325 
0.001329495040383883 
0 
-0.0003456276077836969 
0.001285199883438325 
0.0002991686461614805 
0.0003380668458294131 
-0.0004223342630414931 
0 
0.0002991686461614805 
-0.0003380668458294131 
0.0001176602198760744 
-0.002421464206166457 
0.002702334563744533 
0 
0.0001176602198760744 
0.002421464206166457 
-0.0001130130850029436 
0.0005162358802371965 
-0.0006811378788331147 
0 
-0.0001130130850029436 
-0.0005162358802371965 
-0.0006191140174853094 
0.002615043103906658 
-0.003130470068957841 
0 
-0.0006191140174853094 
-0.002615043103906658 
-0.0009414954002663012 
0.003574425724716047 
-0.004278928558346413 
0 
-0.0009414954002663012 
-0.003574425724716047 
-7.856337245812721e-05 
0.0007734597525899412 
-0.000988364233990215 
0 
-7.856337245812721e-05 
-0.0007734597525899412 
-0.000709160948876482 
-0.002841165425747088 
0.003203236624478776 
0 
-0.000709160948876482 
0.002841165425747088 
-5.722727936220936e-05 
-0.0002217287812658523 
0.0001592117886618437 
0 
-5.722727936220936e-05 
0.0002217287812658523 
4.114942217268746e-05 
0.001734422389423884 
-0.002046635031400501 
0 
4.114942217268746e-05 
-0.001734422389423884 
9.908270382983385e-06 
-0.001313726434846315 
0.001463804500522681 
0 
9.908270382983385e-06 
0.001313726434846315 
4.919493078684784e-05 
-0.001180255524000326 
0.001354543151233209 
0 
4.919493078684784e-05 
0.001180255524000326 
0.0001378923350395217 
0.0006097933693349697 
-0.0007193583780941122 
0 
0.0001378923350395217 
-0.0006097933693349697 
5.515268580678364e-06 
-0.0008258780531496282 
0.0008585724522953286 
0 
5.515268580678364e-06 
0.0008258780531496282 
-1.77002861156662e-05 
-0.001716885804819044 
0.00184343729433011 
0 
-1.77002861156662e-05 
0.001716885804819044 
-1.499161540601851e-05 
0.001023953110724572 
-0.001225514973904802 
0 
-1.499161540601851e-05 
-0.001023953110724572 
-8.26182103469085e-05 
0.001944096562170479 
-0.002285367648702808 
0 
-8.26182103469085e-05 
-0.001944096562170479 
4.277906783772251e-05 
0.0005164752428377537 
-0.0006558164311608773 
0 
4.277906783772251e-05 
-0.0005164752428377537 
0.0001707046664388216 
-0.0003720236354634811 
0.0004037789106422177 
0 
0.0001707046664388216 
0.0003720236354634811 
0.0002746011419791049 
-0.0004093932374282802 
0.0004080109332634209 
0 
0.0002746011419791049 
0.0004093932374282802 
-6.657501770388926e-05 
-0.0006446771927414147 
0.0007060542935620356 
0 
-6.657501770388926e-05 
0.0006446771927414147 
-0.0003026920589877742 
-0.0003267767834780173 
0.0002787728835301054 
0 
-0.0003026920589877742 
0.0003267767834780173 
-0.0001318391873132494 
0.0003951435327989486 
-0.0005181088182386449 
0 
-0.0001318391873132494 
-0.0003951435327989486 
-6.246518236865936e-05 
0.000310487162078233 
-0.0004354612847070858 
0 
-6.246518236865936e-05 
-0.000310487162078233 
8.068676867392572e-05 
0.000839727623632219 
-0.001028529060881812 
0 
8.068676867392572e-05 
-0.000839727623632219 
5.723353838686098e-05 
0.0007598488673345664 
-0.0009156976155722985 
0 
5.723353838686098e-05 
-0.0007598488673345664 
0.0001323176865380832 
3.016890258590503e-05 
-8.634580086662091e-05 
0 
0.0001323176865380832 
-3.016890258590503e-05 
5.276631092356228e-05 
-0.0003092854944451561 
0.0003118156394297995 
0 
5.276631092356228e-05 
0.0003092854944451561 
-0.0001096081498829092 
0.0003171822930296609 
-0.0003999525129800408 
0 
-0.0001096081498829092 
-0.0003171822930296609 
0.0002161926950421753 
-0.0001867194462998968 
0.0001228266957423218 
0 
0.0002161926950421753 
0.0001867194462998968 
2.979834877033746e-05 
0.0003279996851714912 
-0.0004622050447556885 
0 
2.979834877033746e-05 
-0.0003279996851714912 
0.0002403773279257922 
-0.0005608475879186057 
0.0006025778573484493 
0 
0.0002403773279257922 
0.0005608475879186057 
0.0003121935950972668 
-0.001115713891084766 
0.001213335517312557 
0 
0.0003121935950972668 
0.001115713891084766 
-2.711713954648105e-05 
0.001394621917699284 
-0.001712925744311954 
0 
-2.711713954648105e-05 
-0.001394621917699284 
-9.083704469934633e-05 
-0.001009893559590149 
0.001060569340322026 
0 
-9.083704469934633e-05 
0.001009893559590149 
-0.0001948309319750832 
4.652648863539616e-05 
-0.0001728335602422427 
0 
-0.0001948309319750832 
-4.652648863539616e-05 
-0.0002566941276233625 
0.0002212319515229707 
-0.0003416919165194839 
0 
-0.0002566941276233625 
-0.0002212319515229707 
0.0002505003812041614 
0.0001080833617665399 
-0.0001582773028843321 
0 
0.0002505003812041614 
-0.0001080833617665399 
-9.276190155131887e-05 
-0.001020012055003515 
0.001054650827238006 
0 
-9.276190155131887e-05 
0.001020012055003515 
1.593318815506843e-07 
-5.836887903478198e-05 
-3.481509301144033e-07 
0 
1.593318815506843e-07 
5.836887903478198e-05 
-8.036048737042777e-05 
0.0007854036441641093 
-0.0009779269410808288 
0 
-8.036048737042777e-05 
-0.0007854036441641093 
0.0001788901884040986 
0.002091331704683177 
-0.002511462862225335 
0 
0.0001788901884040986 
-0.002091331704683177 
0.0002150147662095504 
-0.0004587187740759867 
0.0004617199626054266 
0 
0.0002150147662095504 
0.0004587187740759867 
-0.0001961464930197002 
-0.0005513885910524687 
0.0006120419697648261 
0 
-0.0001961464930197002 
0.0005513885910524687 
0.0001488404357094304 
-0.0004086157112361843 
0.0004148326022952433 
0 
0.0001488404357094304 
0.0004086157112361843 
0.0002611175777441704 
-0.001525749073213202 
0.001682337665566883 
0 
0.0002611175777441704 
0.001525749073213202 
0.0001548480883112039 
-0.0005280316837255573 
0.0005581567423491038 
0 
0.0001548480883112039 
0.0005280316837255573 
-7.851612405716532e-05 
-0.000205246911299652 
0.0001487460218120341 
0 
-7.851612405716532e-05 
0.000205246911299652 
-0.0001527701654465651 
0.001129922853155905 
-0.001414011846659174 
0 
-0.0001527701654465651 
-0.001129922853155905 
0.0005976722204024234 
9.133862575628767e-05 
-0.0002768314590962754 
0 
0.0005976722204024234 
-9.133862575628767e-05 
-2.949297572675492e-05 
-0.0001819971677448708 
0.0001505059482792232 
0 
-2.949297572675492e-05 
0.0001819971677448708 
2.778375248438056e-05 
1.852174156646116e-06 
-6.848314067912634e-05 
0 
2.778375248438056e-05 
-1.852174156646116e-06 
-2.817401473726813e-05 
0.001139696511439249 
-0.00130302675625345 
0 
-2.817401473726813e-05 
-0.001139696511439249 
5.167234545932838e-05 
-0.0008871747893789204 
0.000964816566010337 
0 
5.167234545932838e-05 
0.0008871747893789204 
0.0001338739695044277 
-9.556269466078012e-05 
4.931218407604289e-05 
0 
0.0001338739695044277 
9.556269466078012e-05 
0.000218242880566336 
-0.0004577838320029507 
0.0004918180127382508 
0 
0.000218242880566336 
0.0004577838320029507 
0.0002014107131024743 
-0.0007957868424465357 
0.000839997440536253 
0 
0.0002014107131024743 
0.0007957868424465357 
0.0001716560281431176 
0.0002726509437625926 
-0.0004543758420617106 
0 
0.0001716560281431176 
-0.0002726509437625926 
0.0002865217538731513 
-0.0005120484834963417 
0.0005306026580430481 
0 
0.0002865217538731513 
0.0005120484834963417 
0.0002380651240179645 
-0.0001993147637147075 
0.0001840488755843989 
0 
0.0002380651240179645 
0.0001993147637147075 
0.000208932523599753 
-0.0001924401883949751 
0.000127067016060069 
0 
0.000208932523599753 
0.0001924401883949751 
0.0004216205879891669 
-0.001825533831178151 
0.002058142873737959 
0 
0.0004216205879891669 
0.001825533831178151 
9.148938236848103e-05 
7.55303089648251e-05 
-0.0001200660476935287 
0 
9.148938236848103e-05 
-7.55303089648251e-05 
4.842605322673073e-05 
0.0005938578506919832 
-0.0006659226290813303 
0 
4.842605322673073e-05 
-0.0005938578506919832 
0.0003134856189552748 
1.833451469629685e-05 
-8.495061858648505e-05 
0 
0.0003134856189552748 
-1.833451469629685e-05 
-0.0001108787847961476 
-0.001001449223652395 
0.001062688708751993 
0 
-0.0001108787847961476 
0.001001449223652395 
1.981347875999118e-05 
0.0004317757611771102 
-0.0005497062668494074 
0 
1.981347875999118e-05 
-0.0004317757611771102 
-0.0001932655902906785 
-0.0002356114437506684 
0.000185776672996123 
0 
-0.0001932655902906785 
0.0002356114437506684 
-0.0001396759319506225 
0.0003869460357743865 
-0.0005148049939985727 
0 
-0.0001396759319506225 
-0.0003869460357743865 
-0.000294467863475004 
-1.20378386031027e-05 
-7.881632509676376e-05 
0 
-0.000294467863475004 
1.20378386031027e-05 
0.0001904717006264312 
0.0003476685049289137 
-0.0004086879999774756 
0 
0.0001904717006264312 
-0.0003476685049289137 
0.0001855210215374379 
-0.0002294484032157324 
0.0002012064444726572 
0 
0.0001855210215374379 
0.0002294484032157324 
0.0002742985604311637 
0.000574634890266636 
-0.0007553579140209952 
0 
0.0002742985604311637 
-0.000574634890266636 
-0.0003346479812414507 
-0.001809834878227497 
0.002044614108735027 
0 
-0.0003346479812414507 
0.001809834878227497 
0.0001957342040483475 
0.0003969661513993136 
-0.000500630718622427 
0 
0.0001957342040483475 
-0.0003969661513993136 
1.970010284677611e-05 
6.77170797355704e-05 
-0.00011543457435255 
0 
1.970010284677611e-05 
-6.77170797355704e-05 
9.018618370359688e-05 
0.000303969020051597 
-0.0004470269206225492 
0 
9.018618370359688e-05 
-0.000303969020051597 
-0.000294129566972544 
0.0001532061657019325 
-0.0002508894029583472 
0 
-0.000294129566972544 
-0.0001532061657019325 
-0.0002135092199497403 
0.0006736623098181269 
-0.000853026589964302 
0 
-0.0002135092199497403 
-0.0006736623098181269 
-7.267584181548713e-05 
0.0005969259599754419 
-0.0007260066609614852 
0 
-7.267584181548713e-05 
-0.0005969259599754419 
0.0001153674983379062 
0.0005275161747810821 
-0.0007011157113055265 
0 
0.0001153674983379062 
-0.0005275161747810821 
-8.238049962300719e-05 
-0.0009660254467546677 
0.001046864058427337 
0 
-8.238049962300719e-05 
0.0009660254467546677 
0.0002008401686363756 
-0.0001669851980013149 
0.000178157935289764 
0 
0.0002008401686363756 
0.0001669851980013149 
0.0003765673975526476 
-0.0004318979944060328 
0.0004446438974021399 
0 
0.0003765673975526476 
0.0004318979944060328 
-9.138890656317232e-06 
8.948503072085513e-05 
-0.0001875819008800748 
0 
-9.138890656317232e-06 
-8.948503072085513e-05 
-6.430201845355053e-06 
-0.0007026693719146527 
0.0007090773499506168 
0 
-6.430201845355053e-06 
0.0007026693719146527 
0.0001456515351003749 
0.0007981644097437398 
-0.0009403930819311001 
0 
0.0001456515351003749 
-0.0007981644097437398 
-2.833875309329158e-05 
0.00102095994293411 
-0.001201478731166595 
0 
-2.833875309329158e-05 
-0.00102095994293411 
8.447619656962819e-05 
-3.397391459974365e-05 
-3.610232713585784e-05 
0 
8.447619656962819e-05 
3.397391459974365e-05 
-0.0001990608418662833 
-0.001672075738214157 
0.001851605680157511 
0 
-0.0001990608418662833 
0.001672075738214157 
0.0003764092748015767 
0.001132169487407045 
-0.001273288721568393 
0 
0.0003764092748015767 
-0.001132169487407045 
-0.0001713791347290503 
0.0004710151102399095 
-0.0006262408387101267 
0 
-0.0001713791347290503 
-0.0004710151102399095 
6.557273775845843e-05 
0.0004380325368924445 
-0.0005418347485370464 
0 
6.557273775845843e-05 
-0.0004380325368924445 
-0.0002011384645585599 
-0.0006426036929701706 
0.0006467275670317905 
0 
-0.0002011384645585599 
0.0006426036929701706 
8.06698471200047e-05 
-0.001000830849926656 
0.001103408615345528 
0 
8.06698471200047e-05 
0.001000830849926656 
0.0002216352318370749 
0.0007615376307414795 
-0.0008878056240593526 
0 
0.0002216352318370749 
-0.0007615376307414795 
0.0002668959142313996 
0.0004666335622508239 
-0.0006237230420857756 
0 
0.0002668959142313996 
-0.0004666335622508239 
-7.15514407429117e-05 
-0.001934771616696961 
0.002163157027009258 
0 
-7.15514407429117e-05 
0.001934771616696961 
0.0003072371983201918 
-0.001318545664089205 
0.001434389003847485 
0 
0.0003072371983201918 
0.001318545664089205 
0.0002902803673941107 
0.001177100186466167 
-0.001387676324009132 
0 
0.0002902803673941107 
-0.001177100186466167 
0.0001553753263893932 
0.0002254634600296334 
-0.0003321629832862708 
0 
0.0001553753263893932 
-0.0002254634600296334 
-0.0001341675645065788 
-0.000777061127199309 
0.0007671874441167234 
0 
-0.0001341675645065788 
0.000777061127199309 
0.0001218296961724321 
0.0007192573153946526 
-0.0008628444719685068 
0 
0.0001218296961724321 
-0.0007192573153946526 
0.0001686469766277572 
0.0003173568194719289 
-0.0003936828350494045 
0 
0.0001686469766277572 
-0.0003173568194719289 
0.0001794893528141222 
0.0007760456380964298 
-0.0008994167766564583 
0 
0.0001794893528141222 
-0.0007760456380964298 
0.0001192479738854763 
-0.001251066453945647 
0.001443228886946248 
0 
0.0001192479738854763 
0.001251066453945647 
0.0002576271925152588 
0.0005759955778371355 
-0.0006645660020216722 
0 
0.0002576271925152588 
-0.0005759955778371355 
0.0004855663233638446 
-4.56204398263277e-05 
3.767521050060668e-05 
0 
0.0004855663233638446 
4.56204398263277e-05 
0.0003530618727309791 
0.0001151375826858968 
-0.0001481659039665705 
0 
0.0003530618727309791 
-0.0001151375826858968 
0.0001799053579123396 
-0.001570743679536557 
0.001766093918309091 
0 
0.0001799053579123396 
0.001570743679536557 
-4.173360128365378e-05 
-0.0001674788056452119 
0.0001012908694028041 
0 
-4.173360128365378e-05 
0.0001674788056452119 
0.0003987840718138942 
0.001376719716922481 
-0.001634631912724545 
0 
0.0003987840718138942 
-0.001376719716922481 
0.0002171523655749111 
-0.0006208541489269911 
0.0006583143497741171 
0 
0.0002171523655749111 
0.0006208541489269911 
-0.0006244073984124934 
-0.001691912768900561 
0.001873116524060789 
0 
-0.0006244073984124934 
0.001691912768900561 
0.0002791920972182267 
0.000403020041590705 
-0.0004762000330006906 
0 
0.0002791920972182267 
-0.000403020041590705 
-4.092314981444353e-05 
0.0002169406837410619 
-0.0003423912741226208 
0 
-4.092314981444353e-05 
-0.0002169406837410619 
1.859452823363213e-05 
0.00087844870713165 
-0.001005474921984937 
0 
1.859452823363213e-05 
-0.00087844870713165 
8.348098293293381e-05 
-0.0005964145646159077 
0.0006313982378249765 
0 
8.348098293293381e-05 
0.0005964145646159077 
1.392782954957692e-05 
3.907734453991671e-06 
-6.951576107015738e-05 
0 
1.392782954957692e-05 
-3.907734453991671e-06 
0.0003341465422732672 
0.0003284100878888088 
-0.0004097957011983839 
0 
0.0003341465422732672 
-0.0003284100878888088 
0.0001457283976460324 
0.0007005892637890492 
-0.0008939358243834657 
0 
0.0001457283976460324 
-0.0007005892637890492 
-0.0005183294274860511 
-0.003399266223481243 
0.003909665304918541 
0 
-0.0005183294274860511 
0.003399266223481243 
4.10722860213875e-05 
0.001113969943901693 
-0.001299739060253966 
0 
4.10722860213875e-05 
-0.001113969943901693 
1.516683401225338e-05 
0.001063219814621712 
-0.001355213139260362 
0 
1.516683401225338e-05 
-0.001063219814621712 
0.0001243097641098917 
0.0009924672977199931 
-0.001212070756916968 
0 
0.0001243097641098917 
-0.0009924672977199931 
-0.0001259580932641921 
-0.0009051433881672626 
0.0009181440821177062 
0 
-0.0001259580932641921 
0.0009051433881672626 
-0.0001438494647429593 
-0.0001446725260462074 
0.0001062298570075303 
0 
-0.0001438494647429593 
0.0001446725260462074 
0.0001648249298059501 
0.001173570503227083 
-0.001401195955350624 
0 
0.0001648249298059501 
-0.001173570503227083 
0.0001863423717225132 
0.0007549838854932381 
-0.0009103996594924163 
0 
0.0001863423717225132 
-0.0007549838854932381 
-0.0007232537433335865 
-0.004321645149122445 
0.005019267227710176 
0 
-0.0007232537433335865 
0.004321645149122445 
-1.51075196960515e-06 
0.0009545651680948885 
-0.001075210643595855 
0 
-1.51075196960515e-06 
-0.0009545651680948885 
-0.0001700822168039805 
0.001330578815614726 
-0.001644725672269718 
0 
-0.0001700822168039805 
-0.001330578815614726 
0.0001787978130217545 
0.0006879344873388296 
-0.000888105249400707 
0 
0.0001787978130217545 
-0.0006879344873388296 
-0.0005767877552940535 
-0.0002775581153205685 
0.0001900826372212989 
0 
-0.0005767877552940535 
0.0002775581153205685 
-0.0004760212742207521 
0.001723632874756868 
-0.002096764400332262 
0 
-0.0004760212742207521 
-0.001723632874756868 
1.67293767524351e-05 
0.001549391244833762 
-0.001859260682547031 
0 
1.67293767524351e-05 
-0.001549391244833762 
-5.162166729933103e-05 
0.0007911992923526819 
-0.0009789719073890085 
0 
-5.162166729933103e-05 
-0.0007911992923526819 
-0.0008866171774529891 
-0.00380268193908203 
0.004335233643496164 
0 
-0.0008866171774529891 
0.00380268193908203 
3.203843792828858e-05 
0.001877335076522642 
-0.002205872621105576 
0 
3.203843792828858e-05 
-0.001877335076522642 
-0.0001517485833116131 
0.001340472254869577 
-0.001683732889969277 
0 
-0.0001517485833116131 
-0.001340472254869577 
7.682292220560449e-05 
-0.0001275287887589015 
5.618784394646388e-05 
0 
7.682292220560449e-05 
0.0001275287887589015 
8.837195237063842e-05 
-0.0004206258973919161 
0.0003520541338442903 
0 
8.837195237063842e-05 
0.0004206258973919161 
-0.0001628080353319996 
-3.463781257742034e-05 
-7.511430997963396e-05 
0 
-0.0001628080353319996 
3.463781257742034e-05 
-0.0001620038594298475 
0.000381745409009204 
-0.0005753649520239195 
0 
-0.0001620038594298475 
-0.000381745409009204 
0.0006016988864705428 
0.001144447864861458 
-0.001446633803313332 
0 
0.0006016988864705428 
-0.001144447864861458 
-0.0002030583747572203 
-0.0008567666757002092 
0.0009341576676582469 
0 
-0.0002030583747572203 
0.0008567666757002092 
-5.846636310451555e-05 
0.0006363188590045875 
-0.0007775674084393333 
0 
-5.846636310451555e-05 
-0.0006363188590045875 
-9.780467235619425e-05 
0.001374445226912234 
-0.001655080256246633 
0 
-9.780467235619425e-05 
-0.001374445226912234 
-6.260619215884971e-05 
-0.0001262716622695914 
3.276539483148075e-05 
0 
-6.260619215884971e-05 
0.0001262716622695914 
7.921419321713042e-05 
0.0004304193689458781 
-0.0005776684490518918 
0 
7.921419321713042e-05 
-0.0004304193689458781 
-2.009700579622095e-06 
0.0006979224045416958 
-0.0008934689097250079 
0 
-2.009700579622095e-06 
-0.0006979224045416958 
-0.0002067494735006294 
0.0005733320613776259 
-0.000708009064010117 
0 
-0.0002067494735006294 
-0.0005733320613776259 
-7.055052737581135e-05 
-0.001824922843032239 
0.002026530151347929 
0 
-7.055052737581135e-05 
0.001824922843032239 
1.559737020032569e-05 
0.0003420025270387848 
-0.0004467101277019302 
0 
1.559737020032569e-05 
-0.0003420025270387848 
-0.000236160161441912 
0.001117660774090728 
-0.001378022518606348 
0 
-0.000236160161441912 
-0.001117660774090728 
-0.0003047870043345094 
0.002272311866876222 
-0.002741208192305767 
0 
-0.0003047870043345094 
-0.002272311866876222 
2.141839560242588e-05 
0.0004455135319176834 
-0.0006618144333211454 
0 
2.141839560242588e-05 
-0.0004455135319176834 
-0.0001141519910264564 
-7.31485946843483e-05 
-2.155019903655428e-05 
0 
-0.0001141519910264564 
7.31485946843483e-05 
-0.0001009875391934296 
5.122695460724943e-06 
-5.560372817125085e-05 
0 
-0.0001009875391934296 
-5.122695460724943e-06 
0.0002478790068717831 
-9.54805878597282e-05 
0.0001141280453006759 
0 
0.0002478790068717831 
9.54805878597282e-05 
-0.0003314107702920185 
-0.002874533829653831 
0.003316433102275273 
0 
-0.0003314107702920185 
0.002874533829653831 
0.0002615198025286017 
-0.001613065618787633 
0.001768798941856084 
0 
0.0002615198025286017 
0.001613065618787633 
0.0002232605279164578 
-0.0002316220026276118 
0.0001952928319447819 
0 
0.0002232605279164578 
0.0002316220026276118 
3.599262483787897e-06 
0.001757262324114125 
-0.002046017773846442 
0 
3.599262483787897e-06 
-0.001757262324114125 
0.000164011196286708 
0.001073638503215101 
-0.001338461213537276 
0 
0.000164011196286708 
-0.001073638503215101 
-0.0003396201654104273 
0.0001799874856646103 
-0.0003152996412197126 
0 
-0.0003396201654104273 
-0.0001799874856646103 
-0.0003607807758978531 
0.0002669391334947016 
-0.000427563458120976 
0 
-0.0003607807758978531 
-0.0002669391334947016 
-5.861272685937603e-06 
0.0002299314748098326 
-0.0003616840503794437 
0 
-5.861272685937603e-06 
-0.0002299314748098326 
7.668196788205941e-06 
-0.001581669734380941 
0.001800636654500109 
0 
7.668196788205941e-06 
0.001581669734380941 
-0.0001185050653128877 
-0.0009962332213626676 
0.001109748391857736 
0 
-0.0001185050653128877 
0.0009962332213626676 
3.861134797658396e-05 
0.0004111085286184206 
-0.0005520844057420113 
0 
3.861134797658396e-05 
-0.0004111085286184206 
-0.000157720869552187 
0.0010126602616707 
-0.001284955778890709 
0 
-0.000157720869552187 
-0.0010126602616707 
-0.0004360012226479849 
-0.0006942267250170418 
0.0007686697381748889 
0 
-0.0004360012226479849 
0.0006942267250170418 
6.590685411827257e-05 
1.91526997572232e-05 
-0.0001608711964208796 
0 
6.590685411827257e-05 
-1.91526997572232e-05 
-5.373737535650227e-05 
-4.600797820069785e-05 
-6.137018493379513e-07 
0 
-5.373737535650227e-05 
4.600797820069785e-05 
0.0005304253587842471 
0.001537545192673882 
-0.00188667820420579 
0 
0.0005304253587842471 
-0.001537545192673882 
0.0002462422971061757 
-0.001438084340843123 
0.001576352589697107 
0 
0.0002462422971061757 
0.001438084340843123 
-0.0003857463706297808 
-0.001333118171604481 
0.001511742330109004 
0 
-0.0003857463706297808 
0.001333118171604481 
0.0001727280235627211 
0.0006983682368459041 
-0.0008596297549494957 
0 
0.0001727280235627211 
-0.0006983682368459041 
-0.0001912134099594729 
0.0004199598361910637 
-0.0005726873619126759 
0 
-0.0001912134099594729 
-0.0004199598361910637 
4.159325436771898e-06 
-0.000508966711593571 
0.0005023329243814834 
0 
4.159325436771898e-06 
0.000508966711593571 
4.1830414883053e-05 
-0.0007157257789099772 
0.0007366891589203515 
0 
4.1830414883053e-05 
0.0007157257789099772 
-0.0002378836086840427 
0.001111196439410764 
-0.001343223947548969 
0 
-0.0002378836086840427 
-0.001111196439410764 
5.5980972555688e-05 
0.001198060022652562 
-0.001429960848196063 
0 
5.5980972555688e-05 
-0.001198060022652562 
-6.833404593628073e-05 
8.031085804565256e-05 
-0.000183577223946167 
0 
-6.833404593628073e-05 
-8.031085804565256e-05 
0.0002108095337752733 
-0.0007087671888690043 
0.0007660865239879451 
0 
0.0002108095337752733 
0.0007087671888690043 
-7.411581206733505e-05 
0.000574558907579432 
-0.0007224123082491244 
0 
-7.411581206733505e-05 
-0.000574558907579432 
-0.000186975172147055 
0.0002377929202655523 
-0.0003697787090144881 
0 
-0.000186975172147055 
-0.0002377929202655523 
8.560423989503544e-05 
-0.0007278820449026501 
0.0007992564104418572 
0 
8.560423989503544e-05 
0.0007278820449026501 
2.687688426723408e-05 
-0.0005285578200702769 
0.0005626409861670108 
0 
2.687688426723408e-05 
0.0005285578200702769 
-2.907899285071174e-05 
0.001374487944540082 
-0.001657172418581947 
0 
-2.907899285071174e-05 
-0.001374487944540082 
0.000163314235456426 
0.0008122558935927188 
-0.001039606670675571 
0 
0.000163314235456426 
-0.0008122558935927188 
0.0001509914599530897 
-0.001304319360796334 
0.001410596732228061 
0 
0.0001509914599530897 
0.001304319360796334 
0.0001312881097921607 
-0.0002887679616169939 
0.0001752709528522766 
0 
0.0001312881097921607 
0.0002887679616169939 
-0.0003811506734427251 
-0.0004892521795272234 
0.0004863973792685695 
0 
-0.0003811506734427251 
0.0004892521795272234 
-0.0004917207013390917 
-0.0004625226197631228 
0.0004170761116848001 
0 
-0.0004917207013390917 
0.0004625226197631228 
-0.0001370699747895357 
-0.0005247419463570306 
0.0004665085063019556 
0 
-0.0001370699747895357 
0.0005247419463570306 
-0.0001407354242249231 
0.0001574989263263738 
-0.0003031358538648906 
0 
-0.0001407354242249231 
-0.0001574989263263738 
-0.0004129712311393864 
0.00141998151457888 
-0.001735505371006435 
0 
-0.0004129712311393864 
-0.00141998151457888 
5.384319249459304e-06 
0.001186677495137401 
-0.001538283424328942 
0 
5.384319249459304e-06 
-0.001186677495137401 
-2.840137379518195e-05 
4.061136625651099e-06 
-0.0001455363431498246 
0 
-2.840137379518195e-05 
-4.061136625651099e-06 
-0.000143564121329656 
0.00134356468908201 
-0.00165166975841226 
0 
-0.000143564121329656 
-0.00134356468908201 
-0.0003471425659934193 
-0.0005549647979961272 
0.0005823936817697706 
0 
-0.0003471425659934193 
0.0005549647979961272 
-0.0004438020433068056 
0.0001506192965802708 
-0.0003030907593034591 
0 
-0.0004438020433068056 
-0.0001506192965802708 
-0.0003827535699207758 
0.00155273277756362 
-0.001950016788271089 
0 
-0.0003827535699207758 
-0.00155273277756362 
-0.0004540892020139789 
0.001890605241732319 
-0.002362071827708302 
0 
-0.0004540892020139789 
-0.001890605241732319 
-0.0005403993269443521 
-0.0006388496105532214 
0.0006505226817551946 
0 
-0.0005403993269443521 
0.0006388496105532214 
-0.0004483810921665133 
-0.001759645528319281 
0.001959000693301502 
0 
-0.0004483810921665133 
0.001759645528319281 
-0.0001734779636885233 
0.001071230243767615 
-0.001334107722725271 
0 
-0.0001734779636885233 
-0.001071230243767615 
0.000195356829340103 
-0.0004796128686232072 
0.0004151693279422921 
0 
0.000195356829340103 
0.0004796128686232072 
0.0002776245146759021 
-0.002741050491026971 
0.003184017713449352 
0 
0.0002776245146759021 
0.002741050491026971 
0.0001826328920821096 
-0.002392204971834371 
0.002690867882165457 
0 
0.0001826328920821096 
0.002392204971834371 
-3.144019252637744e-05 
0.0007438274802194148 
-0.0008884860621706583 
0 
-3.144019252637744e-05 
-0.0007438274802194148 
0.0002435707473284299 
0.001361798312949072 
-0.001606734835414531 
0 
0.0002435707473284299 
-0.001361798312949072 
-0.0003493123606122757 
0.0008019084664400291 
-0.00101834218980738 
0 
-0.0003493123606122757 
-0.0008019084664400291 
6.571641161001707e-05 
0.0009706964528591597 
-0.001163238239311723 
0 
6.571641161001707e-05 
-0.0009706964528591597 
-0.0001083539435073141 
0.001563792433781551 
-0.00186212136269315 
0 
-0.0001083539435073141 
-0.001563792433781551 
0.0003338645591293588 
-0.0007681999006788459 
0.0007672138063698357 
0 
0.0003338645591293588 
0.0007681999006788459 
0.0006068848772884839 
-0.0002813009995371782 
0.0002620090368913752 
0 
0.0006068848772884839 
0.0002813009995371782 
0.0002803462981617913 
-0.0005900740275902846 
0.0006946198857007554 
0 
0.0002803462981617913 
0.0005900740275902846 
-0.0001570218055639564 
-0.0009194256437927368 
0.001011517116012267 
0 
-0.0001570218055639564 
0.0009194256437927368 
0.0001709102084025478 
0.0008779725303114702 
-0.001026658080079993 
0 
0.0001709102084025478 
-0.0008779725303114702 
-6.766252547401759e-06 
0.0001282804374508222 
-0.0002214320370862359 
0 
-6.766252547401759e-06 
-0.0001282804374508222 
2.335744233224661e-05 
0.0003271028150070438 
-0.0004477143963981924 
0 
2.335744233224661e-05 
-0.0003271028150070438 
0.0001813479620602639 
-0.0002015827698245239 
0.0001007410911122343 
0 
0.0001813479620602639 
0.0002015827698245239 
0.0001530491588725143 
-0.0005251850639703519 
0.0004635459502532881 
0 
0.0001530491588725143 
0.0005251850639703519 
0.0001887407941976335 
-0.0007066405566679071 
0.0007533799479328674 
0 
0.0001887407941976335 
0.0007066405566679071 
0.0001022598367673969 
-0.0006683715493968583 
0.0006785058180979017 
0 
0.0001022598367673969 
0.0006683715493968583 
0.0002179967489507435 
0.0004975662827166262 
-0.0005692385334548123 
0 
0.0002179967489507435 
-0.0004975662827166262 
0.0002033367308380422 
-0.0001017151753538706 
9.141256747512552e-05 
0 
0.0002033367308380422 
0.0001017151753538706 
0.0001530625276285989 
0.0005841945402035304 
-0.00069418156657991 
0 
0.0001530625276285989 
-0.0005841945402035304 
0.0002235153250596904 
0.000387443595385717 
-0.0004438235669581989 
0 
0.0002235153250596904 
-0.000387443595385717 
4.656258869527145e-05 
-0.0006375443432158045 
0.000618025707246355 
0 
4.656258869527145e-05 
0.0006375443432158045 
0.0001298488777999564 
0.001153356580799993 
-0.001457039584033315 
0 
0.0001298488777999564 
-0.001153356580799993 
0.0001258766374852221 
-0.0006601161123473644 
0.0006975226048133343 
0 
0.0001258766374852221 
0.0006601161123473644 
7.28732493912729e-05 
-2.827447158131322e-05 
-1.553402982898615e-05 
0 
7.28732493912729e-05 
2.827447158131322e-05 
0.0003515337421653023 
0.0005448737901873009 
-0.00064157208407017 
0 
0.0003515337421653023 
-0.0005448737901873009 
0.0001446244931250597 
-0.0004584656952558661 
0.0004867261177340744 
0 
0.0001446244931250597 
0.0004584656952558661 
8.295816090437435e-05 
-0.0006617937752549838 
0.0007135987544915091 
0 
8.295816090437435e-05 
0.0006617937752549838 
1.440731837362027e-05 
-0.001199744190497304 
0.001326629422583807 
0 
1.440731837362027e-05 
0.001199744190497304 
-2.307343842041525e-05 
0.0005056548728941117 
-0.0006766112193943193 
0 
-2.307343842041525e-05 
-0.0005056548728941117 
0.0002403367472683755 
0.0001365730224971084 
-0.0002601162672372078 
0 
0.0002403367472683755 
-0.0001365730224971084 
0.0001550111695605665 
-0.0009401062140123855 
0.001046397920912262 
0 
0.0001550111695605665 
0.0009401062140123855 
-0.000107514478689479 
-0.001608709389705113 
0.001793674011307194 
0 
-0.000107514478689479 
0.001608709389705113 
0.0005885207065788471 
0.0007572047088898378 
-0.0008598543601807015 
0 
0.0005885207065788471 
-0.0007572047088898378 
0.0003163458329055749 
-0.0003037720715702214 
0.0003142708801338044 
0 
0.0003163458329055749 
0.0003037720715702214 
0.0002089835210327225 
-0.0003943589115761218 
0.0003707250788831963 
0 
0.0002089835210327225 
0.0003943589115761218 
0.0003399167427356504 
0.0001802791218126345 
-0.0002351619924064519 
0 
0.0003399167427356504 
-0.0001802791218126345 
-3.275487213938876e-05 
0.0005922702095648457 
-0.0007583500410590375 
0 
-3.275487213938876e-05 
-0.0005922702095648457 
-0.000433122175202913 
-0.0008208870209411629 
0.0008603695805288573 
0 
-0.000433122175202913 
0.0008208870209411629 
-2.489037287240336e-05 
0.001451405978887652 
-0.001693502593275842 
0 
-2.489037287240336e-05 
-0.001451405978887652 
-0.0002975975916284334 
8.939129028589277e-05 
-0.0001992456753414377 
0 
-0.0002975975916284334 
-8.939129028589277e-05 
5.127950448342451e-05 
0.0006766757531603358 
-0.0008623981333645324 
0 
5.127950448342451e-05 
-0.0006766757531603358 
-0.0001181862966518603 
-0.0004770268637087419 
0.0004646714218261894 
0 
-0.0001181862966518603 
0.0004770268637087419 
-0.0001132724781425226 
0.000182200051602053 
-0.0002752489752008676 
0 
-0.0001132724781425226 
-0.000182200051602053 
4.35609733762808e-05 
2.535076138544187e-06 
-4.174282287921286e-05 
0 
4.35609733762808e-05 
-2.535076138544187e-06 
0.000104785109940532 
-4.48968868382849e-06 
-9.056990370875461e-05 
0 
0.000104785109940532 
4.48968868382849e-06 
-0.0001630918189177951 
-0.001072288575919136 
0.001121975253865169 
0 
-0.0001630918189177951 
0.001072288575919136 
6.755896955300948e-05 
0.001038959565161441 
-0.001243981535996329 
0 
6.755896955300948e-05 
-0.001038959565161441 
-0.0001863643741134214 
0.0008572006941102344 
-0.001059336925644227 
0 
-0.0001863643741134214 
-0.0008572006941102344 
7.736894502596084e-05 
0.0002777367676538652 
-0.0004163972946569774 
0 
7.736894502596084e-05 
-0.0002777367676538652 
-7.07030192981655e-06 
-0.0005295125758410127 
0.0005515996180372161 
0 
-7.07030192981655e-06 
0.0005295125758410127 
-9.891851771629512e-05 
-0.0001278592021841632 
8.442579209976876e-05 
0 
-9.891851771629512e-05 
0.0001278592021841632 
-0.0001285703209297456 
1.838841973196212e-05 
-6.660760262119608e-05 
0 
-0.0001285703209297456 
-1.838841973196212e-05 
0.0001177599722315322 
9.20725915673741e-05 
-0.0001534188371151339 
0 
0.0001177599722315322 
-9.20725915673741e-05 
-0.0001864055932022173 
-0.001247257738523012 
0.001357341669286257 
0 
-0.0001864055932022173 
0.001247257738523012 
0.0002015871759015398 
-7.101928635022599e-05 
3.096691434766888e-06 
0 
0.0002015871759015398 
7.101928635022599e-05 
-1.054847683979454e-05 
9.99401812498871e-05 
-0.0001830585418411839 
0 
-1.054847683979454e-05 
-9.99401812498871e-05 
0.0002081691891840364 
-0.0005370061439721117 
0.0005491154830089255 
0 
0.0002081691891840364 
0.0005370061439721117 
0.0001533897812719218 
0.0003511107702049411 
-0.0004478379615484399 
0 
0.0001533897812719218 
-0.0003511107702049411 
6.033531632734513e-06 
0.001126990246793679 
-0.001343478720011624 
0 
6.033531632734513e-06 
-0.001126990246793679 
-0.0002316638255604233 
0.000699875150091628 
-0.0008621735598546544 
0 
-0.0002316638255604233 
-0.000699875150091628 
5.193504616866355e-05 
-0.0002508880312118224 
0.0002773446640448629 
0 
5.193504616866355e-05 
0.0002508880312118224 
-0.000416978882701913 
-0.002002120001081939 
0.002278185799631102 
0 
-0.000416978882701913 
0.002002120001081939 
0.0002497458063421917 
0.0006311933780533374 
-0.0007271335544372562 
0 
0.0002497458063421917 
-0.0006311933780533374 
-0.0002405287526152419 
0.0004701246686013162 
-0.0006154751013915417 
0 
-0.0002405287526152419 
-0.0004701246686013162 
-0.0001833161266218207 
-0.0004415335189478773 
0.0003547202160766785 
0 
-0.0001833161266218207 
0.0004415335189478773 
-0.0001456621798334793 
0.001432386531704367 
-0.001747726530825656 
0 
-0.0001456621798334793 
-0.001432386531704367 
-0.0003832062324228806 
0.001623447249361277 
-0.00198455613444591 
0 
-0.0003832062324228806 
-0.001623447249361277 
-0.000168308443581795 
0.0003778041189616394 
-0.0004790009226219166 
0 
-0.000168308443581795 
-0.0003778041189616394 
-0.0001140898096877182 
-0.0002526584291109566 
0.0002307314436191032 
0 
-0.0001140898096877182 
0.0002526584291109566 
2.944595560023391e-05 
-0.000827379543709894 
0.0009014736030469655 
0 
2.944595560023391e-05 
0.000827379543709894 
9.14613433684622e-05 
0.0002324526844905703 
-0.0002653767736420843 
0 
9.14613433684622e-05 
-0.0002324526844905703 
-2.50811843394082e-05 
0.001618209135626898 
-0.001920003424780743 
0 
-2.50811843394082e-05 
-0.001618209135626898 
-0.0001083291244049911 
1.377636499237185e-05 
-0.0001651716578462724 
0 
-0.0001083291244049911 
-1.377636499237185e-05 
0.0001494089911471987 
-0.0004544636953844013 
0.0004656883083998102 
0 
0.0001494089911471987 
0.0004544636953844013 
-0.0001078915208203152 
0.0004106435893157755 
-0.0005718024207373111 
0 
-0.0001078915208203152 
-0.0004106435893157755 
7.12973994361107e-05 
0.0007482308146064899 
-0.0008686105105906105 
0 
7.12973994361107e-05 
-0.0007482308146064899 
-0.0001440398919085882 
-0.001347476839966544 
0.001488748388546193 
0 
-0.0001440398919085882 
0.001347476839966544 
6.45913359078545e-05 
-0.001835404030709831 
0.002056190010756735 
0 
6.45913359078545e-05 
0.001835404030709831 
-5.806898096818513e-06 
-2.818389855446424e-05 
2.481341713696662e-05 
0 
-5.806898096818513e-06 
2.818389855446424e-05 
4.890363214134676e-05 
0.001273135577026499 
-0.001555341290595643 
0 
4.890363214134676e-05 
-0.001273135577026499 
0.0001411668449209014 
0.0004299456718154686 
-0.0006181413799112774 
0 
0.0001411668449209014 
-0.0004299456718154686 
-0.0001606877439433383 
-0.001160064196952058 
0.001200652215431522 
0 
-0.0001606877439433383 
0.001160064196952058 
7.323985520898981e-05 
-6.302220718522639e-05 
6.788047080340883e-07 
0 
7.323985520898981e-05 
6.302220718522639e-05 
0.0001338966821731096 
0.0005602137003227802 
-0.0007017149616254213 
0 
0.0001338966821731096 
-0.0005602137003227802 
-5.504765417364615e-05 
0.0005653453577115192 
-0.0007449529858729526 
0 
-5.504765417364615e-05 
-0.0005653453577115192 
0.0001071540023460098 
-0.002700266936356089 
0.002962159861691101 
0 
0.0001071540023460098 
0.002700266936356089 
8.300750523087629e-05 
-3.82392314493384e-05 
-1.03805106861514e-05 
0 
8.300750523087629e-05 
3.82392314493384e-05 
4.924848282492267e-05 
0.001636636173559039 
-0.001972192571365628 
0 
4.924848282492267e-05 
-0.001636636173559039 
-0.0001067495180791498 
3.912656334222743e-05 
-0.0002020434226644215 
0 
-0.0001067495180791498 
-3.912656334222743e-05 
0.000205750716390931 
-0.001522030803727434 
0.001647668646273573 
0 
0.000205750716390931 
0.001522030803727434 
-1.024795017180387e-05 
0.0004694561050934068 
-0.000561238200707397 
0 
-1.024795017180387e-05 
-0.0004694561050934068 
-2.664135590959402e-05 
0.0007742978153615762 
-0.0009535087410052798 
0 
-2.664135590959402e-05 
-0.0007742978153615762 
0.0003516455124162384 
0.0004144406242871841 
-0.0005347079473621354 
0 
0.0003516455124162384 
-0.0004144406242871841 
0.0001639482647880982 
-0.001625371396365334 
0.001832565991092249 
0 
0.0001639482647880982 
0.001625371396365334 
7.589843055432246e-05 
0.0004251194234198839 
-0.0005463237019450592 
0 
7.589843055432246e-05 
-0.0004251194234198839 
0.0001529924613686578 
0.0005314698047943446 
-0.0006224885423810483 
0 
0.0001529924613686578 
-0.0005314698047943446 
2.40429873497574e-05 
0.001058854855830916 
-0.001244546064506779 
0 
2.40429873497574e-05 
-0.001058854855830916 
-0.000107397293552639 
-0.001211158625180551 
0.001309699897650762 
0 
-0.000107397293552639 
0.001211158625180551 
0.0003663858771077355 
0.0006885746164097597 
-0.0008562852332811208 
0 
0.0003663858771077355 
-0.0006885746164097597 
0.0001497488128938966 
0.0003537391975070001 
-0.0004319663102674428 
0 
0.0001497488128938966 
-0.0003537391975070001 
0.0002001613731515924 
-0.0008823243041809627 
0.000945834403623775 
0 
0.0002001613731515924 
0.0008823243041809627 
0.0002095518129068312 
-0.002830322553861223 
0.003204360968411933 
0 
0.0002095518129068312 
0.002830322553861223 
6.362869019120144e-05 
0.001103908492451733 
-0.001329933590619464 
0 
6.362869019120144e-05 
-0.001103908492451733 
-2.697276339600294e-05 
0.00153442231257837 
-0.001777222118626117 
0 
-2.697276339600294e-05 
-0.00153442231257837 
2.251683801654435e-05 
0.0009452671941391151 
-0.001159726340444409 
0 
2.251683801654435e-05 
-0.0009452671941391151 
1.009881024143704e-06 
-0.001553661684172975 
0.00163846087230195 
0 
1.009881024143704e-06 
0.001553661684172975 
0.0001254403268340769 
0.001076179070953186 
-0.001292186397017398 
0 
0.0001254403268340769 
-0.001076179070953186 
0.0001861993189452461 
-0.0002306037873701635 
0.000198700898309874 
0 
0.0001861993189452461 
0.0002306037873701635 
0.0001541949073388104 
-0.0005830131310931996 
0.0006395400262602623 
0 
0.0001541949073388104 
0.0005830131310931996 
-0.0006441289750701568 
-0.004486865118320669 
0.005156609026073922 
0 
-0.0006441289750701568 
0.004486865118320669 
0.0001114060373386504 
0.0001941913716638843 
-0.0002780072274799198 
0 
0.0001114060373386504 
-0.0001941913716638843 
3.803621021885234e-05 
0.001380135969956384 
-0.001647712687163355 
0 
3.803621021885234e-05 
-0.001380135969956384 
-8.671270937596072e-05 
0.0002981219376502253 
-0.0004457461802442224 
0 
-8.671270937596072e-05 
-0.0002981219376502253 
-4.543484253104837e-05 
0.0004980513689713243 
-0.0006353624233471975 
0 
-4.543484253104837e-05 
-0.0004980513689713243 
-0.0004503100535938653 
0.001485525995850827 
-0.001859459184931743 
0 
-0.0004503100535938653 
-0.001485525995850827 
-6.939414568931548e-05 
0.002343475160096639 
-0.002740040262476533 
0 
-6.939414568931548e-05 
-0.002343475160096639 
-0.0002663647833710369 
0.0002793639385229632 
-0.0003615601253624401 
0 
-0.0002663647833710369 
-0.0002793639385229632 
-0.0002302542615995359 
-0.002825510880349631 
0.003212623587051554 
0 
-0.0002302542615995359 
0.002825510880349631 
-5.118679437030757e-05 
0.0009018514926111014 
-0.001155242513125569 
0 
-5.118679437030757e-05 
-0.0009018514926111014 
-0.0002804303279488282 
0.001413936963050143 
-0.001707182057897188 
0 
-0.0002804303279488282 
-0.001413936963050143 
0.000346415488681193 
-0.0005558489719082703 
0.0005080653630655702 
0 
0.000346415488681193 
0.0005558489719082703 
0.0002601395683519701 
-0.0006349755629579474 
0.0006163988870469836 
0 
0.0002601395683519701 
0.0006349755629579474 
0.0001394134971758529 
0.000866410780070963 
-0.001053764231686645 
0 
0.0001394134971758529 
-0.000866410780070963 
0.0002932818339098247 
0.0002605435561620093 
-0.0003656017087671949 
0 
0.0002932818339098247 
-0.0002605435561620093 
0.0004382515914434935 
-0.0006379939726346411 
0.0006394477416696158 
0 
0.0004382515914434935 
0.0006379939726346411 
-1.8513527111584e-05 
-0.002595364583326344 
0.002910775950532345 
0 
-1.8513527111584e-05 
0.002595364583326344 
0.0004757552602559921 
-0.0001138715206021481 
0.0001109976432626053 
0 
0.0004757552602559921 
0.0001138715206021481 
0.0001811036496058697 
0.0007684625602483947 
-0.0008999926511825961 
0 
0.0001811036496058697 
-0.0007684625602483947 
0.0002080832078723514 
-0.0003326062339317954 
0.0003093051680388499 
0 
0.0002080832078723514 
0.0003326062339317954 
0.00028992332827668 
-0.0005074522151731587 
0.0004540559929815429 
0 
0.00028992332827668 
0.0005074522151731587 
-2.822504953574895e-05 
0.001151957368565202 
-0.001417349929551995 
0 
-2.822504953574895e-05 
-0.001151957368565202 
0.0002184832396732108 
0.001201016473554622 
-0.001436204943103301 
0 
0.0002184832396732108 
-0.001201016473554622 
0.0003438966362612726 
-0.001196158724573806 
0.001346505695715028 
0 
0.0003438966362612726 
0.001196158724573806 
0.0003494495199654501 
-0.0004157333446829161 
0.0003978219746398724 
0 
0.0003494495199654501 
0.0004157333446829161 
0.0001655202545127691 
0.0002546475719099605 
-0.0003520056427926053 
0 
0.0001655202545127691 
-0.0002546475719099605 
-7.167858872023574e-05 
0.0005653145116356348 
-0.0007065188934522944 
0 
-7.167858872023574e-05 
-0.0005653145116356348 
0.0003587878462764447 
-0.001075860826179628 
0.001192773753861158 
0 
0.0003587878462764447 
0.001075860826179628 
0.0006275496629788293 
0.0004852362181017784 
-0.0006130416543212026 
0 
0.0006275496629788293 
-0.0004852362181017784 
0.0003768489708798836 
-0.0002353094377095449 
0.0002690572543419272 
0 
0.0003768489708798836 
0.0002353094377095449 
0.0003564786849917473 
-0.0004565168898374716 
0.0004352107600586965 
0 
0.0003564786849917473 
0.0004565168898374716 
0.0003169676457862974 
-0.00169756329572314 
0.001886617235493813 
0 
0.0003169676457862974 
0.00169756329572314 
0.0003436971267995178 
0.0002435723423818761 
-0.00039521585342645 
0 
0.0003436971267995178 
-0.0002435723423818761 
3.534415161039864e-05 
0.001413243331293337 
-0.001615545127411571 
0 
3.534415161039864e-05 
-0.001413243331293337 
0.0001363727364777365 
0.0005820515243963749 
-0.0007045051811321161 
0 
0.0001363727364777365 
-0.0005820515243963749 
0.0004045461328471547 
-0.0007848604738021063 
0.0008232109512882213 
0 
0.0004045461328471547 
0.0007848604738021063 
0.0004040014790542719 
-2.843485684967324e-05 
-1.998044509888362e-05 
0 
0.0004040014790542719 
2.843485684967324e-05 
0.0003037077241512959 
0.0007441128877984652 
-0.0008292243996924179 
0 
0.0003037077241512959 
-0.0007441128877984652 
0.0005498059741108067 
-0.0001171285247279188 
0.000131028195875355 
0 
0.0005498059741108067 
0.0001171285247279188 
-0.0002828491487979971 
-0.003558583584529687 
0.004092124374442003 
0 
-0.0002828491487979971 
0.003558583584529687 
0.0001442639065161142 
-0.0004098251164542986 
0.0003610364023540224 
0 
0.0001442639065161142 
0.0004098251164542986 
-0.0001733592888220896 
0.0005624905577992948 
-0.0007309303488169417 
0 
-0.0001733592888220896 
-0.0005624905577992948 
-0.0001374275390768165 
0.002168090926204257 
-0.002549605337942579 
0 
-0.0001374275390768165 
-0.002168090926204257 
-6.407730931591535e-05 
0.0008247785457417623 
-0.001018412456370996 
0 
-6.407730931591535e-05 
-0.0008247785457417623 
6.701575924409196e-05 
0.0003336752663671632 
-0.0004175062911215262 
0 
6.701575924409196e-05 
-0.0003336752663671632 
-0.000218639206448597 
0.0008485818459321013 
-0.001016169734960557 
0 
-0.000218639206448597 
-0.0008485818459321013 
-0.0002218247462209041 
0.0004649292022007812 
-0.0006403251997832841 
0 
-0.0002218247462209041 
-0.0004649292022007812 
-0.0005302669762396369 
-0.003056433261651269 
0.003549714191033919 
0 
-0.0005302669762396369 
0.003056433261651269 
-5.170739759544373e-06 
0.0001928939499419477 
-0.0002286398686543814 
0 
-5.170739759544373e-06 
-0.0001928939499419477 
-0.000169743020585975 
0.0006530719076654766 
-0.0008549244100144446 
0 
-0.000169743020585975 
-0.0006530719076654766 
-8.704565015225457e-06 
0.0006873638195432878 
-0.000879085346362927 
0 
-8.704565015225457e-06 
-0.0006873638195432878 
-6.549455941702406e-05 
-0.0007963962452666005 
0.0008549170927689426 
0 
-6.549455941702406e-05 
0.0007963962452666005 
-0.0001054358983282779 
-0.0009132241101887727 
0.0009818242287267485 
0 
-0.0001054358983282779 
0.0009132241101887727 
0.0002700018781611135 
0.001635119854933781 
-0.001874147966198464 
0 
0.0002700018781611135 
-0.001635119854933781 
0.0006471326043090601 
0.001471787708645481 
-0.001806047881048831 
0 
0.0006471326043090601 
-0.001471787708645481 
-0.0007556959156401055 
-0.002322342597988889 
0.002638327233660335 
0 
-0.0007556959156401055 
0.002322342597988889 
-4.703686736793401e-05 
-0.001035452776216019 
0.001106916138028288 
0 
-4.703686736793401e-05 
0.001035452776216019 
-0.0001123336257894027 
0.0003868721250700994 
-0.0005105315765931989 
0 
-0.0001123336257894027 
-0.0003868721250700994 
-0.0001954982947276342 
0.001161580331250698 
-0.001411218297480562 
0 
-0.0001954982947276342 
-0.001161580331250698 
0.0002849496909505939 
0.0002509606160804292 
-0.0004277498679142753 
0 
0.0002849496909505939 
-0.0002509606160804292 
-0.0004566641747208386 
-0.001840869761972312 
0.002036148553402073 
0 
-0.0004566641747208386 
0.001840869761972312 
-4.598327585778201e-05 
0.001365502820139487 
-0.001666183341451599 
0 
-4.598327585778201e-05 
-0.001365502820139487 
0.0003733092348902311 
0.001071338990333163 
-0.001278580141764824 
0 
0.0003733092348902311 
-0.001071338990333163 
-0.0001615036458411952 
-0.0008743118620282496 
0.0009651351297453206 
0 
-0.0001615036458411952 
0.0008743118620282496 
-0.0002462699119766487 
-0.0006333883924751204 
0.0005948812123303284 
0 
-0.0002462699119766487 
0.0006333883924751204 
1.035598545864826e-05 
0.001180895086503798 
-0.001395805271183561 
0 
1.035598545864826e-05 
-0.001180895086503798 
-7.570931281147262e-05 
0.001053159249393311 
-0.001279414680482403 
0 
-7.570931281147262e-05 
-0.001053159249393311 
2.134202034918735e-06 
-0.0008771676656223461 
0.0009050601339890816 
0 
2.134202034918735e-06 
0.0008771676656223461 
3.196620442835117e-05 
-0.001224762283043505 
0.001373914744052518 
0 
3.196620442835117e-05 
0.001224762283043505 
-6.161784231623749e-05 
0.0008363081955964039 
-0.001024427106712034 
0 
-6.161784231623749e-05 
-0.0008363081955964039 
-7.92100655339667e-05 
0.001029883445364849 
-0.001346374144590199 
0 
-7.92100655339667e-05 
-0.001029883445364849 
-0.0002488791911419086 
-0.0005526446428638033 
0.0005946082940076273 
0 
-0.0002488791911419086 
0.0005526446428638033 
-0.000247469402383164 
-0.0006182150888609678 
0.0005437504419815302 
0 
-0.000247469402383164 
0.0006182150888609678 
-1.41183121172927e-05 
-0.0008617564682359199 
0.0009033863495508434 
0 
-1.41183121172927e-05 
0.0008617564682359199 
-0.0001737255243235768 
0.0006119023271686141 
-0.0008256431002130175 
0 
-0.0001737255243235768 
-0.0006119023271686141 
-0.0004506149138398866 
-0.0010359035098712 
0.001070191492628215 
0 
-0.0004506149138398866 
0.0010359035098712 
-0.0001028711590059715 
-0.0003681456389240549 
0.0002767373034087451 
0 
-0.0001028711590059715 
0.0003681456389240549 
-3.903215816097411e-05 
0.001632170397430977 
-0.00195614324349606 
0 
-3.903215816097411e-05 
-0.001632170397430977 
0.0001456296371555841 
0.0009373095556816225 
-0.001224785726666432 
0 
0.0001456296371555841 
-0.0009373095556816225 
-0.0001035493402660622 
0.0001339633750288294 
-0.0002993819354698048 
0 
-0.0001035493402660622 
-0.0001339633750288294 
0.000203391726474295 
0.0009863860541576147 
-0.001229522933659969 
0 
0.000203391726474295 
-0.0009863860541576147 
-0.0003857950157952541 
-0.0004010586086837312 
0.0003629826467209086 
0 
-0.0003857950157952541 
0.0004010586086837312 
-0.0001698154989924248 
0.0006710929682728696 
-0.0008399030571892041 
0 
-0.0001698154989924248 
-0.0006710929682728696 
-0.0002304506206055715 
0.0007275775318445693 
-0.0009717397627525225 
0 
-0.0002304506206055715 
-0.0007275775318445693 
-0.0001924959120563287 
0.0006594748762478431 
-0.0009080175972020058 
0 
-0.0001924959120563287 
-0.0006594748762478431 
-0.000239275207113688 
-0.001003514837352208 
0.001051873909501919 
0 
-0.000239275207113688 
0.001003514837352208 
-0.0003577391017991246 
-0.0009000941154903208 
0.00095187317472902 
0 
-0.0003577391017991246 
0.0009000941154903208 
-0.0001979017373211891 
0.0007255317998468294 
-0.0009494682619191842 
0 
-0.0001979017373211891 
-0.0007255317998468294 
0.0004529526247635401 
0.001705336789667758 
-0.002062139377643849 
0 
0.0004529526247635401 
-0.001705336789667758 
0.0003125920135816002 
-0.002238563346315702 
0.002581373719078247 
0 
0.0003125920135816002 
0.002238563346315702 
0.0002023500278572871 
-0.003065220090138177 
0.003482374279180965 
0 
0.0002023500278572871 
0.003065220090138177 
-5.243479553630173e-05 
0.0004686016436181262 
-0.0006039768047852954 
0 
-5.243479553630173e-05 
-0.0004686016436181262 
0.0002872699622626255 
2.806284023314523e-05 
-0.0001311244610478861 
0 
0.0002872699622626255 
-2.806284023314523e-05 
-5.823005476706845e-05 
-0.0002071759051382526 
0.0001644916960551801 
0 
-5.823005476706845e-05 
0.0002071759051382526 
0.0001506738708754795 
0.0007538001601732619 
-0.0009393745150775522 
0 
0.0001506738708754795 
-0.0007538001601732619 
8.390055225599504e-05 
0.001082547750569491 
-0.001342061421206637 
0 
8.390055225599504e-05 
-0.001082547750569491 
0.0006518590434631769 
0.0005408974619895322 
-0.0006789230427463003 
0 
0.0006518590434631769 
-0.0005408974619895322 
0.0006428492898098609 
-0.0001103650743790886 
0.0001729063396979222 
0 
0.0006428492898098609 
0.0001103650743790886 
0.0003589820417672904 
-0.002119744264475158 
0.002436079861402886 
0 
0.0003589820417672904 
0.002119744264475158 
0.0002921377795669995 
-0.002032682468270995 
0.00229514343875706 
0 
0.0002921377795669995 
0.002032682468270995 
0.0001276329367495972 
0.0009094943150611099 
-0.001087965712609551 
0 
0.0001276329367495972 
-0.0009094943150611099 
0.0002059161735714298 
0.001152764229681998 
-0.001339897488460241 
0 
0.0002059161735714298 
-0.001152764229681998 
0.0005060324421587624 
-0.0004733505533780772 
0.0005168761991660425 
0 
0.0005060324421587624 
0.0004733505533780772 
0.0003676023848845724 
-0.0009117117849551289 
0.0009190449721699812 
0 
0.0003676023848845724 
0.0009117117849551289 
8.580045016111773e-05 
-0.0006192549011007189 
0.0006709431962524404 
0 
8.580045016111773e-05 
0.0006192549011007189 
0.0003948721672453094 
0.0007450285486923602 
-0.000848777384286477 
0 
0.0003948721672453094 
-0.0007450285486923602 
0.0002363809643338596 
-0.0004462343974699835 
0.0005068000859837801 
0 
0.0002363809643338596 
0.0004462343974699835 
0.000103033197028348 
0.0006960734974410243 
-0.0008725573686640878 
0 
0.000103033197028348 
-0.0006960734974410243 
0.0003891888500394402 
0.0003173139026911252 
-0.0004205321968475072 
0 
0.0003891888500394402 
-0.0003173139026911252 
0.0001825134891782788 
-0.0004700750301453859 
0.0005085663013082075 
0 
0.0001825134891782788 
0.0004700750301453859 
0.0003923816331845037 
-0.001019786527702772 
0.001149746812632371 
0 
0.0003923816331845037 
0.001019786527702772 
8.398333221355815e-05 
-0.0008779905651192244 
0.0008873510372415771 
0 
8.398333221355815e-05 
0.0008779905651192244 
0.000370021944566952 
0.0006678759736284459 
-0.0008606341985617971 
0 
0.000370021944566952 
-0.0006678759736284459 
0.0002556284152298922 
-0.001412948305784068 
0.001604436484301734 
0 
0.0002556284152298922 
0.001412948305784068 
1.85135381374821e-05 
0.0001199330006630774 
-0.0001834791456773206 
0 
1.85135381374821e-05 
-0.0001199330006630774 
0.0002803806638383025 
0.001458788259518256 
-0.001688956775692574 
0 
0.0002803806638383025 
-0.001458788259518256 
-3.005617050055295e-06 
-0.0006153627413285189 
0.0005765849504762052 
0 
-3.005617050055295e-06 
0.0006153627413285189 
6.968137004526891e-05 
-0.001855016494362586 
0.002109082795088273 
0 
6.968137004526891e-05 
0.001855016494362586 
0.0001297457784627495 
-0.0003786141255189957 
0.0003985276634244459 
0 
0.0001297457784627495 
0.0003786141255189957 
0.0002978355849290793 
0.0006725048708906919 
-0.0008577455665873932 
0 
0.0002978355849290793 
-0.0006725048708906919 
-8.539855478794105e-05 
3.464126325016283e-05 
-0.0001728769216523454 
0 
-8.539855478794105e-05 
-3.464126325016283e-05 
0.000237928951429855 
-0.001947525060704117 
0.002169808099026291 
0 
0.000237928951429855 
0.001947525060704117 
6.377723227046154e-05 
-0.001352942867478554 
0.001508915347585053 
0 
6.377723227046154e-05 
0.001352942867478554 
8.540699966835239e-05 
0.0009024557428347224 
-0.001098847557776601 
0 
8.540699966835239e-05 
-0.0009024557428347224 
-0.000262084336992247 
3.659782676726288e-05 
-0.0001146026393182392 
0 
-0.000262084336992247 
-3.659782676726288e-05 
6.524018100096738e-05 
0.0001724883055801445 
-0.0002562792099767202 
0 
6.524018100096738e-05 
-0.0001724883055801445 
-0.0001767759533761409 
0.001055783896033942 
-0.001275829996784115 
0 
-0.0001767759533761409 
-0.001055783896033942 
-9.373047124017409e-05 
0.001516910475891706 
-0.001793835920090733 
0 
