solver_type L2R_L2LOSS_SVC_DUAL
nr_class 2
label 1 0
nr_feature 12000
bias 1
w
0.000285155025050125 
0.0005662849732242448 
-0.0007448733203701738 
0 
0.000285155025050125 
-0.0005662849732242448 
-8.477202810727026e-05 
0.001713400989789802 
-0.002009867350800123 
0 
-8.477202810727026e-05 
-0.001713400989789802 
-4.515252849286808e-05 
0.0004421147780042077 
-0.0005639132355877007 
0 
-4.515252849286808e-05 
-0.0004421147780042077 
1.561943460366715e-05 
-0.0008496539515144419 
0.0008755003262056832 
0 
1.561943460366715e-05 
0.0008496539515144419 
-1.910263985111643e-05 
-0.0009318837223897281 
0.0009622141569306141 
0 
-1.910263985111643e-05 
0.0009318837223897281 
0.0002366338988084969 
0.0003697248979341606 
-0.0004265666395232501 
0 
0.0002366338988084969 
-0.0003697248979341606 
-0.0001928984421008992 
0.0002351690021387649 
-0.000358652334740193 
0 
-0.0001928984421008992 
-0.0002351690021387649 
1.744277984426624e-05 
-0.001829550919696411 
0.001970985349698676 
0 
1.744277984426624e-05 
0.001829550919696411 
0.0003510778287381707 
0.0004097305850667502 
-0.000553281246388617 
0 
0.0003510778287381707 
-0.0004097305850667502 
-0.000223980823108433 
0.0001794982901590552 
-0.0003484794233810138 
0 
-0.000223980823108433 
-0.0001794982901590552 
0.0004992192264373236 
-0.001735807728285831 
0.001910792389999645 
0 
0.0004992192264373236 
0.001735807728285831 
0.0001343537561405617 
-2.318158047201417e-05 
8.130041479739869e-07 
0 
0.0001343537561405617 
2.318158047201417e-05 
1.144669650270703e-05 
-0.0007297236705606691 
0.000747943629557265 
0 
1.144669650270703e-05 
0.0007297236705606691 
0.0003095980484175471 
-0.0004066763358266776 
0.0004138133488428936 
0 
0.0003095980484175471 
0.0004066763358266776 
4.729794740098513e-05 
0.0008613524751938645 
-0.001033510526724303 
0 
4.729794740098513e-05 
-0.0008613524751938645 
2.140493274626069e-05 
9.167702173355769e-05 
-0.0001810649118680108 
0 
2.140493274626069e-05 
-9.167702173355769e-05 
0.0002991639673906697 
0.0009111698282498991 
-0.001097175555775003 
0 
0.0002991639673906697 
-0.0009111698282498991 
0.0001321848736477394 
0.0001966110508962247 
-0.0002443492243183709 
0 
0.0001321848736477394 
-0.0001966110508962247 
0.0001506042560449248 
-0.0008775308905042809 
0.0009610538682705677 
0 
0.0001506042560449248 
0.0008775308905042809 
0.0002464353231711329 
-0.001243589469925821 
0.001344275905582353 
0 
0.0002464353231711329 
0.001243589469925821 
0.0002279314469880638 
-2.495122990740158e-06 
-6.367397159958595e-05 
0 
0.0002279314469880638 
2.495122990740158e-06 
0.0003618224702194967 
-0.0008278521028095845 
0.0009679239036842182 
0 
0.0003618224702194967 
0.0008278521028095845 
0.0006714941466701706 
0.0004567880745354599 
-0.0004184204521379745 
0 
0.0006714941466701706 
-0.0004567880745354599 
0.0001136507481896859 
-0.0003605044833769003 
0.0003989962511213125 
0 
0.0001136507481896859 
0.0003605044833769003 
0.0002745635200146493 
0.000270016374709837 
-0.0003957079878326276 
0 
0.0002745635200146493 
-0.000270016374709837 
-9.442362579468251e-05 
-0.00110612642905487 
0.001193880971172423 
0 
-9.442362579468251e-05 
0.00110612642905487 
-0.0001035713191006725 
-0.000331298444630338 
0.0002418914508394184 
0 
-0.0001035713191006725 
0.000331298444630338 
5.424347101649976e-05 
-0.0004284338140391958 
0.000387165219994235 
0 
5.424347101649976e-05 
0.0004284338140391958 
3.262112717421933e-05 
-9.408338388924651e-05 
-2.087659009612945e-06 
0 
3.262112717421933e-05 
9.408338388924651e-05 
0.0001310168696328371 
0.0005221048412664402 
-0.0006154073120579841 
0 
0.0001310168696328371 
-0.0005221048412664402 
0.0002245907789368045 
0.0003870158090200393 
-0.0004411745184628323 
0 
0.0002245907789368045 
-0.0003870158090200393 
-0.0003894895557809705 
0.0007485567432294642 
-0.000871798855076303 
0 
-0.0003894895557809705 
-0.0007485567432294642 
0.0003400913359953975 
0.001699802119708903 
-0.00194899687199876 
0 
0.0003400913359953975 
-0.001699802119708903 
0.0001638464421174107 
0.000174557284245001 
-0.0002031736280546732 
0 
0.0001638464421174107 
-0.000174557284245001 
0.0003896490156308142 
-0.0007117472688054951 
0.0007936374403031159 
0 
0.0003896490156308142 
0.0007117472688054951 
-4.902557885986888e-05 
0.0003737239406157164 
-0.0005231393567187676 
0 
-4.902557885986888e-05 
-0.0003737239406157164 
0.0002845124410214349 
-0.0008208914503577306 
0.000861008708109875 
0 
0.0002845124410214349 
0.0008208914503577306 
-2.0090888462722e-06 
-6.836241644717497e-05 
2.220704296092505e-05 
0 
-2.0090888462722e-06 
6.836241644717497e-05 
0.0002651337567904259 
-0.0004609399939673519 
0.0005137929457824268 
0 
0.0002651337567904259 
0.0004609399939673519 
-0.0002469179366007519 
-0.001273827726733309 
0.001305892857108505 
0 
-0.0002469179366007519 
0.001273827726733309 
0.0004708229271407126 
0.000888322113942835 
-0.001121447736170283 
0 
0.0004708229271407126 
-0.000888322113942835 
0.0002866972001749721 
6.098126854778672e-05 
-4.436889282696523e-05 
0 
0.0002866972001749721 
-6.098126854778672e-05 
0.0001624102768798414 
-0.0008973874577040663 
0.0009780849943437295 
0 
0.0001624102768798414 
0.0008973874577040663 
0.0001368498742120583 
4.473493609654304e-05 
-0.0001107012506645575 
0 
0.0001368498742120583 
-4.473493609654304e-05 
-0.0001524613979735219 
0.0006391136404539563 
-0.0008179366080459281 
0 
-0.0001524613979735219 
-0.0006391136404539563 
0.0003119930722230308 
-0.0001400400829915325 
0.000142330567688098 
0 
0.0003119930722230308 
0.0001400400829915325 
5.470168448032184e-05 
-0.001287342857694763 
0.001395795431156627 
0 
5.470168448032184e-05 
0.001287342857694763 
-0.0001885691079173934 
-0.0004574915993228306 
0.0003832755719265796 
0 
-0.0001885691079173934 
0.0004574915993228306 
0.0003554144808044363 
0.0007018783932585619 
-0.0008935040360832842 
0 
0.0003554144808044363 
-0.0007018783932585619 
0.0002585518381224519 
-0.0003196431849539209 
0.0003624730186344433 
0 
0.0002585518381224519 
0.0003196431849539209 
0.0002237560988796325 
-0.001064369793745466 
0.001183789422701503 
0 
0.0002237560988796325 
0.001064369793745466 
6.454255155896699e-05 
0.0005375756069734102 
-0.0007329662776361973 
0 
6.454255155896699e-05 
-0.0005375756069734102 
-7.820502853276922e-05 
0.001065007134651483 
-0.001303366825159826 
0 
-7.820502853276922e-05 
-0.001065007134651483 
0.000212279887312886 
-0.0009769503056233906 
0.001053830924567276 
0 
0.000212279887312886 
0.0009769503056233906 
0.0005215521746710713 
-0.001396782608635765 
0.001547038221327026 
0 
0.0005215521746710713 
0.001396782608635765 
4.706259025929265e-05 
-0.0003127445751022666 
0.000273968268850147 
0 
4.706259025929265e-05 
0.0003127445751022666 
0.0002352938992864369 
-0.0004387087657960368 
0.0004411934081116712 
0 
0.0002352938992864369 
0.0004387087657960368 
9.309935263170397e-05 
-0.001818892173453439 
0.001923155897357617 
0 
9.309935263170397e-05 
0.001818892173453439 
-1.272581212099092e-05 
-0.0006421316960169816 
0.0006750597620432785 
0 
-1.272581212099092e-05 
0.0006421316960169816 
1.773187166620867e-05 
0.0008576419787600306 
-0.001067085294505986 
0 
1.773187166620867e-05 
-0.0008576419787600306 
-0.0001170606319594792 
0.001537948521019382 
-0.001761320748466564 
0 
-0.0001170606319594792 
-0.001537948521019382 
-0.0001674261028576515 
0.00211606649067882 
-0.002447320803495862 
0 
-0.0001674261028576515 
-0.00211606649067882 
0.0002463184493399667 
-0.001283381210610207 
0.001514520899385076 
0 
0.0002463184493399667 
0.001283381210610207 
0.0002123157254108195 
-0.0004903881129587568 
0.0005419010347624064 
0 
0.0002123157254108195 
0.0004903881129587568 
2.346835935539735e-05 
-0.0004355119444991815 
0.0004058064905256854 
0 
2.346835935539735e-05 
0.0004355119444991815 
7.504510805009014e-05 
-0.0008762132747484853 
0.0009025153926891735 
0 
7.504510805009014e-05 
0.0008762132747484853 
-5.419516771306933e-05 
-0.003564540372442894 
0.003905841901380632 
0 
-5.419516771306933e-05 
0.003564540372442894 
0.0001342447493879682 
-0.0005510069867665481 
0.000591024474165982 
0 
0.0001342447493879682 
0.0005510069867665481 
5.217569772883057e-05 
0.002062049519645831 
-0.002438064811490658 
0 
5.217569772883057e-05 
-0.002062049519645831 
4.32663216168324e-05 
0.001094402868318598 
-0.001241965026744793 
0 
4.32663216168324e-05 
-0.001094402868318598 
0.0001019464857579141 
-2.831469304317827e-05 
-9.642814945859283e-06 
0 
0.0001019464857579141 
2.831469304317827e-05 
-0.0001097015549170116 
0.002135016037965059 
-0.002439126998482523 
0 
-0.0001097015549170116 
-0.002135016037965059 
0.0001196534435513551 
0.0007075377714529476 
-0.0008227838785392971 
0 
0.0001196534435513551 
-0.0007075377714529476 
-0.0002746550912112597 
7.937802190592131e-07 
-0.0001354466359717082 
0 
-0.0002746550912112597 
-7.937802190592131e-07 
5.374295313400712e-05 
-0.002066472086405756 
0.002231093692674227 
0 
5.374295313400712e-05 
0.002066472086405756 
3.923591488466466e-05 
0.0009017602024031151 
-0.001106345052090691 
0 
3.923591488466466e-05 
-0.0009017602024031151 
7.961085004928681e-05 
-0.0006371842685275609 
0.0005996056605974379 
0 
7.961085004928681e-05 
0.0006371842685275609 
-0.0002237990421875008 
0.0006711769660861561 
-0.0008846093637775817 
0 
-0.0002237990421875008 
-0.0006711769660861561 
0.0002376112631421582 
-0.0003630628154245161 
0.000342262301112017 
0 
0.0002376112631421582 
0.0003630628154245161 
-0.0002442568845495589 
0.0008318584438641585 
-0.0009858141337039969 
0 
-0.0002442568845495589 
-0.0008318584438641585 
0.0001014593748706573 
-0.000808205865610399 
0.0008676436269649368 
0 
0.0001014593748706573 
0.000808205865610399 
0.0004066238385640802 
-0.00208208250240215 
0.002336136181417901 
0 
0.0004066238385640802 
0.00208208250240215 
0.0003105739382055878 
-0.001119897045798519 
0.001239642694770966 
0 
0.0003105739382055878 
0.001119897045798519 
-0.0001836434858704848 
0.000502691499043947 
-0.0006638293233644528 
0 
-0.0001836434858704848 
-0.000502691499043947 
0.0001155306672444739 
0.002313791536923062 
-0.002687710938782546 
0 
0.0001155306672444739 
-0.002313791536923062 
4.987103096250318e-05 
-0.0003739996798586441 
0.0003401914148640974 
0 
4.987103096250318e-05 
0.0003739996798586441 
4.309358897809941e-05 
-0.0001324508535522118 
7.706565278941898e-05 
0 
4.309358897809941e-05 
0.0001324508535522118 
-0.0001088193999762011 
0.001037324949546492 
-0.00125092337742642 
0 
-0.0001088193999762011 
-0.001037324949546492 
0.0002251360676895818 
-0.001095374448042765 
0.00112940971652965 
0 
0.0002251360676895818 
0.001095374448042765 
0.000464011873693822 
-0.00120063493296076 
0.00128887392144109 
0 
0.000464011873693822 
0.00120063493296076 
0.0001281233907940638 
-0.001138329529053702 
0.001249129305149777 
0 
0.0001281233907940638 
0.001138329529053702 
0.0001397727908445001 
0.001216254107335829 
-0.001390444472524534 
0 
0.0001397727908445001 
-0.001216254107335829 
0.0002988952022440409 
0.001586889846233466 
-0.001894563372206309 
0 
0.0002988952022440409 
-0.001586889846233466 
0.0002149845320781538 
0.0003681145247091916 
-0.0004310081507685031 
0 
0.0002149845320781538 
-0.0003681145247091916 
6.164858625510836e-05 
-0.001350413171564493 
0.00145892080870898 
0 
6.164858625510836e-05 
0.001350413171564493 
0.0001077053352362736 
-0.0001291250273316291 
6.625762845216199e-05 
0 
0.0001077053352362736 
0.0001291250273316291 
0.0005002830811819887 
-0.001166078784816687 
0.001320230904587123 
0 
0.0005002830811819887 
0.001166078784816687 
2.636575824378395e-05 
0.0003236960923585541 
-0.0004291618430294101 
0 
2.636575824378395e-05 
-0.0003236960923585541 
0.0004123270635585047 
-0.001628299057344747 
0.001770375041974284 
0 
0.0004123270635585047 
0.001628299057344747 
0.0005287471876691324 
0.0006848919249098848 
-0.0007745809317009072 
0 
0.0005287471876691324 
-0.0006848919249098848 
0.0001349520497990176 
0.0003501482922316449 
-0.0004205876397599294 
0 
0.0001349520497990176 
-0.0003501482922316449 
0.0003175498439279499 
-0.0005385706080830454 
0.0005092499032061291 
0 
0.0003175498439279499 
0.0005385706080830454 
3.594981155602302e-06 
-0.0009562350595912779 
0.0009619366404225254 
0 
3.594981155602302e-06 
0.0009562350595912779 
0.0003528151557535399 
0.0005774826428876849 
-0.0006851832642292573 
0 
0.0003528151557535399 
-0.0005774826428876849 
-0.0003768039700139713 
-0.001835469229917785 
0.002016307978571827 
0 
-0.0003768039700139713 
0.001835469229917785 
6.718097631090379e-05 
-0.001266684680603735 
0.001348401682822531 
0 
6.718097631090379e-05 
0.001266684680603735 
0.0002406174507290715 
-0.000629202614144879 
0.0006368925149320864 
0 
0.0002406174507290715 
0.000629202614144879 
0.000200339356577876 
0.001284521421915274 
-0.001485527278384442 
0 
0.000200339356577876 
-0.001284521421915274 
0.0001098189102406464 
0.0005639915941726966 
-0.0006888047151576007 
0 
0.0001098189102406464 
-0.0005639915941726966 
-0.0001298292736501594 
-0.001915804173800782 
0.002015302960736188 
0 
-0.0001298292736501594 
0.001915804173800782 
0.0006588008302577635 
0.0007266018612311004 
-0.0009028191445913241 
0 
0.0006588008302577635 
-0.0007266018612311004 
9.954067566273801e-05 
0.002065883023913385 
-0.002375755918384368 
0 
9.954067566273801e-05 
-0.002065883023913385 
0.0001308721133491858 
-0.0005832179138378192 
0.0005875489396602521 
0 
0.0001308721133491858 
0.0005832179138378192 
0.0001071208310844086 
-0.001365853468321286 
0.001422574496987837 
0 
0.0001071208310844086 
0.001365853468321286 
0.0001433403652405597 
-9.114922013779813e-05 
5.870265542559755e-05 
0 
0.0001433403652405597 
9.114922013779813e-05 
0.0006422798530350917 
0.0003419573463263671 
-0.0003937950852288023 
0 
0.0006422798530350917 
-0.0003419573463263671 
2.768731870694189e-06 
0.0005092430132183639 
-0.0005904327477441509 
0 
2.768731870694189e-06 
-0.0005092430132183639 
1.402712425924524e-05 
0.0005338471105047471 
-0.0006378173944305612 
0 
1.402712425924524e-05 
-0.0005338471105047471 
0.0002776205717731974 
-5.665178757826343e-05 
8.747807727203861e-05 
0 
0.0002776205717731974 
5.665178757826343e-05 
0.0004625694461191323 
-0.0008743287918287625 
0.0009394711042818559 
0 
0.0004625694461191323 
0.0008743287918287625 
-2.812242482661527e-05 
-0.0007442303396872124 
0.0007767807017302453 
0 
-2.812242482661527e-05 
0.0007442303396872124 
-1.360251167523007e-05 
-0.001056667659576519 
0.001097283748375203 
0 
-1.360251167523007e-05 
0.001056667659576519 
-0.0001263046740203697 
-0.0003155128593053233 
0.0002628385227775363 
0 
-0.0001263046740203697 
0.0003155128593053233 
0.0004409228853207175 
0.002851853021825998 
-0.003246313103569136 
0 
0.0004409228853207175 
-0.002851853021825998 
-8.29781601785504e-06 
-0.0003791884094945369 
0.0003308653749469159 
0 
-8.29781601785504e-06 
0.0003791884094945369 
0.0002470881097286624 
-0.0008283719396797208 
0.0008626647695162692 
0 
0.0002470881097286624 
0.0008283719396797208 
0.0002592080073933001 
-0.000223360664059169 
0.0001531949296155485 
0 
0.0002592080073933001 
0.000223360664059169 
0.0002199826149171673 
-0.0004143852495815941 
0.0004659385527623562 
0 
0.0002199826149171673 
0.0004143852495815941 
-9.343451207533971e-05 
9.099833546590047e-05 
-0.0001432087803681044 
0 
-9.343451207533971e-05 
-9.099833546590047e-05 
-0.0001331507803544336 
0.0002376182690886462 
-0.0004053997878283818 
0 
-0.0001331507803544336 
-0.0002376182690886462 
-4.80847585870135e-05 
0.00192808221483409 
-0.002240858467215076 
0 
-4.80847585870135e-05 
-0.00192808221483409 
-0.0001008342289435212 
0.002125041603743208 
-0.002466868327830976 
0 
-0.0001008342289435212 
-0.002125041603743208 
-0.0002651185994301718 
0.0006016749950484405 
-0.0008315517429428107 
0 
-0.0002651185994301718 
-0.0006016749950484405 
-0.000236260778022311 
-0.000317559927431745 
0.0002475141430361993 
0 
-0.000236260778022311 
0.000317559927431745 
-2.767102617185523e-05 
-0.003281376942797751 
0.003604273758637836 
0 
-2.767102617185523e-05 
0.003281376942797751 
5.860818148248581e-05 
-0.0005618825753106837 
0.0005953571664170528 
0 
5.860818148248581e-05 
0.0005618825753106837 
-9.155846485073457e-05 
-0.0004353639339317362 
0.0003867242378838586 
0 
-9.155846485073457e-05 
0.0004353639339317362 
0.000234282518903369 
-0.001616616944925513 
0.001752682660494205 
0 
0.000234282518903369 
0.001616616944925513 
-5.122328487717391e-05 
-0.0004734190917728317 
0.0004237847639154625 
0 
-5.122328487717391e-05 
0.0004734190917728317 
0.0002872474305536964 
0.00158139673177233 
-0.001781309958044993 
0 
0.0002872474305536964 
-0.00158139673177233 
-0.0002120692665846632 
0.0009405629201408085 
-0.00112860950278886 
0 
-0.0002120692665846632 
-0.0009405629201408085 
-2.072826738767963e-05 
0.0002846376404126465 
-0.000354729888733443 
0 
-2.072826738767963e-05 
-0.0002846376404126465 
-0.0001943418037957014 
8.390591732840996e-05 
-0.0002454299055277848 
0 
-0.0001943418037957014 
-8.390591732840996e-05 
1.862426278855135e-05 
-0.0002741824013621004 
0.0002694743102608367 
0 
1.862426278855135e-05 
0.0002741824013621004 
-0.0004321049083818555 
0.002064360817116012 
-0.002484559440596728 
0 
-0.0004321049083818555 
-0.002064360817116012 
-0.0001601890475096577 
-0.002273717242351298 
0.002475321474227612 
0 
-0.0001601890475096577 
0.002273717242351298 
0.0001339116689785575 
-0.0002335144567350149 
0.0002293316723874927 
0 
0.0001339116689785575 
0.0002335144567350149 
-0.0002828852786981301 
0.002477002359301592 
-0.002859339858203292 
0 
-0.0002828852786981301 
-0.002477002359301592 
-0.0003644179160637989 
0.0005744466479549507 
-0.0007596779570301449 
0 
-0.0003644179160637989 
-0.0005744466479549507 
0.0002543640287810944 
-0.001125003086208542 
0.001214726907128754 
0 
0.0002543640287810944 
0.001125003086208542 
2.669072479563399e-05 
-0.001350916672108543 
0.001427909162012468 
0 
2.669072479563399e-05 
0.001350916672108543 
8.456610391113399e-05 
0.000642576970596802 
-0.0007725174567476125 
0 
8.456610391113399e-05 
-0.000642576970596802 
-0.0001011948080934684 
0.001582956349974276 
-0.001895976654063801 
0 
-0.0001011948080934684 
-0.001582956349974276 
0.0001659961603999144 
0.00268143109941457 
-0.003069163896553819 
0 
0.0001659961603999144 
-0.00268143109941457 
-7.175486965693284e-05 
-0.0004328870090929316 
0.0004432114486644034 
0 
-7.175486965693284e-05 
0.0004328870090929316 
2.806659077484706e-06 
0.0004266742765493205 
-0.0005600635058994301 
0 
2.806659077484706e-06 
-0.0004266742765493205 
0.000206346234954721 
-0.0001567833820570684 
8.35051179712824e-05 
0 
0.000206346234954721 
0.0001567833820570684 
-6.439588191140494e-05 
-0.001951817568148606 
0.002113260462440311 
0 
-6.439588191140494e-05 
0.001951817568148606 
-0.0001789377582817072 
-0.001744148853390115 
0.001961399723635254 
0 
-0.0001789377582817072 
0.001744148853390115 
2.030770628180814e-05 
-0.0001870244898413009 
0.0001605047084612983 
0 
2.030770628180814e-05 
0.0001870244898413009 
-0.0003717778927045926 
0.0007940853304685269 
-0.0009550998460208483 
0 
-0.0003717778927045926 
-0.0007940853304685269 
-0.0001637172185103925 
0.000912395114802661 
-0.001088248171926746 
0 
-0.0001637172185103925 
-0.000912395114802661 
-0.0004551862178568843 
0.0003536579738976891 
-0.0005473604061564927 
0 
-0.0004551862178568843 
-0.0003536579738976891 
-0.0006557702032419629 
0.001664446659365172 
-0.001979141392941494 
0 
-0.0006557702032419629 
-0.001664446659365172 
-0.0001342929324792948 
0.0008276103706106892 
-0.001032363396601255 
0 
-0.0001342929324792948 
-0.0008276103706106892 
-0.0001321154883094949 
-0.0009422387178011922 
0.0009493021588452258 
0 
-0.0001321154883094949 
0.0009422387178011922 
-0.0001732618785392004 
-0.001780387552674948 
0.001947180801584186 
0 
-0.0001732618785392004 
0.001780387552674948 
-0.0006078393485415357 
0.001020953244273132 
-0.001289185429775632 
0 
-0.0006078393485415357 
-0.001020953244273132 
-0.0001563059224920482 
2.559141262353603e-05 
-7.647715206458901e-05 
0 
-0.0001563059224920482 
-2.559141262353603e-05 
5.381289297922762e-05 
0.0008786902471516478 
-0.001009878530769113 
0 
5.381289297922762e-05 
-0.0008786902471516478 
4.362350363746666e-05 
-0.0007061940319025437 
0.0007539063367756249 
0 
4.362350363746666e-05 
0.0007061940319025437 
-0.0001764873454916831 
0.001286455372829542 
-0.00148949770371501 
0 
-0.0001764873454916831 
-0.001286455372829542 
-0.0004069897381862338 
0.001560135807910106 
-0.001861920342557124 
0 
-0.0004069897381862338 
-0.001560135807910106 
-0.0001503536204649874 
0.0003304278597596504 
-0.0004562800347963648 
0 
-0.0001503536204649874 
-0.0003304278597596504 
-0.000447921232604652 
-0.001284484532806109 
0.001361080127779312 
0 
-0.000447921232604652 
0.001284484532806109 
-0.0004102985327484221 
-3.625071573779992e-05 
-8.789414990825199e-05 
0 
-0.0004102985327484221 
3.625071573779992e-05 
0.0001126795460237635 
-0.0005831364061408388 
0.000649966412955661 
0 
0.0001126795460237635 
0.0005831364061408388 
0.000223028682226702 
-0.0008051805205124068 
0.0008674271146041427 
0 
0.000223028682226702 
0.0008051805205124068 
-0.0002201514518953819 
-0.001100649778285609 
0.001138448615460956 
0 
-0.0002201514518953819 
0.001100649778285609 
-0.0003594009656226074 
0.0001837134817849682 
-0.0003118269829558204 
0 
-0.0003594009656226074 
-0.0001837134817849682 
-0.0003157045198337782 
0.002221668147500018 
-0.002576606170348819 
0 
-0.0003157045198337782 
-0.002221668147500018 
-4.814820066645292e-05 
0.0009111592194810152 
-0.001135230989431112 
0 
-4.814820066645292e-05 
-0.0009111592194810152 
-7.776340267353241e-05 
-0.0002448905363169464 
0.0001644068644712369 
0 
-7.776340267353241e-05 
0.0002448905363169464 
7.604865517534826e-05 
4.061075066064302e-05 
-0.0001049030385516603 
0 
7.604865517534826e-05 
-4.061075066064302e-05 
0.0006400264627475496 
-0.001788327925355422 
0.001961203254767303 
0 
0.0006400264627475496 
0.001788327925355422 
-0.0004296000377561105 
-0.001890781801457286 
0.002002500889215221 
0 
-0.0004296000377561105 
0.001890781801457286 
-0.0003136659045534818 
-0.001079122473516948 
0.00108775976401762 
0 
-0.0003136659045534818 
0.001079122473516948 
-0.000122506078444762 
0.00123158041811926 
-0.001414576351071798 
0 
-0.000122506078444762 
-0.00123158041811926 
-0.0006167963640197274 
0.002726512194338847 
-0.003215507724799583 
0 
-0.0006167963640197274 
-0.002726512194338847 
-0.0002312942499693203 
0.002295527325640256 
-0.002628976215695434 
0 
-0.0002312942499693203 
-0.002295527325640256 
-0.0002081614065167914 
0.0002662264204700725 
-0.0003800280542443086 
0 
-0.0002081614065167914 
-0.0002662264204700725 
-4.201605934801992e-06 
-0.0004688480148994874 
0.000447062698726394 
0 
-4.201605934801992e-06 
0.0004688480148994874 
-1.285776065701676e-05 
0.000556006455034057 
-0.0006631283667020123 
0 
-1.285776065701676e-05 
-0.000556006455034057 
-0.000552708180406729 
-0.002086302883121417 
0.002221094024628651 
0 
-0.000552708180406729 
0.002086302883121417 
-0.0008263708676381618 
0.0006159152614169529 
-0.0008466732923828977 
0 
-0.0008263708676381618 
-0.0006159152614169529 
-0.001009069117757785 
0.003712738645183578 
-0.004339256244573975 
0 
-0.001009069117757785 
-0.003712738645183578 
-0.001234681839091747 
0.004272536822476706 
-0.00503664856490778 
0 
-0.001234681839091747 
-0.004272536822476706 
-0.0004856807826727785 
0.003537105707556042 
-0.004087033715287073 
0 
-0.0004856807826727785 
-0.003537105707556042 
-0.001012699984952226 
-0.004341576499033575 
0.004737303729468145 
0 
-0.001012699984952226 
0.004341576499033575 
-1.50141079169223e-05 
-0.0011753823090695 
0.001146445904116154 
0 
-1.50141079169223e-05 
0.0011753823090695 
0.0003222503783531232 
0.001411303920917855 
-0.001657907345760081 
0 
0.0003222503783531232 
-0.001411303920917855 
-5.845304549125806e-05 
-0.001025626065102589 
0.001115229698440545 
0 
-5.845304549125806e-05 
0.001025626065102589 
0.0001876137722749378 
-0.0006720380352749925 
0.0007118723032172215 
0 
0.0001876137722749378 
0.0006720380352749925 
-4.82670869347081e-05 
2.794472293822144e-05 
-0.0001354656011875028 
0 
-4.82670869347081e-05 
-2.794472293822144e-05 
-4.44855566720137e-05 
-0.001124556987342938 
0.001191655140068787 
0 
-4.44855566720137e-05 
0.001124556987342938 
0.0003294475715640115 
0.0006012353742766905 
-0.0006423551297930339 
0 
0.0003294475715640115 
-0.0006012353742766905 
0.0003145037133362253 
0.0001975666713571871 
-0.0001520499774624232 
0 
0.0003145037133362253 
-0.0001975666713571871 
-1.633900492290911e-05 
-6.090076683367862e-05 
-3.606529568333636e-05 
0 
-1.633900492290911e-05 
6.090076683367862e-05 
0.0002370263235907723 
0.0005129268741133626 
-0.0006283234378559419 
0 
0.0002370263235907723 
-0.0005129268741133626 
0.0004050820865675944 
-0.001621039366821887 
0.001749736473190342 
0 
0.0004050820865675944 
0.001621039366821887 
0.0004513320569198791 
-0.000808198043359595 
0.000934498825459587 
0 
0.0004513320569198791 
0.000808198043359595 
0.0001667597796742664 
-0.0004475218461654753 
0.0004533832634165594 
0 
0.0001667597796742664 
0.0004475218461654753 
-0.0001820876291611472 
0.001158671549945623 
-0.001384305464835807 
0 
-0.0001820876291611472 
-0.001158671549945623 
3.916541961833843e-05 
0.0009284383631836119 
-0.001017632344563516 
0 
3.916541961833843e-05 
-0.0009284383631836119 
0.000226359175037302 
-0.001428360255918945 
0.001493418644432832 
0 
0.000226359175037302 
0.001428360255918945 
1.075033726185256e-05 
0.0004516370905624207 
-0.0005877558824165112 
0 
1.075033726185256e-05 
-0.0004516370905624207 
0.0003191481847653844 
0.0008099538930423002 
-0.0009609283727975257 
0 
0.0003191481847653844 
-0.0008099538930423002 
0.0001220348316637359 
-0.0009455542929961321 
0.001007827319774709 
0 
0.0001220348316637359 
0.0009455542929961321 
0.0003960799731494587 
-0.0006827657310258073 
0.0007655160226945764 
0 
0.0003960799731494587 
0.0006827657310258073 
0.0003396018886849522 
0.0001693077364357928 
-0.0002587391344868629 
0 
0.0003396018886849522 
-0.0001693077364357928 
-0.000174150289683826 
0.0005816421672449659 
-0.0007096553027052829 
0 
-0.000174150289683826 
-0.0005816421672449659 
0.0004234900128160969 
-0.0001059160988172694 
0.0001489588195893282 
0 
0.0004234900128160969 
0.0001059160988172694 
6.202071209616008e-05 
-0.0003712463520584099 
0.0004447300089699876 
0 
6.202071209616008e-05 
0.0003712463520584099 
0.0001855593957152421 
-0.0007861105792620541 
0.0007968551211136686 
0 
0.0001855593957152421 
0.0007861105792620541 
2.923560644122958e-05 
-0.001302706703402414 
0.001390691333523969 
0 
2.923560644122958e-05 
0.001302706703402414 
-0.0001076458637000659 
-0.000453631842121122 
0.0004200383153314699 
0 
-0.0001076458637000659 
0.000453631842121122 
0.0001844830094411257 
0.0001524342204377172 
-0.0002416141367644567 
0 
0.0001844830094411257 
-0.0001524342204377172 
7.457640991400764e-05 
0.001113275333988449 
-0.001287402570366327 
0 
7.457640991400764e-05 
-0.001113275333988449 
-0.0002461248578396448 
-0.0002954030096741527 
0.0002360293665508072 
0 
-0.0002461248578396448 
0.0002954030096741527 
6.747434000751872e-05 
0.0004697989739936098 
-0.0005258694609184567 
0 
6.747434000751872e-05 
-0.0004697989739936098 
0.0001833942140601154 
-0.0001240723859421227 
7.544281984451026e-05 
0 
0.0001833942140601154 
0.0001240723859421227 
-0.0002081672518326558 
0.0006310671904585208 
-0.000796143144060192 
0 
-0.0002081672518326558 
-0.0006310671904585208 
0.0002154613770735074 
0.0002438652541955258 
-0.0003680152837080134 
0 
0.0002154613770735074 
-0.0002438652541955258 
-6.04996975455412e-05 
-0.0003097837113704665 
0.0002765598428382585 
0 
-6.04996975455412e-05 
0.0003097837113704665 
2.587207566304141e-05 
0.0004820123575593882 
-0.0006134730420744172 
0 
2.587207566304141e-05 
-0.0004820123575593882 
0.0001592060965294574 
0.0001753408858373715 
-0.000269285648175274 
0 
0.0001592060965294574 
-0.0001753408858373715 
-6.43155830502809e-05 
-0.002289644625213929 
0.002446008637367651 
0 
-6.43155830502809e-05 
0.002289644625213929 
0.0003368572450658297 
0.00057777461490004 
-0.0006186779475967289 
0 
0.0003368572450658297 
-0.00057777461490004 
0.000232427746385429 
0.0004437472980456231 
-0.0004943154359843038 
0 
0.000232427746385429 
-0.0004437472980456231 
0.0001557401824003925 
-0.0003382075439537757 
0.0002748355449426499 
0 
0.0001557401824003925 
0.0003382075439537757 
-1.28411145095799e-05 
0.0007991641352894755 
-0.0009611030346678438 
0 
-1.28411145095799e-05 
-0.0007991641352894755 
-0.0001212413502462732 
0.0004613571158177545 
-0.0006092038348161184 
0 
-0.0001212413502462732 
-0.0004613571158177545 
0.0001062598435005894 
0.00050970179477355 
-0.000631529215039957 
0 
0.0001062598435005894 
-0.00050970179477355 
0.0001571611235038859 
0.0001757640253753188 
-0.0002533419020979219 
0 
0.0001571611235038859 
-0.0001757640253753188 
0.0001859876227388468 
-0.001593250361967542 
0.001768670200444959 
0 
0.0001859876227388468 
0.001593250361967542 
0.0006964493940572687 
-0.0007772082782449397 
0.0009581678953367314 
0 
0.0006964493940572687 
0.0007772082782449397 
0.0001554188810621915 
-0.001146366176461088 
0.001262347971319132 
0 
0.0001554188810621915 
0.001146366176461088 
-3.308620436503668e-06 
0.0007819720988041681 
-0.0009132600317699074 
0 
-3.308620436503668e-06 
-0.0007819720988041681 
0.0001250352080980353 
0.0007199670502832755 
-0.0009232395961594244 
0 
0.0001250352080980353 
-0.0007199670502832755 
0.0002482496113305367 
-0.001089195632483362 
0.001188164049293926 
0 
0.0002482496113305367 
0.001089195632483362 
0.0003434155470895707 
-0.000804143882000602 
0.0008732652419844915 
0 
0.0003434155470895707 
0.000804143882000602 
-0.0001787166366085721 
0.0006426831125283893 
-0.0007992568152778653 
0 
-0.0001787166366085721 
-0.0006426831125283893 
-0.0001267000333880469 
-0.0005926210493377057 
0.0006151427931278962 
0 
-0.0001267000333880469 
0.0005926210493377057 
-3.858334962460937e-05 
0.0008648269871335963 
-0.001008521182059605 
0 
-3.858334962460937e-05 
-0.0008648269871335963 
0.0001548318206885527 
-0.0009436705066016654 
0.0009846980446668104 
0 
0.0001548318206885527 
0.0009436705066016654 
-2.723990041035066e-05 
0.0008152020551147725 
-0.0009669501631288795 
0 
-2.723990041035066e-05 
-0.0008152020551147725 
0.0001202643882418709 
0.001512538478089193 
-0.001844015298701427 
0 
0.0001202643882418709 
-0.001512538478089193 
0.000490704386544777 
-0.001559442712439553 
0.001749382337977309 
0 
0.000490704386544777 
0.001559442712439553 
0.0002282076150331187 
-0.0009505062000501833 
0.001030958523554819 
0 
0.0002282076150331187 
0.0009505062000501833 
-0.0001822545708510954 
0.0008843131007582986 
-0.001111942960614503 
0 
-0.0001822545708510954 
-0.0008843131007582986 
-0.0001333206466368365 
0.0006652205703368827 
-0.0008053444199807001 
0 
-0.0001333206466368365 
-0.0006652205703368827 
-0.0001666654710519676 
-0.0008206154707781499 
0.0008227821678861015 
0 
-0.0001666654710519676 
0.0008206154707781499 
0.0003251279526078726 
-0.0004427698029098264 
0.0005530946504081052 
0 
0.0003251279526078726 
0.0004427698029098264 
-8.81110894554186e-06 
0.000150832110816217 
-0.0002108122930750568 
0 
-8.81110894554186e-06 
-0.000150832110816217 
0.0002486683893836543 
-0.002168492385517923 
0.002342736871344767 
0 
0.0002486683893836543 
0.002168492385517923 
0.0003041053198997001 
-0.002115676103446106 
0.002366830608738307 
0 
0.0003041053198997001 
0.002115676103446106 
0.0003630945256840403 
-0.001612967584475715 
0.001807749224302653 
0 
0.0003630945256840403 
0.001612967584475715 
0.0003438356915798516 
0.0006961589385351857 
-0.0008742566411654889 
0 
0.0003438356915798516 
-0.0006961589385351857 
4.059543069849646e-06 
0.0005932576123319911 
-0.0007517242561356791 
0 
4.059543069849646e-06 
-0.0005932576123319911 
0.0001018019127388915 
0.0008614900362031931 
-0.0009642434928246679 
0 
0.0001018019127388915 
-0.0008614900362031931 
8.809573880280805e-05 
0.0008551704667063298 
-0.0009853226764690714 
0 
8.809573880280805e-05 
-0.0008551704667063298 
8.858022415350245e-06 
0.001470368294769586 
-0.001721765779252595 
0 
8.858022415350245e-06 
-0.001470368294769586 
-0.0003843423952005518 
-0.0006545349253396828 
0.0006910298974732327 
0 
-0.0003843423952005518 
0.0006545349253396828 
0.0001294575455126977 
-0.0005729663883446204 
0.0005541453596823743 
0 
0.0001294575455126977 
0.0005729663883446204 
-0.0001063370300030971 
-0.001632520844544611 
0.001757624589405788 
0 
-0.0001063370300030971 
0.001632520844544611 
0.000136913182214851 
-0.0002311124976107768 
0.0001351163393342138 
0 
0.000136913182214851 
0.0002311124976107768 
-0.0005479207043659133 
0.0002565257414212317 
-0.0003902334871544419 
0 
-0.0005479207043659133 
-0.0002565257414212317 
0.0004186948588870558 
0.0003918191424179195 
-0.0004423886760688336 
0 
0.0004186948588870558 
-0.0003918191424179195 
-6.854896912975118e-05 
0.0009302655584297505 
-0.001131196652838573 
0 
-6.854896912975118e-05 
-0.0009302655584297505 
0.0003363151625545726 
0.001686927240590583 
-0.001951883648989195 
0 
0.0003363151625545726 
-0.001686927240590583 
6.843982135453323e-05 
-0.001778801460596424 
0.001967862984752159 
0 
6.843982135453323e-05 
0.001778801460596424 
0.0001036068321782369 
-0.0002960687277646385 
0.0002855607833789222 
0 
0.0001036068321782369 
0.0002960687277646385 
0.0002964740644354816 
-0.001098748192199199 
0.001191949825288289 
0 
0.0002964740644354816 
0.001098748192199199 
0.0003021467828793011 
-0.00035207187695261 
0.0003697774658718304 
0 
0.0003021467828793011 
0.00035207187695261 
-0.0001137334945478892 
-0.0002208937726285073 
0.0001468274309896402 
0 
-0.0001137334945478892 
0.0002208937726285073 
0.000229745733488316 
0.0001362350477429806 
-0.0001847075174696941 
0 
0.000229745733488316 
-0.0001362350477429806 
-5.481630592798116e-05 
0.001179993542480487 
-0.001342887722594722 
0 
-5.481630592798116e-05 
-0.001179993542480487 
0.0001600844456624302 
0.001784266211162582 
-0.00202545948634459 
0 
0.0001600844456624302 
-0.001784266211162582 
-0.0002225759616307587 
-0.002159187557593709 
0.002370643236654721 
0 
-0.0002225759616307587 
0.002159187557593709 
0.0002504086427384328 
-0.000168374429146966 
0.0001244088734059116 
0 
0.0002504086427384328 
0.000168374429146966 
0.0002001869827187901 
-5.299234683875407e-05 
-3.695039141075028e-05 
0 
0.0002001869827187901 
5.299234683875407e-05 
0.0001931244920575584 
-0.0001094251151020482 
4.514861511474342e-05 
0 
0.0001931244920575584 
0.0001094251151020482 
-4.902980871821426e-05 
0.0001250087303904796 
-0.0002441335717570875 
0 
-4.902980871821426e-05 
-0.0001250087303904796 
-0.000276253924496431 
0.001231621643876583 
-0.001451932402343007 
0 
-0.000276253924496431 
-0.001231621643876583 
-0.000156511975051367 
-0.0001411415220085344 
9.521116371310471e-05 
0 
-0.000156511975051367 
0.0001411415220085344 
0.0002746319006425339 
0.001052717247401855 
-0.001246708796431306 
0 
0.0002746319006425339 
-0.001052717247401855 
-4.70120298383608e-05 
-0.001448382395986689 
0.001564865478730022 
0 
-4.70120298383608e-05 
0.001448382395986689 
0.0003069099770782578 
0.00016871116406738 
-0.0001844211394732879 
0 
0.0003069099770782578 
-0.00016871116406738 
-0.0001983706540615927 
0.0001513525275348466 
-0.0002690533756615786 
0 
-0.0001983706540615927 
-0.0001513525275348466 
0.0001450752054783277 
0.001314732787609111 
-0.001566018004474653 
0 
0.0001450752054783277 
-0.001314732787609111 
5.743929025780315e-05 
7.180489938725155e-06 
-7.629432750615574e-05 
0 
5.743929025780315e-05 
-7.180489938725155e-06 
0.0003397510439640901 
-0.0003907700974393532 
0.0003588489751425457 
0 
0.0003397510439640901 
0.0003907700974393532 
0.0004595063497459812 
-0.0007749658519118259 
0.0007719459072372123 
0 
0.0004595063497459812 
0.0007749658519118259 
0.0005246619667022699 
-0.0007094244841704524 
0.0008009059134971696 
0 
0.0005246619667022699 
0.0007094244841704524 
-2.263719814350618e-05 
-0.002003327535849409 
0.002117707637027566 
0 
-2.263719814350618e-05 
0.002003327535849409 
-0.0002031067228271353 
0.0005054136921574049 
-0.0006866395135668443 
0 
-0.0002031067228271353 
-0.0005054136921574049 
0.0001634411493454149 
-0.0002141133788975265 
0.0001510370048738696 
0 
0.0001634411493454149 
0.0002141133788975265 
-0.0001986453514627392 
0.001254273673259403 
-0.001482615644896408 
0 
-0.0001986453514627392 
-0.001254273673259403 
0.0001159746318566958 
-0.0009955598173681131 
0.001100723694396934 
0 
0.0001159746318566958 
0.0009955598173681131 
-1.821764112227837e-05 
-0.0001067572721380004 
8.159530971006657e-05 
0 
-1.821764112227837e-05 
0.0001067572721380004 
2.076409391550177e-05 
-5.529354898250051e-05 
1.929842237228393e-05 
0 
2.076409391550177e-05 
5.529354898250051e-05 
0.0001883468177131503 
0.001568903618258348 
-0.00182691070989165 
0 
0.0001883468177131503 
-0.001568903618258348 
-0.000364253539396159 
-0.003358178109381176 
0.003622981136519753 
0 
-0.000364253539396159 
0.003358178109381176 
-0.0001317731306825232 
0.0009906146994711072 
-0.001156459231025552 
0 
-0.0001317731306825232 
-0.0009906146994711072 
4.306831810239053e-05 
0.0005503856847974331 
-0.0007045816551135475 
0 
4.306831810239053e-05 
-0.0005503856847974331 
5.897948847457145e-05 
0.0005195084626836369 
-0.0006333879851302167 
0 
5.897948847457145e-05 
-0.0005195084626836369 
-0.0003581258424774333 
0.0002935830116184382 
-0.0004136661085469384 
0 
-0.0003581258424774333 
-0.0002935830116184382 
-0.0003249217553340821 
0.0009778908273005427 
-0.001143655325289811 
0 
-0.0003249217553340821 
-0.0009778908273005427 
0.0001635241366191384 
0.001670188797474823 
-0.001932562314496489 
0 
0.0001635241366191384 
-0.001670188797474823 
6.948872331033831e-05 
-0.0006157659954813669 
0.0006220281734279356 
0 
6.948872331033831e-05 
0.0006157659954813669 
-0.0008078599092758018 
-0.003318297101357106 
0.003713364493173602 
0 
-0.0008078599092758018 
0.003318297101357106 
3.333039790572392e-05 
-0.0003433369687473735 
0.0002941278766809378 
0 
3.333039790572392e-05 
0.0003433369687473735 
8.843474714623086e-06 
0.001037805486030958 
-0.001257733901172512 
0 
8.843474714623086e-06 
-0.001037805486030958 
-9.140071304931156e-05 
0.00260497474241096 
-0.002971434257370193 
0 
-9.140071304931156e-05 
-0.00260497474241096 
-0.0003332868110536744 
0.0006298352498144103 
-0.0007993893880349677 
0 
-0.0003332868110536744 
-0.0006298352498144103 
0.000104910223411535 
0.0001045951176909116 
-0.0001312309703128046 
0 
0.000104910223411535 
-0.0001045951176909116 
-0.0001738575026074175 
0.001021467517089703 
-0.001233403824621545 
0 
-0.0001738575026074175 
-0.001021467517089703 
-0.000278475669087198 
0.0002853933612175648 
-0.0003972842139755652 
0 
-0.000278475669087198 
-0.0002853933612175648 
-0.0008339283794546729 
-0.004342306531292348 
0.004881184549564541 
0 
-0.0008339283794546729 
0.004342306531292348 
-1.912124538949506e-05 
0.001904027890223595 
-0.00223316673287987 
0 
-1.912124538949506e-05 
-0.001904027890223595 
-0.0001864674629542778 
0.002512883548462388 
-0.002900142055463721 
0 
-0.0001864674629542778 
-0.002512883548462388 
0.0001465138614305375 
0.001728576390300767 
-0.001934218728601076 
0 
0.0001465138614305375 
-0.001728576390300767 
-0.0003423894505265953 
-0.000864511100920356 
0.0008305041489786437 
0 
-0.0003423894505265953 
0.000864511100920356 
-0.0002341586962328802 
0.0001221846608099019 
-0.0002385870486745977 
0 
-0.0002341586962328802 
-0.0001221846608099019 
-0.0003041508985301352 
8.107861410973439e-05 
-0.0001895445610457249 
0 
-0.0003041508985301352 
-8.107861410973439e-05 
6.088558107914139e-05 
0.001056508699220459 
-0.001234073293079073 
0 
6.088558107914139e-05 
-0.001056508699220459 
-0.0002014516160532012 
0.0002717251584882698 
-0.0004336842485235073 
0 
-0.0002014516160532012 
-0.0002717251584882698 
0.000228033184074703 
-0.001076198309062472 
0.00116266817233651 
0 
0.000228033184074703 
0.001076198309062472 
-0.0001123323143842252 
0.001171858763689109 
-0.001407690309501823 
0 
-0.0001123323143842252 
-0.001171858763689109 
-0.0002074256247195218 
0.001378091691338934 
-0.001635985705937431 
0 
-0.0002074256247195218 
-0.001378091691338934 
-0.0003067524322238958 
0.001647076329676603 
-0.001947297575924044 
0 
-0.0003067524322238958 
-0.001647076329676603 
-8.022590945290393e-05 
0.0007361397438587331 
-0.0009109517628679899 
0 
-8.022590945290393e-05 
-0.0007361397438587331 
0.0001236980013716418 
-0.001547780268334736 
0.001709962245510113 
0 
0.0001236980013716418 
0.001547780268334736 
0.0002955114177388916 
-0.002220898969684593 
0.002490301319390861 
0 
0.0002955114177388916 
0.002220898969684593 
-7.360889294226932e-05 
0.0004142879008507664 
-0.0005734216025604513 
0 
-7.360889294226932e-05 
-0.0004142879008507664 
0.0001691669462872966 
-0.0008166509895210432 
0.0008570262677122031 
0 
0.0001691669462872966 
0.0008166509895210432 
-0.00017406996109482 
0.0001043962371720596 
-0.0002350176355955427 
0 
-0.00017406996109482 
-0.0001043962371720596 
-8.367285961699192e-05 
0.002024158805581087 
-0.002346728898945873 
0 
-8.367285961699192e-05 
-0.002024158805581087 
-0.0004231452735597616 
0.0008846837048411771 
-0.001184489316688699 
0 
-0.0004231452735597616 
-0.0008846837048411771 
0.0002181455349030587 
-0.000644219550280002 
0.0007347791213335854 
0 
0.0002181455349030587 
0.000644219550280002 
-0.0001001081890227099 
-0.001098312386438669 
0.001099917437972611 
0 
-0.0001001081890227099 
0.001098312386438669 
5.703436939774423e-05 
-0.0006951509820352314 
0.000680201724260569 
0 
5.703436939774423e-05 
0.0006951509820352314 
-6.236984250883669e-05 
-0.0001054493115779484 
1.877303978519073e-06 
0 
-6.236984250883669e-05 
0.0001054493115779484 
-0.0005591005601513434 
0.001857922619900341 
-0.002242887555454146 
0 
-0.0005591005601513434 
-0.001857922619900341 
-0.0006980230985295999 
0.002002111693740345 
-0.00232574471976395 
0 
-0.0006980230985295999 
-0.002002111693740345 
-0.0003471849942936163 
0.001381052806885817 
-0.001671156859412913 
0 
-0.0003471849942936163 
-0.001381052806885817 
-0.0002710342723492747 
0.0003450998254924435 
-0.0004821608148956764 
0 
-0.0002710342723492747 
-0.0003450998254924435 
-0.0005302165023526026 
0.00030485043616514 
-0.0004618495276024505 
0 
-0.0005302165023526026 
-0.00030485043616514 
-0.0001756141381589026 
-0.001045625102955985 
0.001099379265799638 
0 
-0.0001756141381589026 
0.001045625102955985 
-0.0003379697508797745 
-0.001781280226459138 
0.001839218719443044 
0 
-0.0003379697508797745 
0.001781280226459138 
-0.0003244009837154525 
-0.001431708450619914 
0.001425304783214042 
0 
-0.0003244009837154525 
0.001431708450619914 
-0.00017005734404132 
0.0006964007516679268 
-0.0008867207658683796 
0 
-0.00017005734404132 
-0.0006964007516679268 
-0.000175742236956352 
0.0005034382553424178 
-0.00062587469441968 
0 
-0.000175742236956352 
-0.0005034382553424178 
-0.0004170464308115817 
0.000404733418729706 
-0.0005639857909595497 
0 
-0.0004170464308115817 
-0.000404733418729706 
-0.0003556402801507072 
0.0004117172421642105 
-0.0005893198633783003 
0 
-0.0003556402801507072 
-0.0004117172421642105 
5.489763903317834e-05 
0.0004834476787581346 
-0.0006339775006930575 
0 
5.489763903317834e-05 
-0.0004834476787581346 
-0.0001759336122337198 
0.0007134664846192946 
-0.0008321677715379784 
0 
-0.0001759336122337198 
-0.0007134664846192946 
-8.272196448585404e-05 
-0.0002708862034461501 
0.0001819433449052901 
0 
-8.272196448585404e-05 
0.0002708862034461501 
-3.808225450995674e-05 
-0.0004319395465417464 
0.0004132597950634532 
0 
-3.808225450995674e-05 
0.0004319395465417464 
-0.0001277693455136104 
-0.0001716686626810459 
0.0001084798667799325 
0 
-0.0001277693455136104 
0.0001716686626810459 
-0.0004183398181646839 
0.0008924244532883155 
-0.001037009953694754 
0 
-0.0004183398181646839 
-0.0008924244532883155 
-0.0003158717970799349 
0.00130387532448966 
-0.001554741319124447 
0 
-0.0003158717970799349 
-0.00130387532448966 
-9.240892010520954e-05 
-0.0005319504327514175 
0.0005751873978857873 
0 
-9.240892010520954e-05 
0.0005319504327514175 
9.017513327129347e-05 
0.0009876755416720539 
-0.001179639596112557 
0 
9.017513327129347e-05 
-0.0009876755416720539 
-0.0007159999196914169 
0.0004997585213645574 
-0.0005904413104979235 
0 
-0.0007159999196914169 
-0.0004997585213645574 
-5.152042865612741e-05 
-0.0003886923653795194 
0.0003113410351044126 
0 
-5.152042865612741e-05 
0.0003886923653795194 
-0.0003209636578140779 
-0.0007844400632480691 
0.0007520297717571737 
0 
-0.0003209636578140779 
0.0007844400632480691 
-0.0002251943418488125 
-0.0001047548591884121 
8.899915890478968e-05 
0 
-0.0002251943418488125 
0.0001047548591884121 
8.725903863445711e-05 
0.0003247334393867109 
-0.0003791092974037849 
0 
8.725903863445711e-05 
-0.0003247334393867109 
-0.0005110338012984918 
0.00106425222526581 
-0.001344961660289039 
0 
-0.0005110338012984918 
-0.00106425222526581 
-9.697940506243796e-05 
0.0002531301595429536 
-0.0003696448561618117 
0 
-9.697940506243796e-05 
-0.0002531301595429536 
-0.0002748884073875721 
0.001501614266197025 
-0.001784652147769822 
0 
-0.0002748884073875721 
-0.001501614266197025 
-0.0001434262947046844 
0.0002864228555561829 
-0.0004380817117618199 
0 
-0.0001434262947046844 
-0.0002864228555561829 
-0.0003394166869228895 
-0.000582853053703878 
0.0005744784199596051 
0 
-0.0003394166869228895 
0.000582853053703878 
1.64717569364363e-05 
-0.001252567299088962 
0.001311010135058408 
0 
1.64717569364363e-05 
0.001252567299088962 
-0.0004597420114495629 
-0.003165153046325107 
0.003468081461187815 
0 
-0.0004597420114495629 
0.003165153046325107 
-0.0006149160997109809 
-0.001214381965432879 
0.001273396886928999 
0 
-0.0006149160997109809 
0.001214381965432879 
-0.0004562151284498163 
0.002533450201889736 
-0.002948159853452438 
0 
-0.0004562151284498163 
-0.002533450201889736 
-0.0008798598696217315 
0.00243145547662465 
-0.002925366067914389 
0 
-0.0008798598696217315 
-0.00243145547662465 
-0.0002345152222841586 
0.004011102633716548 
-0.004516000865814519 
0 
-0.0002345152222841586 
-0.004011102633716548 
-0.0002027647322571931 
0.000765373250379387 
-0.0009585448948329903 
0 
-0.0002027647322571931 
-0.000765373250379387 
-0.0002094607186102097 
-0.0008381862627511247 
0.0008417047929389449 
0 
-0.0002094607186102097 
0.0008381862627511247 
-0.0002314483904223154 
0.002115200610729501 
-0.002451875175159088 
0 
-0.0002314483904223154 
-0.002115200610729501 
-0.0004600441897045679 
-0.002299494596426346 
0.00243108015741829 
0 
-0.0004600441897045679 
0.002299494596426346 
-0.0001370559188715941 
-0.0006365358435299257 
0.0006000315384333434 
0 
-0.0001370559188715941 
0.0006365358435299257 
-0.001058073411256834 
0.00377380250569882 
-0.004405093056453535 
0 
-0.001058073411256834 
-0.00377380250569882 
-0.001165380543931623 
0.004677724389361743 
-0.005424268236313343 
0 
-0.001165380543931623 
-0.004677724389361743 
-0.0004523314325792857 
0.002127163121197041 
-0.00250011574782721 
0 
-0.0004523314325792857 
-0.002127163121197041 
-0.0009712140141832205 
-0.005184068755326673 
0.005684207743155838 
0 
-0.0009712140141832205 
0.005184068755326673 
-2.05016413033491e-05 
2.758827883632364e-05 
-0.0001088063171399079 
0 
-2.05016413033491e-05 
-2.758827883632364e-05 
0.0001618364730626919 
0.001104847040725291 
-0.001280000480094522 
0 
0.0001618364730626919 
-0.001104847040725291 
-0.0001071280105795318 
-0.001574824555334534 
0.001680818301288779 
0 
-0.0001071280105795318 
0.001574824555334534 
0.0001137636593010109 
-0.002557850997500695 
0.00288273671484901 
0 
0.0001137636593010109 
0.002557850997500695 
-0.0001253765736377987 
0.0008626952932867174 
-0.001043421351137016 
0 
-0.0001253765736377987 
-0.0008626952932867174 
-4.393327194081898e-05 
-7.06523209340248e-05 
-1.351759992170978e-06 
0 
-4.393327194081898e-05 
7.06523209340248e-05 
-0.0002376256056965929 
0.000105900947107244 
-0.0001991190870156778 
0 
-0.0002376256056965929 
-0.000105900947107244 
-0.0002597051158303559 
0.001287634691945672 
-0.001547986503134142 
0 
-0.0002597051158303559 
-0.001287634691945672 
-0.0004669193852200186 
0.002133156347174648 
-0.00248938069930719 
0 
-0.0004669193852200186 
-0.002133156347174648 
9.041566302797689e-05 
0.0006535390668878383 
-0.0008100085367975113 
0 
9.041566302797689e-05 
-0.0006535390668878383 
0.0003099355596086598 
-0.0006984902933559939 
0.0008148697136799314 
0 
0.0003099355596086598 
0.0006984902933559939 
0.0003916410439570997 
-0.0008835323892920368 
0.0009785291552820549 
0 
0.0003916410439570997 
0.0008835323892920368 
-0.0004740679251703596 
-0.0009848725610669738 
0.001014034373386347 
0 
-0.0004740679251703596 
0.0009848725610669738 
8.229013384312838e-05 
0.0009494031031387848 
-0.001155834224491228 
0 
8.229013384312838e-05 
-0.0009494031031387848 
0.0001258684215289259 
0.0004138965346989823 
-0.0004699961446677807 
0 
0.0001258684215289259 
-0.0004138965346989823 
-4.736052422980889e-05 
-0.000403584716705534 
0.0004532615212592188 
0 
-4.736052422980889e-05 
0.000403584716705534 
-6.317434646248193e-05 
0.0009749949392770705 
-0.001158991122473982 
0 
-6.317434646248193e-05 
-0.0009749949392770705 
0.0001746064137152106 
0.0006166310132282232 
-0.0007360372365520742 
0 
0.0001746064137152106 
-0.0006166310132282232 
0.000199394593602782 
0.0001425476076673365 
-0.000173004346497172 
0 
0.000199394593602782 
-0.0001425476076673365 
0.0004684764651389986 
-0.0005915279405027083 
0.0007178245389070684 
0 
0.0004684764651389986 
0.0005915279405027083 
1.416309404362494e-05 
-0.0008168101917557018 
0.0008110663067040555 
0 
1.416309404362494e-05 
0.0008168101917557018 
0.0001197552662855759 
0.0006655352179481183 
-0.0008304744316524013 
0 
0.0001197552662855759 
-0.0006655352179481183 
0.0002682921922617621 
0.000539164904873455 
-0.0005910674984780395 
0 
0.0002682921922617621 
-0.000539164904873455 
0.0005318026370822058 
-2.778836682376171e-05 
4.317230894253497e-05 
0 
0.0005318026370822058 
2.778836682376171e-05 
-4.365296399453364e-05 
-0.002045992938918796 
0.00216683032579273 
0 
-4.365296399453364e-05 
0.002045992938918796 
6.350625802449397e-05 
-0.0002151491184783983 
0.000189614468320632 
0 
6.350625802449397e-05 
0.0002151491184783983 
-0.000201694091811429 
-0.0002589817676844671 
0.0002346086727564844 
0 
-0.000201694091811429 
0.0002589817676844671 
0.00022659216425345 
0.000761039553816131 
-0.0008931968888804454 
0 
0.00022659216425345 
-0.000761039553816131 
8.562121694750706e-05 
0.0001173828316818921 
-0.0002126236511996684 
0 
8.562121694750706e-05 
-0.0001173828316818921 
0.0001621262063287834 
0.0002737247805737118 
-0.0004076743142866736 
0 
0.0001621262063287834 
-0.0002737247805737118 
4.419753244826539e-05 
-0.001306448431511969 
0.001459161565878903 
0 
4.419753244826539e-05 
0.001306448431511969 
5.414916162867395e-05 
-0.000152441429322859 
0.0001256544890055344 
0 
5.414916162867395e-05 
0.000152441429322859 
-0.0002331111152786464 
0.0007915842324909958 
-0.0009759430098697975 
0 
-0.0002331111152786464 
-0.0007915842324909958 
0.0002108346353878414 
0.000810584806102036 
-0.0009924388421439856 
0 
0.0002108346353878414 
-0.000810584806102036 
0.0004423830517521588 
-0.001170405192192251 
0.001267803384616914 
0 
0.0004423830517521588 
0.001170405192192251 
4.192916918995862e-05 
-0.000333599429458204 
0.0003979932231652756 
0 
4.192916918995862e-05 
0.000333599429458204 
0.0007706485422995159 
0.0002634210533631287 
-0.0002773869586679511 
0 
0.0007706485422995159 
-0.0002634210533631287 
0.0003422259177865592 
-0.001474756672914654 
0.001598731771707933 
0 
0.0003422259177865592 
0.001474756672914654 
0.0002442008363188275 
0.0003595631985457118 
-0.0003825009836292947 
0 
0.0002442008363188275 
-0.0003595631985457118 
0.0003085072045314368 
-0.0001964845352971105 
0.0002639212971724131 
0 
0.0003085072045314368 
0.0001964845352971105 
0.0001064259603715378 
-0.0003383379472261904 
0.000343614110460125 
0 
0.0001064259603715378 
0.0003383379472261904 
0.0004347219909863507 
-0.001274940315747178 
0.001242748726667441 
0 
0.0004347219909863507 
0.001274940315747178 
0.0005628338369141205 
-0.0009227689613099538 
0.001075388693188245 
0 
0.0005628338369141205 
0.0009227689613099538 
0.0001967888958628283 
0.0002172205385291007 
-0.0002552155445473999 
0 
0.0001967888958628283 
-0.0002172205385291007 
0.000174585326682256 
0.001260897835806405 
-0.001474077863671293 
0 
0.000174585326682256 
-0.001260897835806405 
-5.613392035225164e-05 
-0.001206898586202378 
0.001287270620350169 
0 
-5.613392035225164e-05 
0.001206898586202378 
0.0004055601733664794 
-0.0003657280080603931 
0.0004357743745924097 
0 
0.0004055601733664794 
0.0003657280080603931 
0.0001716574985985089 
0.0001161990977624739 
-0.0001595431544403284 
0 
0.0001716574985985089 
-0.0001161990977624739 
-4.93012657237931e-05 
0.0003650555851945662 
-0.0004787243739425789 
0 
-4.93012657237931e-05 
-0.0003650555851945662 
3.230122873084265e-05 
-0.001836798626712145 
0.001968931934734619 
0 
3.230122873084265e-05 
0.001836798626712145 
0.0007033290465941193 
-0.000830755558610819 
0.0009486712385291191 
0 
0.0007033290465941193 
0.000830755558610819 
0.0003835304922810428 
-0.0004494533642442741 
0.0004846841179258579 
0 
0.0003835304922810428 
0.0004494533642442741 
5.779180391482612e-05 
0.00024619032165854 
-0.0003963167177346059 
0 
5.779180391482612e-05 
-0.00024619032165854 
0.0001112381374458312 
-0.0001747902605453314 
9.086663160835376e-05 
0 
0.0001112381374458312 
0.0001747902605453314 
0.0002310759248862587 
0.000358500413846965 
-0.0003599870301933091 
0 
0.0002310759248862587 
-0.000358500413846965 
0.00042357167788156 
0.0003207523681748673 
-0.0002992558580513156 
0 
0.00042357167788156 
-0.0003207523681748673 
0.0001802517880922084 
0.0004454371424680553 
-0.0005415692300732039 
0 
0.0001802517880922084 
-0.0004454371424680553 
-0.0002841274645878368 
-0.001651309443680797 
0.001795932047472778 
0 
-0.0002841274645878368 
0.001651309443680797 
0.0004142146311943088 
0.0008809825897360147 
-0.0009311922573669794 
0 
0.0004142146311943088 
-0.0008809825897360147 
-4.620338163694797e-05 
-0.0001658663770539972 
0.0001493821294821394 
0 
-4.620338163694797e-05 
0.0001658663770539972 
-0.0002608766776052504 
7.234602377545575e-05 
-0.0001924871470027552 
0 
-0.0002608766776052504 
-7.234602377545575e-05 
0.0001816466858061763 
0.001082245022582284 
-0.001342411776611147 
0 
0.0001816466858061763 
-0.001082245022582284 
-4.834651219766656e-05 
0.000780296416730467 
-0.0009488560522023642 
0 
-4.834651219766656e-05 
-0.000780296416730467 
0.0005652566290042182 
-0.001240699997568562 
0.001467366972384683 
0 
0.0005652566290042182 
0.001240699997568562 
-1.809102770070689e-05 
0.0001424533621833697 
-0.0002093005217121849 
0 
-1.809102770070689e-05 
-0.0001424533621833697 
-0.0004453603818272652 
-0.003086614831981052 
0.003434109311726133 
0 
-0.0004453603818272652 
0.003086614831981052 
0.0001692226235517886 
-0.0002551952805793264 
0.0002930313957886894 
0 
0.0001692226235517886 
0.0002551952805793264 
-5.296093986381039e-05 
0.0006511310951633648 
-0.000746874192803074 
0 
-5.296093986381039e-05 
-0.0006511310951633648 
-0.0002292072507213184 
6.495060662474277e-05 
-0.0001641034278166598 
0 
-0.0002292072507213184 
-6.495060662474277e-05 
-0.0002054228361075274 
0.00212245301064938 
-0.002547080058817764 
0 
-0.0002054228361075274 
-0.00212245301064938 
5.058092775328494e-05 
0.001765431388146197 
-0.001971201870256428 
0 
5.058092775328494e-05 
-0.001765431388146197 
0.0004681641035705059 
-0.0002464553664827478 
0.0003141029981502506 
0 
0.0004681641035705059 
0.0002464553664827478 
0.0004179945407300278 
-0.0005989286940798539 
0.0006530639409830936 
0 
0.0004179945407300278 
0.0005989286940798539 
0.0001661415076635059 
-0.0004239616423015538 
0.000421089513435969 
0 
0.0001661415076635059 
0.0004239616423015538 
-0.0002831578889456942 
-0.00143467957446984 
0.001580215571361857 
0 
-0.0002831578889456942 
0.00143467957446984 
0.0001203390988207941 
8.27860123974795e-05 
-0.0001146301603548919 
0 
0.0001203390988207941 
-8.27860123974795e-05 
1.47475669891116e-05 
0.0005530888050315447 
-0.0007368718478995081 
0 
1.47475669891116e-05 
-0.0005530888050315447 
-4.47607831173228e-05 
-0.0001105444789988528 
-1.692325531591166e-05 
0 
-4.47607831173228e-05 
0.0001105444789988528 
-1.666354891917017e-05 
0.001135871961117704 
-0.001328069920238664 
0 
-1.666354891917017e-05 
-0.001135871961117704 
0.0003224626768886327 
0.0005086792077543319 
-0.0005468304822202799 
0 
0.0003224626768886327 
-0.0005086792077543319 
-5.262375570202667e-05 
-0.0002571850617383388 
0.0002366204260246315 
0 
-5.262375570202667e-05 
0.0002571850617383388 
-0.000295715950481534 
-0.002432874656747103 
0.002678156468885264 
0 
-0.000295715950481534 
0.002432874656747103 
0.000254059519542465 
5.897603784306379e-05 
-0.00010642622293643 
0 
0.000254059519542465 
-5.897603784306379e-05 
-7.481889584477338e-05 
-0.0003415240715898673 
0.0003516013248695062 
0 
-7.481889584477338e-05 
0.0003415240715898673 
5.214042376538389e-05 
0.0009999575889160597 
-0.001208525435051807 
0 
5.214042376538389e-05 
-0.0009999575889160597 
0.0001329524567484256 
0.0003861840587367975 
-0.0004737732570325471 
0 
0.0001329524567484256 
-0.0003861840587367975 
0.0002124774289111248 
-0.0003721876719098067 
0.0004092065400302916 
0 
0.0002124774289111248 
0.0003721876719098067 
0.0002967107923763065 
0.0006955564985960008 
-0.0007778659308883724 
0 
0.0002967107923763065 
-0.0006955564985960008 
0.0003938602458014123 
0.0003530058216335539 
-0.0004668071751538985 
0 
0.0003938602458014123 
-0.0003530058216335539 
-7.729537406129249e-05 
-0.003625860191045583 
0.003978483437751565 
0 
-7.729537406129249e-05 
0.003625860191045583 
0.0005311126309052814 
-0.001772865891654929 
0.001941720012998597 
0 
0.0005311126309052814 
0.001772865891654929 
0.0006094303032988665 
0.0003430611765499422 
-0.0003553220957994585 
0 
0.0006094303032988665 
-0.0003430611765499422 
0.0003501773407495062 
-9.530755037287984e-05 
9.750501341628454e-05 
0 
0.0003501773407495062 
9.530755037287984e-05 
-0.0003751313784908183 
0.0002923226822747561 
-0.0004876353806163571 
0 
-0.0003751313784908183 
-0.0002923226822747561 
9.297828741711027e-05 
0.001894515800532993 
-0.002119961201271336 
0 
9.297828741711027e-05 
-0.001894515800532993 
0.0004917793637885265 
0.0005801810640673412 
-0.0005802496382285644 
0 
0.0004917793637885265 
-0.0005801810640673412 
0.0004403601033949301 
0.0005621263057606928 
-0.0006721579326827165 
0 
0.0004403601033949301 
-0.0005621263057606928 
-9.414654475462218e-05 
-0.002617375152349908 
0.002889930583157369 
0 
-9.414654475462218e-05 
0.002617375152349908 
7.589225429598586e-05 
0.0004769944815197113 
-0.0006151944534958967 
0 
7.589225429598586e-05 
-0.0004769944815197113 
0.0001498115738360066 
0.0009173400935223702 
-0.001053311375007743 
0 
0.0001498115738360066 
-0.0009173400935223702 
5.151735561873392e-05 
0.0008827352755316289 
-0.001013095636800481 
0 
5.151735561873392e-05 
-0.0008827352755316289 
7.06943233635026e-05 
-0.0005745856624438298 
0.0006450664718539087 
0 
7.06943233635026e-05 
0.0005745856624438298 
0.0003231864752443864 
0.0005105996796353266 
-0.0005517874582783485 
0 
0.0003231864752443864 
-0.0005105996796353266 
0.0006273367381519868 
-0.0007471015609701845 
0.0008775846665625464 
0 
0.0006273367381519868 
0.0007471015609701845 
0.0002242850098639352 
0.0002968737359959244 
-0.0003691364568343444 
0 
0.0002242850098639352 
-0.0002968737359959244 
-0.0004305493517320851 
-0.004773300329105445 
0.005325139545643403 
0 
-0.0004305493517320851 
0.004773300329105445 
0.000287819563685534 
0.0006640983023366326 
-0.0007646029292148613 
0 
0.000287819563685534 
-0.0006640983023366326 
-0.0003735484801370769 
0.001539709113938243 
-0.001865724709058806 
0 
-0.0003735484801370769 
-0.001539709113938243 
-7.854944750660915e-06 
0.002091271631813457 
-0.00237990283898053 
0 
-7.854944750660915e-06 
-0.002091271631813457 
7.786936903739382e-05 
-0.0005239416880011038 
0.0005632839213408587 
0 
7.786936903739382e-05 
0.0005239416880011038 
0.0003400106146797732 
0.0009857465889148568 
-0.001016946899992715 
0 
0.0003400106146797732 
-0.0009857465889148568 
0.0003085991944928323 
-0.0003218333207434641 
0.0003737429197787374 
0 
0.0003085991944928323 
0.0003218333207434641 
0.000610184145931697 
4.76475604901206e-05 
-0.0001304723924340645 
0 
0.000610184145931697 
-4.76475604901206e-05 
-0.0006727426239911137 
-0.005193737735475403 
0.005793785319796275 
0 
-0.0006727426239911137 
0.005193737735475403 
0.0002151555148435251 
0.0001639291143487995 
-0.000217310382581443 
0 
0.0002151555148435251 
-0.0001639291143487995 
-3.176102682630134e-05 
0.001674554696437291 
-0.001929272711009082 
0 
-3.176102682630134e-05 
-0.001674554696437291 
0.0002332784472067029 
0.001228884346315664 
-0.001407362821021643 
0 
0.0002332784472067029 
-0.001228884346315664 
-2.60896083618915e-05 
-0.0004221315282137112 
0.0003577784369431096 
0 
-2.60896083618915e-05 
0.0004221315282137112 
-7.187537327541546e-05 
0.001332054448907355 
-0.00151354825817132 
0 
-7.187537327541546e-05 
-0.001332054448907355 
0.000493313865187175 
0.001295556099956634 
-0.00140429281136242 
0 
0.000493313865187175 
-0.001295556099956634 
0.0003485521789539436 
-0.0001727702642938553 
6.395909409208833e-05 
0 
0.0003485521789539436 
0.0001727702642938553 
-0.0009220568902096376 
-0.006425952718992958 
0.007132451355744945 
0 
-0.0009220568902096376 
0.006425952718992958 
0.0002349743150379801 
0.0006535111859239487 
-0.0007159562550557595 
0 
0.0002349743150379801 
-0.0006535111859239487 
-4.773481769394347e-06 
0.001719292414023351 
-0.001939929352795479 
0 
-4.773481769394347e-06 
-0.001719292414023351 
-0.0004068313199406581 
0.001576807193743143 
-0.001893899469529608 
0 
-0.0004068313199406581 
-0.001576807193743143 
-0.0001015563157849307 
0.0001266730761765811 
-0.0001772646264700492 
0 
-0.0001015563157849307 
-0.0001266730761765811 
-6.003620766048839e-05 
0.001368838158185348 
-0.001594459245847849 
0 
-6.003620766048839e-05 
-0.001368838158185348 
-6.956014441949072e-05 
0.00182269258277773 
-0.002085872054608279 
0 
-6.956014441949072e-05 
-0.00182269258277773 
7.251744706468137e-05 
0.0009867872490972396 
-0.001220961170827317 
0 
7.251744706468137e-05 
-0.0009867872490972396 
-0.0006461585554493113 
-0.004186242627788769 
0.004520027146779481 
0 
-0.0006461585554493113 
0.004186242627788769 
5.346638010724454e-05 
0.001561795627149188 
-0.001750617301930443 
0 
5.346638010724454e-05 
-0.001561795627149188 
-0.0003153317367161131 
0.002284326747075895 
-0.002582296079973863 
0 
-0.0003153317367161131 
-0.002284326747075895 
-7.637816291371275e-05 
0.001136229885777474 
-0.001383861188021092 
0 
-7.637816291371275e-05 
-0.001136229885777474 
9.534017919143264e-05 
-0.00111312025689633 
0.00112784386458804 
0 
9.534017919143264e-05 
0.00111312025689633 
-0.0003665388435436086 
-7.791432524133456e-06 
-0.0001440079891470054 
0 
-0.0003665388435436086 
7.791432524133456e-06 
3.388072818000614e-05 
0.0005740465590344066 
-0.0007178380531293669 
0 
3.388072818000614e-05 
-0.0005740465590344066 
0.0005333796187982045 
0.0003944318922407969 
-0.0004893538072730395 
0 
0.0005333796187982045 
-0.0003944318922407969 
-0.0001489997169016852 
-0.001159190477156954 
0.001212802312564883 
0 
-0.0001489997169016852 
0.001159190477156954 
3.463533164337717e-05 
0.0007515913198293467 
-0.0008599572312954929 
0 
3.463533164337717e-05 
-0.0007515913198293467 
-0.0002899523515772546 
0.002435312311700203 
-0.002783055591633791 
0 
-0.0002899523515772546 
-0.002435312311700203 
-0.0001167062817627329 
0.0005210261071665836 
-0.0006552485710238212 
0 
-0.0001167062817627329 
-0.0005210261071665836 
4.263131019955309e-05 
2.143634519531462e-05 
-6.229690062819516e-05 
0 
4.263131019955309e-05 
-2.143634519531462e-05 
-5.674708920239606e-06 
0.0003519617202538204 
-0.0004530999447954968 
0 
-5.674708920239606e-06 
-0.0003519617202538204 
-0.0001171525025845307 
-0.000376153675713495 
0.0003259506386762132 
0 
-0.0001171525025845307 
0.000376153675713495 
0.0001672563771615675 
-0.001842826891167928 
0.002002946126449564 
0 
0.0001672563771615675 
0.001842826891167928 
-0.0004062854167736958 
-0.0004504317513164985 
0.0004773855728450388 
0 
-0.0004062854167736958 
0.0004504317513164985 
-0.0002920846110495191 
0.001024616573640704 
-0.001247548613029135 
0 
-0.0002920846110495191 
-0.001024616573640704 
-0.0001037522599065021 
0.002238534552528066 
-0.002614801664327303 
0 
-0.0001037522599065021 
-0.002238534552528066 
-0.0004642511829023132 
0.0002967647515474333 
-0.0004965676987286585 
0 
-0.0004642511829023132 
-0.0002967647515474333 
-0.000240935176123444 
0.001122806569831517 
-0.001363025396588194 
0 
-0.000240935176123444 
-0.001122806569831517 
-0.0001647260935954365 
0.0004484516866433267 
-0.000507802278348373 
0 
-0.0001647260935954365 
-0.0004484516866433267 
-0.0001204848951834056 
-7.111871337935994e-05 
2.365621538115057e-06 
0 
-0.0001204848951834056 
7.111871337935994e-05 
-2.042827586675172e-06 
-0.002526552463679955 
0.002766402036998065 
0 
-2.042827586675172e-06 
0.002526552463679955 
0.0001054622550782702 
-0.002200487319552352 
0.002437449675611882 
0 
0.0001054622550782702 
0.002200487319552352 
-0.0002089900155131065 
0.001663446922160001 
-0.001906223055492026 
0 
-0.0002089900155131065 
-0.001663446922160001 
-0.0002421659770568954 
0.002300417041609183 
-0.002655737258539388 
0 
-0.0002421659770568954 
-0.002300417041609183 
4.462084555866369e-05 
-0.000654104407999859 
0.0007123490726863236 
0 
4.462084555866369e-05 
0.000654104407999859 
9.75116810839957e-05 
-0.0002690202765778429 
0.0002945469978255764 
0 
9.75116810839957e-05 
0.0002690202765778429 
-0.0002632257847147134 
0.001541499458837421 
-0.001765138779460444 
0 
-0.0002632257847147134 
-0.001541499458837421 
5.516976261820155e-05 
0.001227419515509092 
-0.001423627746173008 
0 
5.516976261820155e-05 
-0.001227419515509092 
5.885517720998572e-05 
-0.002610145123652252 
0.002896140656527962 
0 
5.885517720998572e-05 
0.002610145123652252 
-0.0004526130947359009 
-0.001373373984102469 
0.001414277302241355 
0 
-0.0004526130947359009 
0.001373373984102469 
-0.0003881997874740151 
0.001864289892985618 
-0.002229628083393976 
0 
-0.0003881997874740151 
-0.001864289892985618 
-8.534767218903089e-05 
0.0007194462760599198 
-0.0008629093578784021 
0 
-8.534767218903089e-05 
-0.0007194462760599198 
-5.79526256286243e-05 
-0.001049485378147168 
0.001156824367311945 
0 
-5.79526256286243e-05 
0.001049485378147168 
5.10934555734989e-05 
-0.001934475164003807 
0.002080791931351414 
0 
5.10934555734989e-05 
0.001934475164003807 
2.136843070064464e-05 
0.001194418631184475 
-0.001390076775693377 
0 
2.136843070064464e-05 
-0.001194418631184475 
0.0002085729920639991 
0.002735069588392352 
-0.00318822697804929 
0 
0.0002085729920639991 
-0.002735069588392352 
-0.0002846251995835456 
-0.001247200899479138 
0.001259700280057853 
0 
-0.0002846251995835456 
0.001247200899479138 
-0.0002881699228749938 
-0.00217457922859885 
0.002362615658252196 
0 
-0.0002881699228749938 
0.00217457922859885 
-0.00028443882768207 
0.001654830870235426 
-0.001914980440725769 
0 
-0.00028443882768207 
-0.001654830870235426 
-0.0001367131951773692 
0.001917101315505059 
-0.002175355172385963 
0 
-0.0001367131951773692 
-0.001917101315505059 
3.372498384453965e-05 
-0.0005540608888888755 
0.0005225413542497666 
0 
3.372498384453965e-05 
0.0005540608888888755 
1.408344796401107e-05 
-0.0004463645502571888 
0.0004693186931937706 
0 
1.408344796401107e-05 
0.0004463645502571888 
-0.0002552283990361769 
0.0007891812974545369 
-0.0009364993002191489 
0 
-0.0002552283990361769 
-0.0007891812974545369 
-7.676028714437469e-05 
0.001192590485559074 
-0.001450280144778676 
0 
-7.676028714437469e-05 
-0.001192590485559074 
5.156105388423303e-05 
-0.001300362316056089 
0.001314597936023892 
0 
5.156105388423303e-05 
0.001300362316056089 
-2.485839852547018e-05 
-0.001117947660888562 
0.001237675203817548 
0 
-2.485839852547018e-05 
0.001117947660888562 
-1.208355136723128e-05 
0.001502523790583655 
-0.001706156853462405 
0 
-1.208355136723128e-05 
-0.001502523790583655 
-4.563872946035961e-06 
-0.0002648064394601107 
0.0002473402946372209 
0 
-4.563872946035961e-06 
0.0002648064394601107 
-0.0002371634757112307 
-0.0003498403902740839 
0.0002905422306105917 
0 
-0.0002371634757112307 
0.0003498403902740839 
-6.593285841937296e-05 
-0.001135067567416994 
0.001157839673330734 
0 
-6.593285841937296e-05 
0.001135067567416994 
-0.0001103851523237848 
0.001703925246853098 
-0.001969794942646107 
0 
-0.0001103851523237848 
-0.001703925246853098 
0.0001214583291076995 
0.0008421959920199655 
-0.001076954406244732 
0 
0.0001214583291076995 
-0.0008421959920199655 
4.163130814236633e-05 
-0.0007332613273587103 
0.0007978002284493009 
0 
4.163130814236633e-05 
0.0007332613273587103 
-0.0001242391284545415 
-0.00105483858781293 
0.001102063162858512 
0 
-0.0001242391284545415 
0.00105483858781293 
-0.0006738119112520669 
-0.001946377673312625 
0.002099589705505859 
0 
-0.0006738119112520669 
0.001946377673312625 
-0.0002938365526009269 
0.0004312099732097368 
-0.0005523415441527431 
0 
-0.0002938365526009269 
-0.0004312099732097368 
-0.0001729419571742423 
0.0007930635595272601 
-0.0009218922853962166 
0 
-0.0001729419571742423 
-0.0007930635595272601 
-0.0007820183074661541 
0.001274985341391661 
-0.001565368124018731 
0 
-0.0007820183074661541 
-0.001274985341391661 
-0.0003295332328119462 
0.002650788709293224 
-0.003050641727576319 
0 
-0.0003295332328119462 
-0.002650788709293224 
-0.0004046620786726562 
0.0008644984997993816 
-0.00111725240383699 
0 
-0.0004046620786726562 
-0.0008644984997993816 
-0.0004057375591388458 
0.0004728934804621604 
-0.0006719391983457912 
0 
-0.0004057375591388458 
-0.0004728934804621604 
-0.0004500187904931254 
0.002050464593713554 
-0.002386288995978069 
0 
-0.0004500187904931254 
-0.002050464593713554 
-0.000365088382513736 
-0.00170275765234175 
0.001787432911609711 
0 
-0.000365088382513736 
0.00170275765234175 
-0.0002660985610020253 
-0.0009069602325532774 
0.0009365569301024246 
0 
-0.0002660985610020253 
0.0009069602325532774 
-0.001070534834108467 
0.004177007353209907 
-0.004918745687006178 
0 
-0.001070534834108467 
-0.004177007353209907 
-0.001014611733781254 
0.00514922399245193 
-0.005941863584141547 
0 
-0.001014611733781254 
-0.00514922399245193 
-0.0007765876993178347 
-0.0003099611962250179 
0.0002263505736755455 
0 
-0.0007765876993178347 
0.0003099611962250179 
-0.0006162924583399587 
-0.005246972052831371 
0.005742624310502427 
0 
-0.0006162924583399587 
0.005246972052831371 
-0.0005013497561143961 
0.001984908733085206 
-0.002336814480643461 
0 
-0.0005013497561143961 
-0.001984908733085206 
0.0001660243996617623 
0.0002078721223203189 
-0.0003077712275628079 
0 
0.0001660243996617623 
-0.0002078721223203189 
0.0003931631105910634 
-0.004360052499745055 
0.004890696106059639 
0 
0.0003931631105910634 
0.004360052499745055 
0.000417483476518851 
-0.002726208093593075 
0.003088471093788688 
0 
0.000417483476518851 
0.002726208093593075 
-0.0001274917369303398 
0.0005798878446366934 
-0.0007120855651351201 
0 
-0.0001274917369303398 
-0.0005798878446366934 
-3.343595744269525e-05 
0.002493341256331715 
-0.002807614828355428 
0 
-3.343595744269525e-05 
-0.002493341256331715 
0.0001341542913828599 
-0.0006345849689541954 
0.0006810059491532563 
0 
0.0001341542913828599 
0.0006345849689541954 
0.0004078773345580842 
0.0005162934485039032 
-0.0005335819553269246 
0 
0.0004078773345580842 
-0.0005162934485039032 
8.309536971891023e-05 
0.003106389612232375 
-0.003493923782400325 
0 
8.309536971891023e-05 
-0.003106389612232375 
0.000374586705335332 
-0.000194368473514955 
0.000149597510049097 
0 
0.000374586705335332 
0.000194368473514955 
0.0008982847043159443 
-0.00287831404871367 
0.003324382142577704 
0 
0.0008982847043159443 
0.00287831404871367 
0.0005239472497449187 
-0.001957907980360972 
0.002198011424959922 
0 
0.0005239472497449187 
0.001957907980360972 
-0.0008255397522667835 
0.0007421946900061191 
-0.0009342691016026639 
0 
-0.0008255397522667835 
-0.0007421946900061191 
-0.0004213764934134497 
0.002203650579265427 
-0.002613903890116348 
0 
-0.0004213764934134497 
-0.002203650579265427 
-0.0002164679319922407 
0.001223099060201901 
-0.00149740285208554 
0 
-0.0002164679319922407 
-0.001223099060201901 
-8.527995604609882e-05 
4.244266574123473e-05 
-6.990959778256585e-05 
0 
-8.527995604609882e-05 
-4.244266574123473e-05 
0.0001792449519150443 
0.0006516775087713695 
-0.0007931692044356119 
0 
0.0001792449519150443 
-0.0006516775087713695 
6.800033523417084e-05 
-0.001209239019140353 
0.001352429648851244 
0 
6.800033523417084e-05 
0.001209239019140353 
0.0005688625785246465 
-0.0006466894999123258 
0.0007324514282031038 
0 
0.0005688625785246465 
0.0006466894999123258 
0.0001458735687725057 
-0.0003021696483884891 
0.0002768327668539358 
0 
0.0001458735687725057 
0.0003021696483884891 
0.0001637535928507555 
0.0007954138669234272 
-0.0008852619498001283 
0 
0.0001637535928507555 
-0.0007954138669234272 
-0.0002050198351118608 
0.0004773392201012797 
-0.0005933851003440185 
0 
-0.0002050198351118608 
-0.0004773392201012797 
0.0003150105038048921 
0.0003675288233229057 
-0.0004274807410775071 
0 
0.0003150105038048921 
-0.0003675288233229057 
0.000369067432834492 
-0.0006702024284619175 
0.0007419365976826643 
0 
0.000369067432834492 
0.0006702024284619175 
0.0001945592414641679 
4.59120339333035e-05 
-9.231520300157758e-05 
0 
0.0001945592414641679 
-4.59120339333035e-05 
-0.0001438140167394338 
0.001535835962801213 
-0.001757637572071489 
0 
-0.0001438140167394338 
-0.001535835962801213 
-0.0001241533707300644 
-0.0004300534869578997 
0.0004401112417371116 
0 
-0.0001241533707300644 
0.0004300534869578997 
4.406166758258578e-05 
0.0001015198097178475 
-0.0001850801320131309 
0 
4.406166758258578e-05 
-0.0001015198097178475 
1.895767970870603e-05 
0.001291349318153253 
-0.00147875014152525 
0 
1.895767970870603e-05 
-0.001291349318153253 
-0.0001046080797706151 
-0.001621779701027279 
0.001770420300605343 
0 
-0.0001046080797706151 
0.001621779701027279 
-2.219871809892181e-05 
-0.002154374672483125 
0.002336771443684654 
0 
-2.219871809892181e-05 
0.002154374672483125 
0.0003295232285627477 
-0.0009089158329386787 
0.0009898989175181798 
0 
0.0003295232285627477 
0.0009089158329386787 
0.0001747371018772252 
0.002378894473281715 
-0.002714801818489711 
0 
0.0001747371018772252 
-0.002378894473281715 
-4.668123471827105e-05 
-0.001432952591411007 
0.001521585830524283 
0 
-4.668123471827105e-05 
0.001432952591411007 
0.0003546996853044501 
-0.0006671594368031088 
0.0007383785172449063 
0 
0.0003546996853044501 
0.0006671594368031088 
-0.0001117533125354497 
-0.001112188946088001 
0.001226874002621779 
0 
-0.0001117533125354497 
0.001112188946088001 
0.0001169630014169851 
0.001227843914751134 
-0.001406426787079621 
0 
0.0001169630014169851 
-0.001227843914751134 
-6.892541282106274e-06 
-0.001465786440994372 
0.001564946308487696 
0 
-6.892541282106274e-06 
0.001465786440994372 
4.116670178582219e-05 
0.0005211469085374147 
-0.0006466097645954738 
0 
4.116670178582219e-05 
-0.0005211469085374147 
-0.0002994265876399923 
0.001061908243951359 
-0.001314337724331712 
0 
-0.0002994265876399923 
-0.001061908243951359 
2.512731054981453e-05 
0.00195806562560685 
-0.002294134622185797 
0 
2.512731054981453e-05 
-0.00195806562560685 
-0.0004734263104003368 
-0.002047820282613801 
0.002261488578444775 
0 
-0.0004734263104003368 
0.002047820282613801 
1.11670043402602e-05 
0.001047895571799731 
-0.001150092867968259 
0 
1.11670043402602e-05 
-0.001047895571799731 
3.526513189753462e-05 
0.0008553737761766588 
-0.0009150271705320964 
0 
3.526513189753462e-05 
-0.0008553737761766588 
2.729645548524689e-06 
0.0008494052052400946 
-0.001007275682560035 
0 
2.729645548524689e-06 
-0.0008494052052400946 
9.011559128192376e-05 
-0.002091110612852841 
0.002314100995331761 
0 
9.011559128192376e-05 
0.002091110612852841 
-7.226608213429278e-05 
0.0006174844938881647 
-0.0007636641296769239 
0 
-7.226608213429278e-05 
-0.0006174844938881647 
9.525937907571918e-05 
0.0002011799723618776 
-0.0002615256454269465 
0 
9.525937907571918e-05 
-0.0002011799723618776 
0.0001633146972478454 
0.001446652264055541 
-0.001698786875741566 
0 
0.0001633146972478454 
-0.001446652264055541 
-0.0001213184703929483 
-0.001056840798178095 
0.001138721818696667 
0 
-0.0001213184703929483 
0.001056840798178095 
0.0002603543132044997 
0.0004978306970507257 
-0.0005801009560895497 
0 
0.0002603543132044997 
-0.0004978306970507257 
2.146255256519305e-06 
0.001287538686813918 
-0.001496772532866783 
0 
2.146255256519305e-06 
-0.001287538686813918 
0.0002403999048279418 
-0.0003835907687970389 
0.0003778957250387023 
0 
0.0002403999048279418 
0.0003835907687970389 
0.0002819153289290162 
-0.001808913888854553 
0.002012281369913293 
0 
0.0002819153289290162 
0.001808913888854553 
-0.0001438740707164163 
0.0003528123239395982 
-0.000487278257170659 
0 
-0.0001438740707164163 
-0.0003528123239395982 
0.0003669998029518893 
-0.0008439634700727371 
0.0009919904776572626 
0 
0.0003669998029518893 
0.0008439634700727371 
0.0003689356386436064 
0.001055718032061283 
-0.001199773736099901 
0 
0.0003689356386436064 
-0.001055718032061283 
0.0002054930127834924 
-0.001108908232386469 
0.001149592460260616 
0 
0.0002054930127834924 
0.001108908232386469 
0.0004245871218819398 
-0.0008402768068973919 
0.001000879993026093 
0 
0.0004245871218819398 
0.0008402768068973919 
0.0001821136267599783 
0.0002505974584953466 
-0.0002799025271261105 
0 
0.0001821136267599783 
-0.0002505974584953466 
0.0002790814884516563 
-0.00225252246497516 
0.00249158184558299 
0 
0.0002790814884516563 
0.00225252246497516 
0.0001949459286504681 
9.482338574070333e-05 
-0.0001622773298328478 
0 
0.0001949459286504681 
-9.482338574070333e-05 
-0.0003150814299772067 
0.002260633258066296 
-0.002588960187551661 
0 
-0.0003150814299772067 
-0.002260633258066296 
-1.426693954386319e-05 
0.0008970611492719061 
-0.0009861301453208608 
0 
-1.426693954386319e-05 
-0.0008970611492719061 
0.0002713817782841206 
-0.0001314280045680166 
9.499961499530763e-05 
0 
0.0002713817782841206 
0.0001314280045680166 
-0.0003094943849395844 
-0.002650043771288852 
0.00291900311107091 
0 
-0.0003094943849395844 
0.002650043771288852 
0.00026590385819371 
-0.001076824481113797 
0.001164968569393425 
0 
0.00026590385819371 
0.001076824481113797 
0.0001587626103628467 
-0.0001555309022545369 
0.0001666732162747412 
0 
0.0001587626103628467 
0.0001555309022545369 
0.0001237415193863557 
-0.000252280310324756 
0.0001958966361662903 
0 
0.0001237415193863557 
0.000252280310324756 
0.0003096686288602619 
0.001903537802996505 
-0.002163197766582854 
0 
0.0003096686288602619 
-0.001903537802996505 
-7.467798349184243e-05 
0.001984645748041679 
-0.002247462777041521 
0 
-7.467798349184243e-05 
-0.001984645748041679 
-0.0002086351678564041 
0.0002752620101071476 
-0.0003982151523285937 
0 
-0.0002086351678564041 
-0.0002752620101071476 
6.266784876214961e-05 
-0.0001725921823848007 
6.691524693868111e-05 
0 
6.266784876214961e-05 
0.0001725921823848007 
-0.0003407224595033255 
-0.0009315715287969458 
0.0009796111070277827 
0 
-0.0003407224595033255 
0.0009315715287969458 
3.915310950973709e-05 
-0.0004281122195807446 
0.0005103937085902347 
0 
3.915310950973709e-05 
0.0004281122195807446 
-0.0002984040955015206 
0.001477402298977432 
-0.001719250018855617 
0 
-0.0002984040955015206 
-0.001477402298977432 
-7.873333142861928e-05 
0.0009436660031469504 
-0.001117549308798405 
0 
-7.873333142861928e-05 
-0.0009436660031469504 
0.0002121097255974449 
0.0004927444670253218 
-0.0006006015044806216 
0 
0.0002121097255974449 
-0.0004927444670253218 
5.837099811217203e-05 
-4.243101542292505e-05 
-3.02506392872314e-05 
0 
5.837099811217203e-05 
4.243101542292505e-05 
4.453780863001239e-05 
-0.0002706198301548107 
0.0002269144739137018 
0 
4.453780863001239e-05 
0.0002706198301548107 
-0.0002748905156949084 
-0.0001335710659183326 
8.023536578367389e-05 
0 
-0.0002748905156949084 
0.0001335710659183326 
-0.0006833283591087678 
-0.002046957339996406 
0.002231681832071762 
0 
-0.0006833283591087678 
0.002046957339996406 
1.288650806515169e-05 
0.0008526619713562567 
-0.001004877643560229 
0 
1.288650806515169e-05 
-0.0008526619713562567 
-0.0002515129475850427 
0.0006130706241412959 
-0.0007630004962729632 
0 
-0.0002515129475850427 
-0.0006130706241412959 
3.182803177000135e-05 
0.0006472048616698289 
-0.0008315225355106893 
0 
3.182803177000135e-05 
-0.0006472048616698289 
-8.897313609515067e-05 
-0.001649099817488127 
0.001805412776482083 
0 
-8.897313609515067e-05 
0.001649099817488127 
-0.0001706284740977613 
-3.024896827914161e-05 
-4.129069435184237e-05 
0 
-0.0001706284740977613 
3.024896827914161e-05 
-6.710329949307536e-05 
0.001226575208078969 
-0.001399279257851496 
0 
-6.710329949307536e-05 
-0.001226575208078969 
-4.359141341553835e-05 
0.00204017428173131 
-0.002395718651328321 
0 
-4.359141341553835e-05 
-0.00204017428173131 
4.956159747763126e-05 
-0.002373257333718583 
0.002478766370477254 
0 
4.956159747763126e-05 
0.002373257333718583 
0.0002465492534874097 
0.001152835911592628 
-0.001336305862448918 
0 
0.0002465492534874097 
-0.001152835911592628 
0.0001893922749289714 
0.001269076262042341 
-0.001449391740571229 
0 
0.0001893922749289714 
-0.001269076262042341 
0.0002135874386152868 
-0.0001629790029955578 
0.0001952919611534224 
0 
0.0002135874386152868 
0.0001629790029955578 
8.806862644847141e-05 
-0.002572355121060224 
0.002822224487918272 
0 
8.806862644847141e-05 
0.002572355121060224 
0.0004637468261918855 
-0.0001425061902954107 
0.0002137834511946789 
0 
0.0004637468261918855 
0.0001425061902954107 
-4.915036684714313e-05 
0.00136376832976491 
-0.001523744980298868 
0 
-4.915036684714313e-05 
-0.00136376832976491 
2.963661891516367e-05 
0.0004716985489700268 
-0.0005754375798958087 
0 
2.963661891516367e-05 
-0.0004716985489700268 
-6.143359265527664e-05 
-0.002561416472246918 
0.002744794764767197 
0 
-6.143359265527664e-05 
0.002561416472246918 
8.100008435201749e-05 
8.89229378936308e-05 
-0.0001583904753510139 
0 
8.100008435201749e-05 
-8.89229378936308e-05 
-0.0001536718766684714 
0.0006527534647541289 
-0.000825409059884534 
0 
-0.0001536718766684714 
-0.0006527534647541289 
-5.843267127539189e-06 
0.0007084966314092113 
-0.0007878837534484105 
0 
-5.843267127539189e-06 
-0.0007084966314092113 
0.0001540057769795942 
-0.001270234910159704 
0.001405446624856508 
0 
0.0001540057769795942 
0.001270234910159704 
-0.0001339488182612636 
0.0008274778531352943 
-0.0009787942963301029 
0 
-0.0001339488182612636 
-0.0008274778531352943 
3.531640756521877e-05 
0.001767779540446223 
-0.002010700627274313 
0 
3.531640756521877e-05 
-0.001767779540446223 
0.0002877578941009938 
-0.0001670333562910107 
0.0001306871925383411 
0 
0.0002877578941009938 
0.0001670333562910107 
-0.0001064437748493215 
-0.003187712602395058 
0.003420053082906918 
0 
-0.0001064437748493215 
0.003187712602395058 
0.0002038038124393452 
-6.162788475616803e-05 
1.738554810233797e-05 
0 
0.0002038038124393452 
6.162788475616803e-05 
0.0001048476115508412 
0.001667912107695845 
-0.001901873623779796 
0 
0.0001048476115508412 
-0.001667912107695845 
-3.584522092128058e-05 
0.0007981191080833753 
-0.0009889137485515913 
0 
-3.584522092128058e-05 
-0.0007981191080833753 
0.0002294078939588968 
0.0003300691245732201 
-0.000358883595839864 
0 
0.0002294078939588968 
-0.0003300691245732201 
0.000321395727131917 
-0.0006005485546507935 
0.0006466545645191627 
0 
0.000321395727131917 
0.0006005485546507935 
-0.0001812925960835559 
0.001097155829154114 
-0.001347456190890226 
0 
-0.0001812925960835559 
-0.001097155829154114 
-4.58027335744126e-05 
-0.0005083485151123002 
0.0005072731792303861 
0 
-4.58027335744126e-05 
0.0005083485151123002 
-0.0007550291324414428 
-0.00504364523478957 
0.005650466541756869 
0 
-0.0007550291324414428 
0.00504364523478957 
0.000345124039255135 
-0.0005813460330251486 
0.0006511938983354837 
0 
0.000345124039255135 
0.0005813460330251486 
-0.0003325177974028263 
0.001586599067279533 
-0.001872363949632923 
0 
-0.0003325177974028263 
-0.001586599067279533 
-5.609245203680841e-05 
0.002027795158257057 
-0.002311043295577553 
0 
-5.609245203680841e-05 
-0.002027795158257057 
-0.0003694129056482611 
0.00115889631006656 
-0.001429219908529925 
0 
-0.0003694129056482611 
-0.00115889631006656 
1.491625389533522e-05 
0.001088086870283253 
-0.001234303470612382 
0 
1.491625389533522e-05 
-0.001088086870283253 
-0.0001197239927520273 
0.001010265606760746 
-0.001278352615343532 
0 
-0.0001197239927520273 
-0.001010265606760746 
0.0004343623092599502 
0.0001071492441857569 
-0.000164825277165269 
0 
0.0004343623092599502 
-0.0001071492441857569 
-0.0009322898179357912 
-0.00444328317445444 
0.004945220489773897 
0 
-0.0009322898179357912 
0.00444328317445444 
5.752545362027276e-05 
0.0002137201621848656 
-0.0002933870427133621 
0 
5.752545362027276e-05 
-0.0002137201621848656 
-0.0002356614387979358 
0.002828009410691286 
-0.003225655276826389 
0 
-0.0002356614387979358 
-0.002828009410691286 
-0.0003265609782963142 
0.0003958181126849478 
-0.0005791382427977986 
0 
-0.0003265609782963142 
-0.0003958181126849478 
-0.0003229075904197769 
-0.000317341016529421 
0.0002325975376921431 
0 
-0.0003229075904197769 
0.000317341016529421 
6.679220234937759e-05 
-0.0005166896858616719 
0.0005067672547799695 
0 
6.679220234937759e-05 
0.0005166896858616719 
0.0002757228549695032 
0.001903175689753973 
-0.00205816672091247 
0 
0.0002757228549695032 
-0.001903175689753973 
0.0005694636859330096 
0.001169362105438908 
-0.001422865211477736 
0 
0.0005694636859330096 
-0.001169362105438908 
-0.0001538213257724332 
-0.003393480395642862 
0.003736378887995322 
0 
-0.0001538213257724332 
0.003393480395642862 
0.0001079808111811308 
-0.0004071252501209346 
0.0003628689502669929 
0 
0.0001079808111811308 
0.0004071252501209346 
-0.000174013031394462 
0.002086407729256815 
-0.002390325747976402 
0 
-0.000174013031394462 
-0.002086407729256815 
-1.319269541987009e-05 
0.0006403136053936576 
-0.0007951579351222831 
0 
-1.319269541987009e-05 
-0.0006403136053936576 
-0.0001238831199261247 
0.0004863544335742508 
-0.0006198226969237477 
0 
-0.0001238831199261247 
-0.0004863544335742508 
0.000386227441560526 
0.0007063131662650794 
-0.0007634488127309909 
0 
0.000386227441560526 
-0.0007063131662650794 
-0.0001662821041878517 
-0.000148259151267479 
6.08175170811529e-05 
0 
-0.0001662821041878517 
0.000148259151267479 
0.0001692418612099203 
0.0001958572161175736 
-0.000261356055743591 
0 
0.0001692418612099203 
-0.0001958572161175736 
-4.79739370847534e-05 
-0.001052854411783563 
0.001080051368165155 
0 
-4.79739370847534e-05 
0.001052854411783563 
-9.864665952829187e-05 
0.0003497644655351418 
-0.0004733928423684033 
0 
-9.864665952829187e-05 
-0.0003497644655351418 
0.0001142725480880243 
0.001636871316403792 
-0.001860296330764761 
0 
0.0001142725480880243 
-0.001636871316403792 
6.917725933358055e-05 
0.0001233169887220494 
-0.0002371057425949169 
0 
6.917725933358055e-05 
-0.0001233169887220494 
-0.0002932804833612122 
0.001599564862936749 
-0.001993335319661806 
0 
-0.0002932804833612122 
-0.001599564862936749 
0.0001766473681056999 
-0.0005079647099066044 
0.0005651726536086784 
0 
0.0001766473681056999 
0.0005079647099066044 
0.0002353446072437456 
-0.0007774834553495973 
0.0008213098788968725 
0 
0.0002353446072437456 
0.0007774834553495973 
0.0003281953273723264 
-0.002036702646408213 
0.002178384135182368 
0 
0.0003281953273723264 
0.002036702646408213 
0.0001626411551266979 
0.0009172966122130067 
-0.001086378076683601 
0 
0.0001626411551266979 
-0.0009172966122130067 
-0.0001768341350900439 
0.001691924150238128 
-0.001939209190000728 
0 
-0.0001768341350900439 
-0.001691924150238128 
-4.493295246090937e-05 
0.0003154896804308042 
-0.0004325293888406329 
0 
-4.493295246090937e-05 
-0.0003154896804308042 
-0.0001715253447432615 
0.0001882208429637997 
-0.0002526931289218122 
0 
-0.0001715253447432615 
-0.0001882208429637997 
-0.0001849432734732417 
0.001721176919152705 
-0.002001237722028107 
0 
-0.0001849432734732417 
-0.001721176919152705 
7.986851412019423e-05 
0.0003575660195430213 
-0.0004078505761230918 
0 
7.986851412019423e-05 
-0.0003575660195430213 
0.0002656585226654143 
-0.001174616790090698 
0.001287776830715782 
0 
0.0002656585226654143 
0.001174616790090698 
-9.670517132706152e-05 
-0.003357949019305491 
0.003731815252864923 
0 
-9.670517132706152e-05 
0.003357949019305491 
0.000166671112436784 
-0.0004016768034793031 
0.0003988649483722701 
0 
0.000166671112436784 
0.0004016768034793031 
0.0001913297356954505 
0.001324752962317041 
-0.001476006108138367 
0 
0.0001913297356954505 
-0.001324752962317041 
-0.0001009327897330402 
0.001062778277901808 
-0.001167519021635618 
0 
-0.0001009327897330402 
-0.001062778277901808 
8.952014865352723e-05 
0.0002832835176897319 
-0.0003233579452410418 
0 
8.952014865352723e-05 
-0.0002832835176897319 
-6.138905799604601e-06 
0.0003988245093873026 
-0.0004752727070571721 
0 
-6.138905799604601e-06 
-0.0003988245093873026 
-0.0003401854376362207 
0.001929561743518166 
-0.002204186133506397 
0 
-0.0003401854376362207 
-0.001929561743518166 
0.0003983165491503117 
-1.240983303081563e-05 
6.618586482842153e-06 
0 
0.0003983165491503117 
1.240983303081563e-05 
-0.0005669249287958829 
-0.003300273315624734 
0.003750634224409548 
0 
-0.0005669249287958829 
0.003300273315624734 
9.878986524554849e-06 
-0.0003623075988136003 
0.0003155969464440373 
0 
9.878986524554849e-06 
0.0003623075988136003 
6.53322835405869e-05 
0.001360512242746249 
-0.001490945012007363 
0 
6.53322835405869e-05 
-0.001360512242746249 
-0.0002937856424843322 
0.001171168050241004 
-0.001403826102947362 
0 
-0.0002937856424843322 
-0.001171168050241004 
0.0004322084449247172 
-0.000409521885907086 
0.000455826464881613 
0 
0.0004322084449247172 
0.000409521885907086 
-0.0002081742392347137 
-0.002600420395765211 
0.002873745376928866 
0 
-0.0002081742392347137 
0.002600420395765211 
-0.0001847828113402327 
0.001903973956059717 
-0.002173162731842786 
0 
-0.0001847828113402327 
-0.001903973956059717 
0.0005902809980709963 
0.002402922474270086 
-0.002773108785364459 
0 
0.0005902809980709963 
-0.002402922474270086 
-0.0004202163659491814 
-0.003179184013064314 
0.003465247408949612 
0 
-0.0004202163659491814 
0.003179184013064314 
0.0002423473808442332 
0.0001078572644283839 
-0.0002086860113398201 
0 
0.0002423473808442332 
-0.0001078572644283839 
-9.048720580279851e-05 
0.001072259045339482 
-0.001242435773382945 
0 
-9.048720580279851e-05 
-0.001072259045339482 
-0.0002618672236755519 
0.002018668446806098 
-0.002310755586018355 
0 
-0.0002618672236755519 
-0.002018668446806098 
0.0001559538855607378 
-0.0003140836948153082 
0.000281776036163141 
0 
0.0001559538855607378 
0.0003140836948153082 
-0.0003214069321067444 
-0.00327936581198805 
0.003703921225247285 
0 
-0.0003214069321067444 
0.00327936581198805 
0.000117730498419193 
0.0009909783404712196 
-0.001113805699476302 
0 
0.000117730498419193 
-0.0009909783404712196 
0.0002028726634889428 
0.001083124959017455 
-0.001300205023835468 
0 
0.0002028726634889428 
-0.001083124959017455 
-0.0003377938781792047 
-0.001031950645660487 
0.001017327808362011 
0 
-0.0003377938781792047 
0.001031950645660487 
-0.0004186130333086327 
-0.0008559155208003516 
0.0008346162849436034 
0 
-0.0004186130333086327 
0.0008559155208003516 
0.0002290665584929637 
0.001121380961715827 
-0.001282195864242308 
0 
0.0002290665584929637 
-0.001121380961715827 
-0.0003328887196911701 
0.001539938040404156 
-0.001786608447497577 
0 
-0.0003328887196911701 
-0.001539938040404156 
-0.0001487736238980859 
-0.0004701140331716608 
0.0004414599207324613 
0 
-0.0001487736238980859 
0.0004701140331716608 
3.38641674593375e-05 
-0.001563856874226753 
0.001742953567265224 
0 
3.38641674593375e-05 
0.001563856874226753 
-0.0001856818794813889 
0.0009568422600184739 
-0.001105965749822861 
0 
-0.0001856818794813889 
-0.0009568422600184739 
0.0002331682707482758 
0.0009930179955165677 
-0.001201768905329307 
0 
0.0002331682707482758 
-0.0009930179955165677 
-0.0002323199850258369 
-0.00063431124025315 
0.0006165877636207035 
0 
-0.0002323199850258369 
0.00063431124025315 
-0.0001868368576989175 
-1.127270684243416e-05 
-9.982707972858634e-05 
0 
-0.0001868368576989175 
1.127270684243416e-05 
-0.0003284762909071839 
-0.002024246246838364 
0.002183123527705791 
0 
-0.0003284762909071839 
0.002024246246838364 
-0.0004687652624728975 
-0.0001175780083822613 
2.623454369088332e-05 
0 
-0.0004687652624728975 
0.0001175780083822613 
-8.900571366262007e-05 
-0.0006695625021611059 
0.000798098975759394 
0 
-8.900571366262007e-05 
0.0006695625021611059 
-0.0002074037091501904 
0.0005381964952909694 
-0.0006882178564180321 
0 
-0.0002074037091501904 
-0.0005381964952909694 
-0.0005040021821238871 
0.001361706706334291 
-0.001644845459043116 
0 
-0.0005040021821238871 
-0.001361706706334291 
1.137236504883375e-05 
0.002785677574865342 
-0.003214082011321781 
0 
1.137236504883375e-05 
-0.002785677574865342 
-0.0006231920076364106 
0.0006301969143244189 
-0.0009093599098323775 
0 
-0.0006231920076364106 
-0.0006301969143244189 
-0.0008174069022711145 
0.00308822401799245 
-0.003638335048781284 
0 
-0.0008174069022711145 
-0.00308822401799245 
-0.0006362889496370439 
-0.000428033413912824 
0.0003683995678863105 
0 
-0.0006362889496370439 
0.000428033413912824 
-0.0004633043186448849 
-0.0007822394114761877 
0.0006740844037995046 
0 
-0.0004633043186448849 
0.0007822394114761877 
-0.0009462049569769502 
0.002545593763040155 
-0.003037914404427609 
0 
-0.0009462049569769502 
-0.002545593763040155 
-0.0009297624724365422 
0.003481140309061999 
-0.004148105822738873 
0 
-0.0009297624724365422 
-0.003481140309061999 
-0.0002817085933279693 
-0.002145428409911879 
0.002301796897465727 
0 
-0.0002817085933279693 
0.002145428409911879 
-0.0008592025464677224 
-0.003375913646483604 
0.003723530706747883 
0 
-0.0008592025464677224 
0.003375913646483604 
-0.0007198138876652494 
0.003322444368693547 
-0.003814835965342757 
0 
-0.0007198138876652494 
-0.003322444368693547 
0.000335750947507539 
0.001169017948203118 
-0.001352432337408606 
0 
0.000335750947507539 
-0.001169017948203118 
0.0007350134735747326 
-0.003934874420596039 
0.004465633909551348 
0 
0.0007350134735747326 
0.003934874420596039 
0.0005414576495614319 
-0.003585416971691209 
0.00403434475034135 
0 
0.0005414576495614319 
0.003585416971691209 
-5.132323578086536e-05 
0.001211280979855875 
-0.00140762418444592 
0 
-5.132323578086536e-05 
-0.001211280979855875 
0.0002906593125639081 
0.002147298463012885 
-0.002485364820109017 
0 
0.0002906593125639081 
-0.002147298463012885 
2.424328293653132e-05 
1.375473768114892e-05 
-2.392554914112968e-05 
0 
2.424328293653132e-05 
-1.375473768114892e-05 
0.000517447522175489 
-0.0003629159296372727 
0.0003731058195245223 
0 
0.000517447522175489 
0.0003629159296372727 
0.000337959521448485 
0.0008889960709715407 
-0.001004812045390014 
0 
0.000337959521448485 
-0.0008889960709715407 
0.0002576981738663451 
0.0002584233943700414 
-0.0004030110630044143 
0 
0.0002576981738663451 
-0.0002584233943700414 
0.0004492004438684097 
-0.001732791540750142 
0.001926935040894701 
0 
0.0004492004438684097 
0.001732791540750142 
0.0005330274863380369 
-0.002372540404097405 
0.002665424032040337 
0 
0.0005330274863380369 
0.002372540404097405 
4.478603317751267e-05 
-0.001365470795909917 
0.001430150012842663 
0 
4.478603317751267e-05 
0.001365470795909917 
0.0001136256027032142 
0.002006618605811453 
-0.002312935371321212 
0 
0.0001136256027032142 
-0.002006618605811453 
6.97139195713638e-05 
0.002511752043516753 
-0.00287750259147611 
0 
6.97139195713638e-05 
-0.002511752043516753 
0.0001144015037884606 
1.307029724344267e-05 
-2.129116149166131e-05 
0 
0.0001144015037884606 
-1.307029724344267e-05 
0.0001517039749411667 
-0.001205407856050682 
0.001215722742359561 
0 
0.0001517039749411667 
0.001205407856050682 
0.0001615196703408541 
-0.000848528609717188 
0.0008443327082597573 
0 
0.0001615196703408541 
0.000848528609717188 
0.0002149212591302844 
0.001076942837332677 
-0.001249323080238019 
0 
0.0002149212591302844 
-0.001076942837332677 
7.759931358827841e-05 
-0.0003758472469496716 
0.0003830264489176352 
0 
7.759931358827841e-05 
0.0003758472469496716 
0.0007375682161650798 
0.0007050667871772875 
-0.0007098386381422012 
0 
0.0007375682161650798 
-0.0007050667871772875 
0.000283324549314822 
-0.0002543080709960568 
0.0002249249034811535 
0 
0.000283324549314822 
0.0002543080709960568 
0.000700895917790866 
-0.002078176998140331 
0.002415197350449923 
0 
0.000700895917790866 
0.002078176998140331 
0.0005492211605666213 
0.000137031972464708 
-0.0001545124068558583 
0 
0.0005492211605666213 
-0.000137031972464708 
-6.639259921851817e-05 
-0.0007997486783315716 
0.0008075187053742836 
0 
-6.639259921851817e-05 
0.0007997486783315716 
5.969091254967919e-05 
0.001911095798533715 
-0.002183755740480585 
0 
5.969091254967919e-05 
-0.001911095798533715 
0.000698557937746157 
-0.004456946473426961 
0.005017264167975468 
0 
0.000698557937746157 
0.004456946473426961 
-7.878671187611139e-06 
-0.000112214616040423 
6.570923201700804e-05 
0 
-7.878671187611139e-06 
0.000112214616040423 
0.0001957308940425642 
0.003012311261532306 
-0.003427030243705948 
0 
0.0001957308940425642 
-0.003012311261532306 
3.272458263592037e-05 
-0.001404829994413929 
0.001502036040610162 
0 
3.272458263592037e-05 
0.001404829994413929 
0.0003465686593378957 
-0.001426745368804824 
0.001567936027291397 
0 
0.0003465686593378957 
0.001426745368804824 
0.0004852868217404974 
-0.00110968338955012 
0.001208808344252545 
0 
0.0004852868217404974 
0.00110968338955012 
2.305336377573005e-05 
0.001953113568840356 
-0.002223972743606148 
0 
2.305336377573005e-05 
-0.001953113568840356 
-1.67801445133568e-05 
-0.0003230665650578298 
0.0002946535931115253 
0 
-1.67801445133568e-05 
0.0003230665650578298 
0.0002360559136406744 
-0.001324018446437994 
0.001460813122520927 
0 
0.0002360559136406744 
0.001324018446437994 
3.232403646738004e-05 
-0.002278117317996022 
0.00255195277143799 
0 
3.232403646738004e-05 
0.002278117317996022 
4.131184683423183e-05 
-2.722432130688517e-05 
5.447585770179743e-05 
0 
4.131184683423183e-05 
2.722432130688517e-05 
-0.0003083993621027458 
-7.339046867577171e-05 
7.455589557405734e-06 
0 
-0.0003083993621027458 
7.339046867577171e-05 
-0.000110167603599165 
0.001278691091928014 
-0.00149228137357331 
0 
-0.000110167603599165 
-0.001278691091928014 
-0.0005092471854048059 
0.001929691706390259 
-0.002307669116693254 
0 
-0.0005092471854048059 
-0.001929691706390259 
-0.000310474216934129 
0.002252847000438599 
-0.002610589440030251 
0 
-0.000310474216934129 
-0.002252847000438599 
0.0001905549950433224 
-0.002120351376769954 
0.002297968075809981 
0 
0.0001905549950433224 
0.002120351376769954 
0.000329073906955299 
0.0001790768192126074 
-0.000218749667855828 
0 
0.000329073906955299 
-0.0001790768192126074 
0.0001991032401999252 
0.001451483641405285 
