solver_type L2R_L2LOSS_SVC_DUAL
nr_class 2
label 1 -1
nr_feature 2000
bias 1
w
-0.0004851350256856294 
-0.0007951912251027218 
-0.0002681072778503073 
0.0004416732957795325 
0.0003789368693380502 
-0.0001617097097612325 
-0.0002542595263959924 
0.0007752060543039389 
-0.0003628732300665701 
-7.785526491289283e-05 
0.0004729271760187764 
5.361164303715792e-05 
0.0002454234215072213 
0.0001348220717276268 
-0.0005926602712699161 
-0.0002419820914157432 
-0.0005222622052600646 
-0.000207828069456539 
0.0003302409586188606 
0.0005124752443782178 
-0.0002222469739068994 
0.0002300694406077016 
-0.0006089021873590878 
0.0001198672470034577 
-0.0002603858357454404 
0.0004838556314731926 
5.936822274417316e-05 
0.0001146741977821866 
-0.0001015205725978133 
-0.0003197826453203424 
-0.0002758328243446282 
-6.896271936567318e-05 
-0.0009832424474483026 
-8.455518119013643e-05 
0.0001589817921506522 
-0.0002802802826299698 
0.0001439112456989681 
5.467401632652506e-05 
0.0001395898370175618 
0.0004823344747003566 
-0.0008446193798381291 
-0.00015582562375152 
0.0005784502445369955 
-0.0001778222540985435 
-0.0002877992017198201 
-0.000122851881608082 
0.0005772183254529922 
6.46632256517528e-05 
-0.0006481523854900209 
0.0001213078120749476 
0.0004555457360523704 
-0.000272991908178407 
-0.0005000839580837474 
0.0002472171224623281 
0.0003220151909731577 
-9.344415518497904e-05 
-1.796406711603261e-05 
0.0007214068017009829 
0.0003195090165003069 
-0.0002860439673734734 
-0.0006769223573374157 
-0.001048026903428979 
0.0005828741692318278 
3.658076244844291e-05 
0.0001264462738969928 
0.0003643729430685758 
0.001767654736227083 
0.0001460002784047323 
-0.00129044829881805 
-0.0004896853495141183 
-2.747102516828631e-05 
-0.0009654561034713681 
-0.0005066911529091466 
5.953813196257388e-05 
0.00102914620396946 
-0.000556663208921779 
0.0001188090791213302 
-0.0002237092867929563 
6.770343356309432e-05 
-0.0003567197453669371 
0.0002286220752536568 
0.0007609669374991749 
0.0003639610849811282 
-0.0002015466233383025 
-0.001165167336059304 
0.0001696915591469188 
5.614310477410851e-05 
-0.0005812573476317402 
0.0003151977159968932 
0.0002781639013062245 
0.0004029426939101177 
-0.0005963596990361545 
-0.0008147116568583962 
-0.0002024540517516917 
0.0003112616975002272 
-6.26271464415652e-05 
0.0003445649207221607 
-0.0003277290350163029 
0.0005878800764744256 
-0.0006127493245335903 
-0.0002232867809771994 
-7.352842593472429e-05 
0.0003221245245778166 
-0.0003858625006869465 
0.001034466232061049 
0.0005556752569638446 
0.0001254722407410224 
-0.0008692445064748829 
-0.0004324122491282478 
0.00100230213766381 
-0.0007601105949337108 
-0.001024735062267281 
0.0001430970471471937 
0.0004815628992002478 
-0.0001264814128163776 
-0.0004838254700714423 
-0.0001626538025918081 
-0.000296678700546711 
-5.456792041700728e-05 
0.0001309608147215645 
0.0003771528569188417 
0.0005762698709816123 
0.0001090709638981147 
-0.001538141848164857 
0.0001354818693090085 
0.0002576542532512881 
-0.00021650251742948 
-6.957199413885673e-05 
1.627779252553149e-05 
-0.0001455080525952275 
-0.0009567612961384115 
-0.001034937153401315 
-0.0002513668416281395 
0.0003218824876178113 
0.001574671597578705 
0.0001071549206666643 
0.000169211414853899 
0.0005148242444250775 
0.0001940856834498697 
-0.0008055028376249393 
-0.0002546988244554458 
-0.0002726746967580869 
6.271838434606034e-05 
2.345008638919613e-05 
-0.0009148381548289891 
0.0009433834865908975 
0.0001582768890542388 
-0.001094963759918804 
-0.0001508263159268001 
0.0004136767304113015 
0.0005239468535826779 
-0.0002472422743388868 
-0.0007474147728120067 
-0.00151148318729276 
0.0001507019603429617 
-0.0003689936014556717 
4.14965500091417e-05 
0.0009877859631814328 
0.001026417164407236 
5.290337824527374e-05 
-0.0002069496629224795 
-0.0003479678037717916 
-0.0001642613850462955 
-0.0004278512150649951 
-0.0004504567494747938 
0.0004974314593303309 
0.0009965319997395764 
-0.0002650631881638989 
-7.730654621772817e-05 
-0.0005108480631674312 
0.0002858053847809194 
-0.0006273638868490657 
-0.0006439777019826517 
9.566284453921788e-05 
0.0008946288450871092 
0.0002148125784352645 
0.000137362717214595 
0.0002176689328273377 
0.0006243969297532864 
-3.2956235206882e-05 
-0.001014250812778749 
-0.0003748846016349663 
0.0001578430788907731 
-8.376655443973461e-05 
0.0004867494078562981 
0.000953931158623098 
0.0005845980785926886 
-0.0004936007951117115 
-0.001041739155324712 
-0.0009786823616346435 
-7.010331174782604e-06 
0.0001271674527994261 
-0.0001374973179700735 
0.001177131404769406 
3.028740134223095e-05 
-0.001311833098842583 
-0.001511264338215804 
-0.001518788196916285 
0.002517496596994532 
0.0003858810034641862 
-0.0008584117723193286 
0.0004920657330246071 
0.0001450632185323538 
-8.776399985668402e-06 
0.0005267850310983648 
-0.0003702005997049207 
-0.0001981991761408869 
-9.691257987888341e-05 
-0.0004465913305974723 
0.0004472500275514087 
0.0001533244193402894 
0.0002087046380227764 
-0.0003477897133226479 
-0.0003730520255264535 
0.000323852469803934 
-0.0003342850306461897 
-0.0005423276428222859 
0.0002689912013939794 
0.0001237351029815823 
-0.0002229311261507 
-0.0002599425104280076 
-6.118320840747361e-05 
0.0001353379673589998 
0.0001897336706995514 
0.0005457476985005817 
0.0002227752826823244 
-0.0002323896021518508 
-0.0006299844038174936 
0.0002461909063822964 
-0.0002124118225149978 
-8.321105737439142e-05 
-0.000225303547080825 
-0.0002747632802530398 
0.0001599590998949804 
-0.0002293136771880532 
-0.0002421633657444841 
0.0009075478231057517 
-0.0004291224749833372 
-0.0002536288761217246 
-7.101794084437292e-06 
-0.0004163784409322188 
-0.0002256625358193615 
-0.0001910823044183392 
-0.0001361785299168554 
0.0005585266593842021 
0.00018691844801604 
0.0004065367264875182 
-0.0005512665681753408 
-0.000333447758318592 
0.000241577925932191 
0.000225697162540713 
-0.00011613429477237 
0.0002265928272055434 
-0.0005441592394963648 
0.0002211046607722905 
-0.0002898178292377706 
-0.0007656272374103226 
0.0004658878217273411 
0.0004536675288468157 
-0.0003790435453651646 
-0.0004976833695809128 
0.0003560719133551488 
0.0001809423471356624 
-0.0001828020040829432 
0.0008825546620225987 
0.0007572358158347415 
0.0007330040888910098 
-0.0006705609931803682 
-0.0004138715811921567 
-0.0005090910391547607 
-0.0004671313557245211 
-0.0006807261428708947 
0.0003863203897965726 
9.869176099291668e-05 
0.0008595883290898922 
-0.0002149692535211295 
8.548062639057892e-05 
-0.0003599010721955483 
-0.0004705868151792207 
-0.000753210510748416 
0.0007870994609143172 
-0.0001567856851864995 
0.0003072077253830958 
8.131940314356875e-05 
2.842834559752393e-05 
4.483561606811283e-05 
-0.0004932462880701819 
-0.0009674451232243031 
0.00113298513149999 
-0.0002129989569658967 
-0.0001629961650749358 
0.0001070028981900406 
-3.325192801816845e-05 
-0.0004202921558459242 
5.489370710239915e-06 
-0.0007845247398697101 
0.000646480716539125 
-0.0001815056920713936 
5.616227885741255e-05 
-0.0006995615137169165 
-4.186747556825293e-05 
-0.0001803129253673799 
-5.617062458442792e-05 
8.818869053747788e-05 
0.0008088543963126855 
-0.0001778344319733388 
-7.205394887986023e-05 
-0.000472032951462025 
0.0003682783184069394 
-1.584597677725127e-05 
8.556159322787636e-06 
-0.0008165081103242767 
0.001419056028660509 
-0.0004624885212444778 
-0.0004651822668946983 
-0.0001982443519034343 
1.957968159003896e-05 
-0.0004106365373306753 
-0.0008177732312335425 
0.0005471026529818991 
0.001779324933942068 
-1.864580603818791e-05 
-0.0005193128864858453 
-0.001108003314892862 
-0.000147035310781079 
-7.281316679135603e-05 
-0.0003344117092749293 
5.231071494783304e-05 
0.002378481509911872 
-0.00077012372165476 
-0.001174249296034764 
-0.0009106323554371903 
0.0004289128551635987 
0.0001082727073205057 
7.135020098362872e-05 
-0.0005005984456272774 
-0.000100307193343725 
0.0003306623940911991 
-0.0006616226322754147 
-0.0005983648847870636 
-0.0006866640090055979 
-0.0003179157586815865 
0.0007112343140072512 
0.0009543912246205619 
-0.0002367708860970932 
0.0002152288554485392 
-4.151568354964589e-05 
-0.000863895013525957 
-0.000393969695472958 
0.0002872874330690114 
0.0004180322256517896 
0.0002470162191019737 
-0.000169376247259498 
-0.0007421887707518092 
-0.0005434768374340878 
-0.0004340502514780126 
-0.0001796112402013005 
0.0001655792192901149 
0.0006510185998564735 
0.0008835189826037803 
0.0005898725131973457 
-0.0004188047160681598 
-0.0002108555762029526 
-3.647609284021121e-05 
-0.0001244576509702943 
-0.0001997307159680578 
-1.557717361070451e-05 
4.744286708867784e-05 
0.0001779792945028422 
-0.0001046647614906882 
-0.0001625386865915775 
-0.0005057546966405963 
0.0002764535160464317 
-0.0004660979202809953 
0.0001506946857940494 
0.0002653420232862035 
0.0004619440626549481 
0.0001746706463973353 
-0.0001370168535721485 
-0.0003953946639094495 
-0.000263348983958041 
-0.0005699957281238492 
-3.186770506619603e-05 
0.0003924226802030485 
0.0005557664994401356 
0.0018181932650049 
0.0008607824020735694 
-0.00118529880965289 
-0.000889501193876752 
-0.001718500105203747 
-0.0002362760711041397 
0.000426247467944539 
-0.0008644398139678363 
0.001059007657142763 
0.0004401647964631366 
-0.001364004607907523 
-0.00186281131507017 
-0.0008323284608171057 
0.002999281207251567 
5.65439915308404e-05 
-0.0006818944703040658 
0.000743114784770244 
0.001150438453806502 
-0.0003731258833992081 
7.457767691854623e-08 
0.0001464242545052419 
-0.0004264904652178465 
-0.0009271277972121263 
-0.0004722778679402875 
0.0002029841528634172 
0.0002497877027779087 
0.0005337629062376573 
-0.0005529685051720277 
-0.0001240415722861031 
0.0002090964462457759 
-0.000414929808100687 
-0.000369687857900124 
-0.0001415557324124864 
0.0001769617094447254 
0.0003636757764949748 
-0.0004247883194956323 
-0.0003362367884938161 
-0.0003367390734166192 
0.0006997837404046208 
4.653562531481763e-05 
0.0003432352404511061 
-0.0004159146963797257 
-0.0001863848839520722 
-0.0004069366798478817 
0.00065321731545849 
-1.713798677686525e-05 
-0.0003852004796422216 
-0.0004504717983898556 
0.00044650380411315 
0.0001856177542006746 
-0.0007637912134353136 
0.0003925469016990783 
-0.000257025309880845 
3.410002448145714e-05 
4.393329183728643e-05 
0.0001781508166177537 
0.0003354215139122259 
-2.273492708028795e-05 
-0.0008681312678796816 
0.0003714770188803687 
4.492064526573526e-06 
-0.0001341838745741243 
-0.0002330778897771941 
0.0007903841503435416 
0.0001189980175367658 
-5.633065911922725e-05 
-0.0002143945248258369 
-6.893602381307849e-05 
-0.0001116353960966373 
-0.0003883359472690871 
-0.0004383361621307992 
0.0008675368162045845 
-0.0006029608121369646 
0.0001170927245656026 
8.039962039557823e-05 
-0.0008643519943782558 
-0.0002835795656253418 
0.0003876210026508206 
-7.03443370503977e-05 
0.001708348867742939 
-1.294156200764637e-05 
-0.0004616564230588805 
8.846663090294572e-05 
-0.000934034279854471 
-0.0009173941218202195 
-6.898862175669657e-05 
0.0002296129644776563 
7.053358990524764e-05 
0.0007858526128764164 
1.975252407204739e-05 
-0.0003392908630548235 
-0.0001191761539261952 
-0.0004967261490931953 
-0.0004238930831812329 
0.0001343609770273806 
0.001141829542014199 
-0.0001743354414764797 
9.30695755037996e-05 
-0.0006847903457898489 
-0.0001573100093114882 
8.747690667324198e-05 
-0.0003538105141444014 
-0.0003207162588433613 
0.001554043023644707 
0.0005306676202105154 
-0.0004400559894915019 
-8.799704035843981e-05 
-4.722603990682271e-05 
-0.0009076532645107199 
-0.0005446308322418217 
-0.0004257340227202493 
0.001050980357945672 
-0.000363937285601966 
-0.0005832226058608806 
-0.0004173881610825417 
0.0004280823063872414 
-0.0003530781631056972 
9.177540633013257e-05 
-0.0002217984003863114 
0.002310309957344824 
-0.0003973235946334533 
-0.0006222204002689233 
-0.0009402841723481773 
0.0002390075497855447 
-0.000591068017936114 
1.07451365967127e-05 
-0.0003777530039147193 
0.002523728876849541 
-9.634904912154777e-05 
-0.0007049287304872696 
-0.0007100659434541113 
-5.381505630376107e-05 
-0.0006181785952625491 
-0.0007074445806763338 
-1.533466918359447e-06 
0.003327592163250256 
-0.000510720774373988 
-0.0006828752384548723 
-0.0005841133094433254 
-7.852062749672942e-05 
-0.0006943544312773841 
-0.00070446797222949 
-0.0004411263553488577 
0.002135675175076087 
-0.0007448430479052543 
-0.0009233475939409041 
-0.0006090825627461684 
0.0003370803491470326 
0.0001088788835845868 
-0.0002397414971470325 
-0.0004332062514426806 
0.0004520201250178182 
-0.0004348723554783202 
-0.0009700372856574588 
-0.0001739862224337996 
3.197577091350482e-05 
-0.0002231554350542708 
0.000119794608277836 
0.0008296742490403478 
0.0004077391913774234 
-0.0003311099865457368 
-0.0009461492547383008 
8.959922686699216e-05 
-0.0005700801152127064 
-8.273732555035886e-05 
0.0001120195591837082 
0.0009521321592446315 
0.0009948774664248856 
-0.0007626202611897418 
-0.0009757687810757016 
0.0002720605566071723 
-8.786926718577707e-05 
-0.0005842326827959789 
-0.0005129664227008527 
0.00128793284654156 
0.000868997913849958 
-0.000792772846695264 
-0.0003881008741470145 
0.0005238591318661797 
0.0006659491900175062 
-0.0005798879903110286 
-0.001409488056551593 
0.0007428569865968997 
0.001036809212164567 
-0.0008020365380068378 
-0.0009020389688422326 
0.0001995689014452336 
0.0001301481962174356 
-0.0002621194625870717 
-0.0005079349322584424 
0.0007390170464929963 
0.0004342513379686473 
-0.0008018914165596795 
0.0002374519328877657 
0.0002175248155980506 
0.0002932622155680383 
-0.0007057126354227915 
-0.0004865300195189837 
0.0004430572241046125 
0.0004893035949713759 
0.001289596226560456 
-6.93976994676164e-05 
-0.0002933751854680847 
-0.0002697198886588493 
-0.00108897358628094 
-0.0002346513597394077 
-0.0001913686472913185 
-0.0007550017972202418 
0.0007692131934890064 
0.0006323013308423733 
-0.001746617121533893 
-0.001949310580810274 
0.0005638289983758611 
0.002819780003728024 
-0.000702780572245209 
-0.0002299728970293752 
0.001791375259151087 
0.001129635153227088 
-0.0001985401905840216 
-0.001382460862197122 
0.00033926398882555 
-0.0002269199961801094 
-0.001590967000587462 
-0.0001746122058222675 
0.001000466226095389 
0.0007897460428083337 
-8.858449931502913e-05 
-0.001031843938820936 
-0.0004209245301887549 
5.815104333929151e-05 
-0.0005009846834703753 
0.0006007681723752529 
0.0001420067582525539 
3.027754669917992e-05 
-0.0004256770785632585 
-0.0002894523659795602 
-0.0002311189513078782 
0.0001456171625063817 
-0.0003410077893570107 
-0.0006859723409527038 
0.0003019733236512189 
-0.0001242863435377184 
-0.0006084882233779306 
0.0008836716127714459 
0.001086952452017471 
0.0001537088610143112 
-0.001376145886960458 
0.0005601662332841866 
0.0002753736511746658 
0.0005552925673051239 
-0.0006198584526655695 
0.000686506565552176 
-0.0003609295043189389 
-0.0004748385157474725 
-0.0009902990899585164 
0.001044601939744701 
-0.0004294390083271097 
-0.0002076223687391538 
-0.0003628597379777436 
0.0008210614419490345 
-0.0003329637575319031 
-0.0001478187825929273 
-0.0007535462718992504 
0.000231528879253001 
-0.0003740070651182564 
-0.000516854939489038 
0.0001820728267284675 
0.0007706926994129957 
-0.0002016709087196744 
0.0002267310638241909 
-0.0006870791012660359 
0.0002261144121960006 
0.0002115810488030937 
-0.0001097641082026469 
0.0009213954723167113 
-1.861091412518223e-05 
-0.0009595402400831554 
-0.0004351548732727563 
-0.0002046073430064125 
0.001329611085614043 
0.0001748320112684609 
-6.197787277690972e-05 
0.0001178104675274408 
-0.0009319738060432699 
-0.0008640920658620799 
-9.703846597769916e-05 
-3.575789912430494e-05 
0.0004784601727318363 
9.726125054730021e-05 
-0.0005046100697016728 
-0.00037891125024116 
-0.0002421350451655083 
-3.19052710360023e-05 
7.667125855875172e-05 
0.000136582408932105 
0.001118896701257895 
-0.0004703488629071642 
-9.024678491183669e-05 
-0.000384870277612769 
0.0009150458329858823 
0.0001790877199765411 
-0.0005770884234641421 
-0.001059062450698787 
0.000868250522519376 
-0.0003922950967581386 
-0.0006612165412881253 
-0.0001756485578151631 
0.001158965168449377 
-0.0001603149628340015 
-0.0006551121118586445 
-0.0003512149657890373 
0.0011729976814815 
-0.0002556557715897773 
-0.0003832287090379252 
-0.0004007858557766031 
0.0004885540543964219 
-0.0003428913810163552 
-0.000717309481603262 
6.973291777163918e-05 
0.001386906193565765 
-0.0001307880590393288 
-0.0008723874230668765 
-0.0005340627184384837 
-0.0003389382999267692 
0.0001991300804003218 
-0.0004704942625075389 
0.000392047943638552 
0.002765938538653663 
0.0001750961004530972 
-0.0006128363562632538 
-0.0009811833603231245 
-0.0004263410078114097 
-0.000590682448663689 
-0.0005155168035709559 
-0.0001830612078486712 
0.00242915502126603 
-6.065627298804037e-05 
-0.001419641295973053 
-0.0001624592137493473 
0.0001637978693079833 
0.0001915608769652284 
-0.0008215734318151315 
-0.000688770098388033 
0.001650613997679653 
0.000158551934169566 
-0.0009943617383755378 
-0.0002511745723074132 
-0.0002889199997138192 
-0.0006420087204274178 
7.814693968146887e-05 
-7.943438608086758e-05 
0.0004593870391477466 
-0.0002423990494872613 
-0.0009610845688909318 
-0.0001533833685091442 
-0.0008520755972660378 
0.0002227596114826571 
0.000340020379492156 
0.0008181890086564456 
-0.0007159613276805767 
-0.0007701894537154132 
-8.902718644747436e-05 
-2.408456239707542e-05 
-0.0008837242501029635 
5.286079703332242e-05 
0.0005690941914836441 
0.001492445246452154 
0.0001309581717916492 
-0.0007016997893551961 
-0.0002744492246090952 
-0.0002667218967368387 
-0.0003254205558108306 
-0.0005933235930258159 
1.003770690087783e-05 
0.001652032635470878 
5.196511772529632e-05 
-0.0007590171185825049 
-0.0005370171418132938 
1.786769144524251e-05 
0.001308312380875416 
-0.0008204767407145745 
-0.001298048655294205 
0.001667827920984248 
-0.0001353941346022502 
-0.0004803336221499551 
-0.0008903085509746246 
6.261431588587398e-05 
0.001669803206228798 
-0.0005630199150265722 
-0.0007513434366891999 
0.0007193955919535693 
0.000548611601532275 
-0.0007978428104252631 
-0.0006475495564206514 
0.0001272260423141172 
0.0006519179253111725 
-0.0002346568737659592 
-0.000467233238637936 
0.0004509403647178937 
3.650561181370993e-05 
0.001058371173937913 
0.0001864140587116769 
0.0003040268467176057 
-0.0001010846711078001 
-0.0003298964111569854 
-0.001290538987065269 
-0.0002323841672252198 
-0.001165216160273569 
0.0004843092988974654 
0.000533200445498236 
-0.0008430302681823876 
-0.001333658314015962 
0.00111243077886322 
0.002126409417591982 
-0.001283031743753372 
-0.0007958674964591976 
0.001624404077423576 
0.001333615502455928 
-0.0005495637827609731 
-0.001340327822149298 
3.541712418528015e-05 
2.476870123428215e-06 
-0.0006787410181931036 
-0.0004306826366123332 
0.0006793210044940023 
0.0009888627362968114 
0.0006505032831773855 
-0.00112904238698451 
-0.001098145098061768 
-0.0002979258968069698 
0.0002685224491230529 
-7.328408147937356e-06 
-0.0006151301594472924 
0.0001849048068793838 
-0.0007402699787314714 
-2.722851036892321e-05 
0.000807928568143825 
-0.000212543754411834 
0.0002410808907099134 
-0.001008755041394082 
0.001727985221458198 
6.708009926123937e-05 
-0.001752222061887304 
0.0005937584308160517 
0.000682650149269208 
0.0002953473765573808 
-0.0009744307194550548 
0.0002506278444749041 
0.0005430817670208157 
0.001327997695946717 
6.339387612324181e-05 
8.526672820377197e-06 
-0.0007500341744589607 
-0.0007373523857232433 
-0.001074827841578228 
0.0005636016683819735 
-0.0001360945713092753 
-0.0006246888668034754 
-0.0003037481319590604 
0.001224813395487039 
-0.0005914525257040461 
-0.0004574906770203598 
-4.352683644715428e-05 
0.0005834577631700238 
-0.001142704363564282 
-0.000776614935792896 
0.000184453564793498 
0.0007932707235767803 
-0.0002816763136122382 
5.43524493253008e-05 
0.0002168745667294823 
-5.329191157522402e-05 
6.423457966493841e-06 
-0.0006684857837009329 
0.0004504621226184073 
0.0002872733394087741 
-0.0004547935150888157 
0.0001404620883668032 
-7.663634336986713e-05 
0.0002962084341429407 
-0.0004219031208476361 
-0.000481030698418541 
0.0008384410290219802 
0.0001066097093538401 
-0.0004281290022221788 
-0.0002490404353394271 
-2.974246106530508e-05 
0.000880141123260843 
-7.703604234883577e-06 
-0.0005414760876747123 
0.0002080713149205273 
-0.0001954519361299545 
-6.547800754270728e-05 
-0.000408166306626375 
-0.0002385230413470842 
0.0007028698198613547 
-6.617512010200479e-05 
-0.0009185096626256836 
-0.0004908869239434033 
0.0005231558695701346 
0.0001939641519905565 
-0.0001568611048892084 
-0.0001561435752360915 
0.0009741910090366953 
-2.450558393903631e-05 
-0.0008521626490938666 
-0.0002301770340121768 
-7.512857669783792e-05 
0.0001025966145345037 
-0.0003815991017976253 
0.000118198776594983 
0.0003431882186001827 
4.104736715556515e-05 
0.0001237226614311147 
4.623681941456864e-05 
0.0006049576187595558 
-0.0004782334081985309 
-0.0009400863485202026 
-0.0001094194740166042 
0.001364619536657177 
-0.0005287093628591813 
-0.001094534248369827 
-0.0002696759568742877 
0.0006446083348301923 
-5.047525102705039e-07 
-0.0008719072135495111 
0.0003875171173013271 
0.002025067743616718 
-0.0004477089439965106 
-0.001081209653739644 
0.0002644108509543938 
0.0001563617802243079 
-0.0005925010102239045 
-0.001195646777872517 
0.000502639465662823 
0.001453393442486915 
-0.0003832704893581733 
-0.0009688654447787132 
0.0002335412873203884 
0.0008284079414587799 
-0.0007333522409419842 
-0.0002801415070995852 
-0.0005182995344620099 
0.001487528821275871 
-0.0007815005083911475 
-0.0004501181708315006 
0.0006000845189291267 
0.0006776538268671217 
-0.0002045832417147388 
-0.001080914758748759 
-0.0006167370327603543 
1.580123959718204e-05 
-0.001189534707459378 
-0.000439299398353258 
0.001221003742498837 
0.0005729251013678186 
-0.0004890445458992025 
-0.0001642082183671295 
0.0001037702412407858 
-0.0007486395580006736 
-0.001514599143939348 
0.0004388594265953439 
0.001570382652425373 
0.0007753737614976444 
-0.0003645662001654479 
-0.0005753268257694328 
4.992934198216261e-05 
-0.0003191469159389959 
-0.001660899025030595 
0.0004647354521312963 
0.0005746274174997386 
0.0006565458687941888 
-0.0002589310784088937 
-0.0009367690008047027 
0.00111125073638357 
4.034130811456864e-05 
-0.001236631661780152 
1.543281843402388e-05 
0.0004510344755454066 
-0.0003298607462201166 
-0.0002258060457619994 
0.0001101150846347391 
0.0008067882216591616 
0.0002878856209496501 
-0.0003767291119659306 
-0.0007161360113798362 
0.0004703026955496128 
-0.000216922878300808 
-0.0001584897268022645 
-0.0008546670280964193 
0.001196169894671642 
0.0007013731120595225 
6.551509603538197e-07 
-0.0005650113774915446 
0.000147802563044917 
0.0005760612967106043 
-0.0006056213086572295 
-0.001182045758202852 
0.0005581997762018639 
0.0005801086391932901 
0.001166470041828317 
-0.0002807950406987232 
-0.0004607778206006781 
0.000386461286387687 
-0.0006248103353378074 
-0.001416911415765849 
0.0002816680996194581 
-0.0007423135441985925 
0.0009436514945267215 
0.0006608400270386506 
-0.001088305009838404 
-0.0009482967226431801 
0.001408395741869193 
0.0007787996164410605 
-0.001381358148569868 
0.0002695408258850417 
0.001666090618466613 
0.00155797890439733 
0.0002295833218014096 
-0.001723183356379444 
-0.001193607805545626 
-8.82643279367476e-05 
-0.00108672472606294 
-0.001111827699915447 
0.0001785250246170876 
0.0007813145499908965 
0.0006373897716867012 
-0.0002758401272897424 
-0.0001026516354728953 
-0.0007556281642048552 
0.0002801317352138793 
-0.0001295621439858229 
0.0004095695355757136 
-0.0003397191957135615 
-0.0003400280230134267 
-0.0006936784972561877 
-0.0001161236602966645 
0.0005520846695741056 
0.0002888707697414719 
-0.0004191201278539882 
0.0007658878066115948 
0.0001155494266069491 
-0.0008517459457341597 
-0.0006959500642772482 
0.0005296606526190793 
0.000420547272335084 
-0.000233415565681675 
-0.0001589997293974974 
-7.774349190145062e-05 
0.0009814459054235389 
0.000236588801850455 
5.490433545155546e-05 
-0.00107538460512282 
-0.00055443299365361 
0.0002250352319754659 
0.0002784080031552511 
-0.0004546608890079536 
-0.0008858365466128417 
0.0001331254366124756 
0.0002078026149194301 
-0.0002149455819889929 
7.324896845180654e-05 
0.0004942714490964529 
0.0007101897235314857 
-0.0008030368009319007 
-0.0003631121657984914 
0.0005632125430808002 
0.0004068099449317741 
-0.000743836463694046 
-0.0003238551286158708 
0.0001850418021219194 
0.0006623979223539672 
-0.0004959558839402552 
-0.0002217426352428079 
0.0005828260138103884 
0.0001018639375132272 
-0.000873424369824623 
-0.0004575484566575498 
0.0003329969266132872 
0.0006931368290114503 
-0.0002245954380473423 
-6.463046417462779e-05 
0.000405818073403021 
2.391659491489207e-05 
-0.0004651366052151207 
-0.0008135230991158839 
7.642756384926653e-05 
0.0008611521749035467 
0.0001264000885743888 
-0.0007752249260809345 
-0.0006744929572224678 
-0.0001113706073721342 
0.0003542472552123031 
-4.912973432485773e-06 
-0.0001443845999565727 
0.0003739728227223294 
-0.0004995932352841288 
-0.0009549781422010578 
0.0001921319696662822 
0.0008283437789234886 
-0.000447121695490774 
-9.983438087967302e-05 
0.0002384923371691739 
0.0008196905192284705 
-0.0004370224934019227 
1.306242678722881e-05 
-0.0002882968673647133 
4.297289924516561e-05 
9.534549015402445e-05 
-0.0004334736571457437 
-0.0001808648628768646 
0.0003889755004010602 
-0.0001341285719735361 
-0.0003030579161719744 
-0.0005745727343261431 
0.000480539724175239 
1.798105493624777e-05 
-0.0002132018989749855 
-3.112170344025063e-05 
0.0002543610359918943 
0.0001378028442498618 
-0.0003154225321036885 
0.0009431526903601764 
0.0001672302157578567 
-0.0004702277921958375 
-0.001127916267839862 
4.243326040524597e-05 
0.0001605351517609522 
-0.0003463763320489437 
-0.0004835211558428317 
-6.014490986458421e-06 
0.001334398431397983 
0.0003523437937035821 
-0.00120498678884373 
-0.0001749651545148856 
0.0002009868904146323 
-0.0003249915465151905 
-0.0009847602971190974 
0.0001632430653450135 
0.002020016291912559 
-0.0004018323460723694 
-0.0007916794094890837 
-0.0002495691938508574 
-1.743702750641412e-05 
-0.001009484813362321 
-0.0009691891722149616 
0.0005452380971223825 
0.001376194305682288 
0.0001817903635340019 
-0.0006302872777856494 
0.0001545889791562948 
-6.441240285919528e-05 
-0.0008465791745863553 
-0.0005737117069518522 
0.001351952881984532 
0.001153723180843449 
-0.001052681401530296 
-0.0006824746402263136 
0.0003455967179516675 
-0.0009004430424846414 
-0.0008522767519952917 
0.0006581959923456597 
0.001899855447410911 
-0.000239879774516214 
-0.0007625138451529058 
-0.0001400583964668894 
-3.146617451497712e-05 
-0.0009097706911357967 
-0.0008358545670437121 
0.00145859361725711 
0.001352273029719111 
-0.0001673458333556426 
-0.0009848688378061143 
-0.0006139237620740478 
0.0003323104990647303 
-0.0004993730334460067 
-0.001408775420679015 
0.0008989494650185749 
0.0008310218342173236 
-0.0003010216388844588 
-0.0008801306601105112 
0.0004495059789152856 
0.0005412369295944188 
6.317016492592056e-05 
-0.0005898323293851079 
-0.0002455692602186236 
0.000132650209013037 
0.0001391644693373595 
-0.0004737670267566127 
-5.613490777267646e-05 
0.0006617321354823769 
0.0002941486605069757 
-0.0001052212187686999 
-6.850566743912535e-05 
6.444343454976959e-05 
-0.0001941545736393028 
-0.0006360341003534805 
0.000264375555033555 
1.236136473595473e-05 
0.0003666191903520162 
0.001225152947820683 
-9.017184545723906e-05 
-0.00102926126469077 
-0.0003312661428327921 
0.0003317165580471636 
-0.0005516094738656449 
-0.0002897665147478002 
-0.001049896557835689 
0.001868930720378224 
0.001074950080116736 
-0.001463087891608731 
-0.001469061672699142 
0.001548499221952705 
0.0006564892645750111 
-0.001535409710253526 
8.132520711473905e-05 
0.0003906237786667004 
0.001130469987906829 
-5.587832954918211e-05 
-0.001258089652925414 
-0.001014433910226551 
0.0002296324490046521 
0.0001277639246338114 
0.0001235398262814085 
-0.0008288004298921263 
-0.0002628223303679326 
0.0007037738442286794 
1.436029535959344e-05 
-0.0004858713735716692 
-1.509550168827485e-05 
0.0003823291242759405 
-0.0001985467008659539 
0.0001426790441323146 
7.312407581897229e-05 
3.847888334946311e-05 
-0.001190646343409834 
0.0002130034895647928 
0.0003476601995326737 
0.0002056608065032302 
-0.0005876638355553181 
0.0009374968757918783 
0.0004874545225395253 
-0.001085348631949201 
-0.001148014780632794 
0.0002422736027327594 
0.0004745201813712728 
0.0003106955203275307 
-0.001190236452844205 
0.0005275400712822289 
0.0009522546609160683 
1.948406280809835e-05 
-0.0004293681684913607 
-8.0092782987909e-05 
-0.0003176825271143345 
0.0001495145910570428 
2.238145491674032e-05 
0.0001852442822197136 
0.000228730059317729 
0.001204951187769339 
-0.001092356525547647 
-9.971591464132245e-05 
-0.0006211357666721508 
-0.0001966853227367565 
0.0004908760689260104 
-0.0006696468253095166 
-9.545703136557368e-05 
0.0009868287799221823 
-0.0009399078871019742 
-0.0006050080708253189 
-8.593154199166947e-05 
0.0005496599623714796 
-0.0004900263344835489 
-3.640048515857098e-05 
0.0004409375737920776 
0.001125756129969303 
-0.0009214374562085046 
-0.0004531492478614425 
-0.0005680164990498111 
0.0005337497736261452 
-0.0002689569023090955 
2.556801090017441e-05 
0.0001585246334617674 
0.0009358055300245172 
-0.0006175530600129038 
-0.0005910904329914934 
-0.0003754099976211936 
0.0003645256731738583 
-0.0002143847034757562 
-7.838230986633413e-05 
2.577596347216719e-05 
0.000181239170986446 
-0.0003423873825865179 
-5.549649507591155e-05 
0.0004300410673243003 
-0.0003149918561527343 
0.0002428563480905303 
-0.000455615632111829 
-0.0001341865507756027 
-3.772133630709421e-05 
0.0002406032448113927 
-0.000129984774326638 
-0.0002740880350716544 
0.0001795501903165428 
0.0004789575474782286 
-0.0005131943859514015 
-0.0005514077075749046 
0.000573998553800574 
-0.0001444166452945719 
-0.0002054460671506725 
-0.0003935585043627726 
0.000386480663681175 
0.0006995242802731523 
-0.0002970642333697855 
-0.0003494321578459153 
4.996968614510078e-05 
0.0003875561097570724 
-7.992416416681471e-05 
-0.0007121694305351404 
-6.704663563203173e-05 
3.88904881756767e-05 
-5.598927155654349e-05 
0.0003729527843796086 
-0.0003061255940299935 
0.0008831578221092755 
0.0004155289976393983 
-0.001103373440676165 
-0.0006136283314156222 
-3.736940851221598e-05 
-0.0001172913062225561 
-0.0002099668646644988 
0.000238942546606075 
0.0008700578893904222 
6.43662187276103e-05 
-0.001180537367582117 
3.211746882957043e-06 
-4.434375027070225e-05 
-0.0005336140872669399 
-0.0003012010326966549 
0.0002472497413300428 
0.001029000151435675 
-0.0003942388430025326 
1.573020039644166e-05 
-0.000387168925299705 
0.0002486088508441057 
-0.000783845744380638 
-0.0004784809300029933 
0.0005151515928443851 
0.001041473802574037 
-0.000682981405307425 
-0.0005222615907803231 
0.0002937488788344503 
0.0003371059609079144 
-0.001010706871529125 
-0.0005531858178278943 
0.0008070785804118633 
0.0008336945420263251 
-0.001029588100304615 
-0.0006178870785349692 
0.0008649022394761295 
-0.0007127464240813903 
-0.0007723492119010963 
7.815976910640135e-05 
0.001804081761999408 
-0.0001181539742056219 
-0.0008652276587168602 
-0.0003864746228013357 
0.0006041238152261272 
-0.0006314129990311197 
-0.0004855371626268157 
0.001443320465973868 
0.001487972465276297 
-0.0001153017709259259 
-0.001270872264140986 
-0.0008484733676466309 
5.171808774692424e-05 
-0.000580066316702679 
-0.00137958484377398 
0.000941907930936808 
0.001618852004207447 
0.000201950695591943 
-0.001849579271497745 
-0.0003749519903986831 
0.001052885246262525 
9.009777709678711e-05 
-0.0003778435626595592 
0.0001206448688570736 
0.0001487194626005659 
0.0001156766668609349 
-0.001303905147283551 
-0.0003719576575217961 
0.001209981046675197 
0.0009989280759383073 
-0.0001103957721315718 
-0.0002710536489818942 
-0.0002439556009337655 
0.0004062688354807981 
-0.0008131637636032656 
-0.0003987623443019677 
6.354767315901477e-05 
-0.0003226847798579705 
0.0004283848662012709 
0.0001246465380314797 
-0.0005618885438093404 
0.0001076691640523291 
0.0008178671086702235 
-0.0008018412059032857 
-0.0001607396927590536 
-0.001030140709533493 
0.00126973859896399 
0.001649789903461216 
-0.001469182384595835 
-0.001807898201325308 
0.00184340030445057 
0.000831838347152775 
-0.001656132403948285 
-8.554945586117035e-05 
2.322605232498017e-05 
0.001142606509683929 
-0.0002406341696692864 
-0.0004666120391120761 
-0.0002026348666061578 
-0.0002111569757850742 
-0.0003278316003494856 
-0.0003881926272007793 
-0.0004901098554989037 
-0.0002653889413102707 
0.000984280380778011 
0.0003171455856980071 
-0.0005608773642819477 
-0.0003076689628829672 
0.0003422252393244734 
-0.0004862839421658287 
5.749157058477789e-05 
0.0005394798508657289 
0.0004327613080099084 
-0.001166682233178914 
-0.0001447093582706397 
0.0002129865620738618 
0.0001863696967067982 
-0.001177977223806482 
8.736122960583561e-05 
0.0003732272181610162 
0.0001938228980023822 
-0.0003865454417494711 
-7.522461889177924e-05 
0.0004638732267925888 
0.0001528761665115625 
-0.001626378345523176 
-7.922732050222839e-05 
0.000798090290990084 
-0.0001208199767014062 
0.0001390033752805314 
0.000164207144554898 
-0.000304489336628381 
0.0006610276231553413 
-0.0005074348248697306 
0.0005067208367712393 
0.0004105860041195976 
0.0007247114915400015 
-0.0004708539400657825 
-0.0003215684105296269 
-0.0008068799396154187 
9.613223727536271e-05 
-0.0003375449870466045 
-0.0007085404455550038 
0.000154336350137111 
0.0009547927182664825 
-0.0005245804939503344 
-0.0003528267011240842 
4.256527131792482e-06 
0.0004415204867662744 
-0.0006905863284261434 
-0.0003384553452069615 
-0.000193572685776062 
0.0009724463312176057 
-0.0001504009332314882 
-0.0005589710380133688 
-0.0002001612919638588 
0.0007911147460259141 
-0.0001037187999076205 
-4.192301675175961e-05 
0.0003429724074722592 
0.0004344584992039593 
-0.0001142156001606783 
-0.0003765340680638509 
-0.0001698842133987769 
-0.0003397417537678797 
-0.0002437330884407407 
-0.0003450864965672649 
-0.0002026558231271362 
0.0003505247426648099 
-8.506538154165668e-05 
-0.0003289311121871726 
0.0006151204177106146 
-0.00012875980388581 
-0.0006037761838655331 
-5.168135055929309e-05 
-0.000312085280602447 
-0.0001158984481412451 
0.0002384334964005981 
-0.0006623138632529819 
0.0006960958495513358 
0.0004426392350951996 
0.0001013311678657749 
-0.0002928987524161387 
3.248413350996278e-05 
0.0001785133050539465 
-0.0001449036949778107 
-0.0004022154863457234 
-0.0004305540268295804 
0.0005896568087652245 
-2.375879927225304e-05 
-0.0001386360008932525 
-0.001241205310532143 
-0.0003176581827681289 
0.0007442489367768424 
0.0001091943318517473 
6.205733125399367e-05 
0.0004371711482088477 
-1.195542970248815e-05 
-0.0007751498013050732 
8.393404199609048e-05 
6.220862831981481e-05 
0.0009876816742365152 
0.0003106360391544381 
-0.0008215618300658378 
-0.0002043798680078359 
-0.0002736370431161186 
-0.0002695413848422772 
-0.000382565987737942 
0.0009245488822193044 
0.0004654878238089608 
-7.902144496163003e-05 
-0.0007821689371346039 
2.831154638994649e-05 
-3.995031369763714e-05 
-0.00039731305690932 
-0.0004385957585732194 
0.0001885866269485079 
0.0006708718381301508 
0.0004426581449705887 
-0.0005565112201999535 
-0.0002383328060434607 
0.0002955864883188867 
-0.0009916571881779788 
-0.000512271824095095 
0.0005456962882872475 
0.0007868559328658832 
-0.0004404404957306756 
-5.037980940957021e-05 
-1.975937433072034e-06 
-3.879943912033096e-05 
-4.668773289103721e-05 
-0.0006029336715139418 
0.0007314180471431034 
0.000113942638506419 
-0.0005499582898929821 
-0.000353166382477696 
0.0003775982848721029 
-0.0005080319959967359 
-5.667281279578392e-05 
0.0001297698133624949 
0.0006825245309620763 
0.0001609290906896274 
-0.0009309806541183095 
8.285555136905209e-05 
7.101993115321473e-05 
-0.0003937849685406768 
0.000369778077873341 
0.001175450526724481 
8.548749693633377e-05 
-0.001205741194470085 
-0.0004590722241764387 
-6.961643945523856e-05 
0.0001289121797339413 
-0.0006576581895400611 
-0.0007043554502973251 
0.001182733405079882 
0.001027357545637531 
-0.0007736464643138944 
-0.0007277735463417923 
-0.0002114942598258477 
0.0004962504142271353 
-0.0005641573972575799 
-5.937097650743485e-05 
-0.0001165372797197347 
0.000749926845547979 
1.080422071304874e-05 
-0.001254537463060689 
4.645275031965025e-06 
0.000860640229878048 
-0.0001606977924313446 
-0.0001513238918824586 
-0.00037473676372754 
0.0005047065570783598 
0.0007974806091765056 
-0.0008814725448747634 
-0.0004913189107374909 
0.0003887761920243623 
-5.255261000740755e-05 
0.0009330190597868931 
0.0002660283141616232 
-0.0009465353224934749 
0.0004042554008381135 
0.0001375799716097625 
-0.0007996476886525969 
-0.0003107336706172723 
-0.001423894872876885 
0.0007028582665061496 
0.001524308790859478 
-0.001414517710570697 
-0.0003226645987149587 
0.002389769164956473 
0.0005612122588882557 
-0.002385657844422194 
0.000359205412052164 
-0.0001693432161019752 
-0.0002883708278484739 
-0.0004063445746281128 
-0.0002501589920345066 
-0.0002748658707889113 
-0.0001397440351643242 
0.0008010355591397984 
0.0005457314394087865 
-0.001056706541716745 
-0.0004425641068988451 
-0.0002208348862358947 
0.0003834098130160958 
-0.0001399244961503818 
0.0001926589593543933 
0.0003696432738482674 
3.327314322103562e-05 
-0.0005028135781541211 
0.0002909799627412794 
0.0008030728883559859 
-0.0004085827029539052 
-0.0004533226645187914 
-0.0005680167933177469 
0.0004368231992519088 
-3.241206489621794e-05 
-0.0007523697512060036 
0.0001501366706427079 
0.0003282212953095071 
-0.0003733288756155131 
-0.0002116526088078021 
-7.962312803760848e-05 
0.0006024419172365961 
-0.0002996126958699867 
-0.000247254627724117 
0.0002553542232370557 
-0.0006571168935251074 
-4.578129754581987e-06 
-0.0003304529721357249 
-0.0004052546493555061 
0.001320329199753628 
-0.0002089716317183061 
0.0008197727123125763 
0.0005677235505503889 
-0.0001312300818438959 
-0.0007874034543688508 
-0.0002294615621534972 
-0.0002960622203190562 
-0.0001029538578337358 
-0.0003021048954371007 
-0.0002176113579099333 
0.0001637281808161133 
0.0005193030881009458 
-0.0009673980980891556 
-0.0002427968607094172 
0.0002791113527639818 
0.0003991820450902205 
-0.00066999059694665 
0.0003996670434672161 
0.0003660010125526704 
0.0003030571902891514 
-0.0004469344793039045 
-0.0003672844864263352 
-0.0004262891721269975 
0.0004731869431205115 
-0.0002294292279467885 
0.0005136976124110156 
0.0004109824893076652 
-0.0005401112562022315 
-4.792749307129394e-05 
0.000420364627591491 
-0.0004007313154350121 
-0.0004954319820292023 
-0.0006216333247168643 
0.0002613187130498666 
6.403880845249618e-05 
-2.883239562968952e-05 
-0.0006565328437714553 
0.0002222241249047868 
0.0006447995639435151 
-0.0002539691916070119 
-0.0007445181140111656 
8.601899459043512e-05 
-0.0002052354963734543 
0.000109563283610894 
0.0001991261955305584 
0.0008070570854237847 
8.405598219723092e-05 
-0.0007046544763426598 
-0.0007286431141215591 
-0.0005062939305987224 
0.0005026691828847429 
4.181342722799348e-05 
0.0003012650425016151 
9.507294157312093e-05 
1.752430728738034e-05 
-9.199440212894809e-05 
-0.0006058666673492928 
0.0002487259116614058 
-0.0001964522655055715 
-0.00021625611452113 
0.0001881864851841886 
0.0007773949387271792 
-0.0001385587609285181 
-0.0004257600726426092 
-0.0008363608628216506 
-0.000198804666489877 
7.566869342233369e-05 
-0.000128438274626334 
-0.0004441030717371445 
0.000733599406733318 
0.0005675387282277025 
-0.0001376864980827187 
-0.0005439439077889451 
0.0002977594494101945 
0.0004591878480990207 
-0.0006607464465957693 
0.0002308498104228188 
0.0004476149837916513 
-0.0004780945919847036 
-0.0001212136907285975 
-0.001049420971307947 
0.0003376338097861082 
9.25609095086331e-05 
-0.001166515605163066 
0.0001323959571597776 
0.0008104575835146202 
0.0002989665012275774 
0.0001753352698999197 
-0.0005438285201735519 
-0.001567703816176967 
0.0007935653838144192 
0.0004656954319929307 
0.0004672125469654962 
0.0002923091186326481 
-3.105752968103717e-05 
-0.0002447791607483103 
-0.0001909122972238576 
9.578848029199498e-05 
-0.0008428010660555121 
0.0005832984281608306 
0.0004636658001348397 
0.0002732892077779135 
-0.0004262505919913571 
-0.0003246645064692018 
-0.0005112821988073246 
0.0008092917535363594 
0.0002239286576008989 
0.000654426439219103 
2.02897321519838e-05 
-0.001104818979111806 
-0.0001988841400924227 
-0.0002615378098711684 
-0.0006691704776491666 
-0.0003279144399119557 
0.001086016195911192 
0.0003464735391247606 
-0.001063481690648351 
0.0004791675989700306 
0.0002142181055086174 
-0.000433895376679498 
-0.0009809841516206989 
-0.0001381429282638364 
0.0009397329264033349 
0.0007820295232682359 
-0.0006341175947641865 
-0.0004092993919462869 
6.841130741638672e-05 
3.78376413269098e-06 
-0.000308154317052893 
-0.000128668061844184 
-0.0003008365020761694 
0.001014421426776227 
6.813638514997123e-05 
-0.001013672875025519 
-0.0002559471748087461 
0.0005561345735069271 
-0.0002773859490864663 
-0.000509492694690037 
-0.0008383602497815058 
0.0001880550529589462 
0.0009701049008291677 
-0.0006959545401642034 
-0.000396942546880141 
0.00119138948143986 
0.0005060905650447511 
2.176522569967034e-05 
-0.0002138841843699185 
-0.0003094418548685392 
0.0004960076242177436 
5.902167366649558e-05 
-0.000679266430415229 
-0.0002488791643493283 
-0.0008182995508272344 
-0.0001161264703419955 
0.0009402424256276145 
-0.000977220863885536 
0.0005043279656189698 
0.001905817343770589 
-0.0001825884076447966 
-0.001624738987691979 
-0.0002229397721177737 
0.0002726189642685366 
0.0004776872129862603 
0.0006471062829739335 
-0.001171112586650049 
-0.0001531045004794667 
-0.0002316162060522479 
1.378701011022206e-05 
4.126820865150884e-05 
-6.19857397155852e-05 
-0.0003710605601206176 
-1.532052474563928e-05 
-0.0004918495804374133 
0.0002379161620155336 
0.0003415806329973364 
-4.812219360568578e-05 
0.0001245760111694939 
6.424902600576158e-05 
0.0008669790194107943 
-1.319059452735308e-05 
-0.0009741848515866856 
-0.000239065439867166 
-5.922185114912069e-05 
-0.000137714914416293 
0.0002010629530219178 
-5.329199529622609e-05 
0.0004802920064375819 
-9.417020619024175e-05 
-0.00177518886833368 
0.0001430834397082349 
0.0001527554131751949 
0.0005778836625166427 
4.412247054506259e-05 
-0.0005071043605912456 
-8.922383911062305e-05 
0.0004989238088787452 
-0.0002485122523957092 
-0.00031026022397124 
-0.0001666687588859193 
0.0004111495605703522 
-0.0001558195183716559 
0.0004420782835357449 
0.0004684979180112198 
0.0001286723616168682 
-0.0005744411926747492 
-0.0007192252508743647 
-0.000472174416603333 
0.0005148382203996743 
-0.0005488750372963442 
0.0005246142190382485 
0.0003863701589349895 
-0.0003904389202211464 
-0.0002548453796801631 
0.0002507606379598416 
0.0004636489211109442 
-0.000798808194806949 
-0.0002195503147453806 
6.184096224456439e-05 
0.0002268574699686463 
-0.0004052694839151454 
-0.0001340626049557914 
0.0004953318080422794 
0.0003665746914971298 
-0.0007592961230968697 
-0.0005455395717358467 
0.0009344044991128629 
-0.0001882432335896872 
-0.0001407532662185808 
-0.0001893805053215123 
0.0002796113193018692 
-0.0001195343007032393 
-0.0003981385358064392 
5.414594250859547e-05 
-0.0001956678182470613 
0.0005456384157414943 
-0.0003420300397329312 
-0.000530674593957866 
-0.0004013417698474336 
0.0008605616774943683 
-0.0003582054089197049 
-0.001019380284714379 
0.000501169694222891 
0.000396019610773472 
0.0002604627666119124 
-0.0006014733433939691 
0.0002518680094053327 
0.0005435970305724756 
-0.0006998370784383093 
-0.000739832364543302 
-0.0001889148945256656 
0.0009465473363555164 
-0.0004023623755908597 
0.0004036146370685258 
0.0004808459315775935 
-9.226251970171182e-05 
-0.000775209345600656 
-0.00089625513848026 
0.0004632299705629655 
-0.0001014793598303804 
-0.000675224592287888 
-0.0003307265772054587 
0.0001547893254190232 
0.0009527923397059347 
6.530043715549969e-05 
-0.001210197083885385 
0.0003250658112784275 
0.000715160783511203 
-0.0006352990628353537 
-0.0007418340761761993 
0.0005448928214519792 
0.0008406313070210464 
-0.000205994095326323 
-0.001018664949265561 
0.0007515142583100658 
-0.0001082300356029128 
-0.001091381903053625 
-0.0006750757020076866 
0.0005805098184291822 
0.0009209141058096205 
0.00027284081242034 
-0.0003962314722072195 
0.001003081768274846 
0.0003522353269190895 
-0.001645066126033112 
-0.000913281007532673 
0.001200835036555355 
0.0005062048848880246 
-0.0004753520058248684 
-0.000310125562862302 
-0.0005562939385769055 
0.0001547082428447545 
0.0003305204839503475 
-0.0001345198800165286 
0.0002167146987770872 
-0.0002724098887766688 
0.0002038322496996539 
0.0001163408780524741 
0.0002961371052636726 
0.0002210885180032957 
0.0002710227902535604 
-1.412536684774605e-05 
-0.0002969162820212644 
-0.0006897393732933491 
-0.0002713818643712067 
-0.0005768965697673023 
0.0001881568330925525 
0.0003892335205008262 
-3.725209627620612e-05 
1.370804210095835e-08 
-9.440530664852625e-05 
5.853162859662781e-05 
-0.0002949553125006415 
-0.0007217250223062208 
0.0001036798543003418 
0.001271137847106205 
-0.0006505337963580919 
-0.001091155908225195 
0.001132665870105854 
0.0002397171244529898 
-0.0006513595640364811 
-0.0006279386655067977 
-0.0006638070186605453 
0.0007741088309090434 
-0.0003016906373169428 
-0.0004667187940804267 
0.0004972779652143008 
0.0006023872938863818 
-0.000181192569405582 
-0.0004625971222690592 
-0.0006251436273718747 
-0.0001901842106804569 
0.0002850348453254526 
0.0004563624345347104 
-5.893466563975677e-05 
0.0006195105548868634 
-0.000391621803746463 
-0.0003861033741014401 
-0.0001871603601909497 
-0.0006138631876643249 
-1.134381066237021e-05 
0.001055066740548906 
0.0007159243871533991 
-0.0002285408184407416 
-0.0007115531716030788 
5.201503471294341e-06 
-0.0006462596772200519 
0.000314125506956398 
0.0001865974243792967 
0.0006080191844416195 
-0.0001813914203309937 
-0.0007820018316364234 
0.0001281357149782874 
-0.0004311961599911634 
4.646906772104365e-05 
0.000786806244773837 
-0.0001918326970424059 
0.0003014422631875198 
0.001487104482994073 
-0.001044875413050785 
-0.001321491383552752 
0 
