solver_type L2R_L2LOSS_SVC_DUAL
nr_class 2
label 1 0
nr_feature 12000
bias 1
w
0.0004881514596032972 
0.000944899465851566 
-0.001248197691875259 
0 
0.0004881514596032972 
-0.000944899465851566 
-0.0002596709050378608 
0.0007657240760808335 
-0.001000170384727252 
0 
-0.0002596709050378608 
-0.0007657240760808335 
-4.255996706365774e-05 
0.0005323603739294694 
-0.0007125310317553212 
0 
-4.255996706365774e-05 
-0.0005323603739294694 
0.0002033322787312076 
-0.001079259910590082 
0.001145550097341901 
0 
0.0002033322787312076 
0.001079259910590082 
0.0001189453003093991 
-0.001284543069912324 
0.001366319603122639 
0 
0.0001189453003093991 
0.001284543069912324 
7.345184874162806e-05 
0.0001529806108549608 
-0.0002547066043288487 
0 
7.345184874162806e-05 
-0.0001529806108549608 
-0.0001118713614140089 
0.000156019322703906 
-0.0002465559421524895 
0 
-0.0001118713614140089 
-0.000156019322703906 
-9.881344519473926e-05 
-0.000792087952190977 
0.0008478292376796217 
0 
-9.881344519473926e-05 
0.000792087952190977 
0.0003441436854125462 
8.740975309928422e-05 
-0.0001919799018751543 
0 
0.0003441436854125462 
-8.740975309928422e-05 
4.889980295401748e-05 
-0.0002690188162081535 
0.0002685457379997121 
0 
4.889980295401748e-05 
0.0002690188162081535 
0.0003585706449031335 
-0.0008780957675873066 
0.0009788313505383563 
0 
0.0003585706449031335 
0.0008780957675873066 
0.0004604027729484936 
-0.000396363649365664 
0.0004291882729505678 
0 
0.0004604027729484936 
0.000396363649365664 
-6.17041504640071e-06 
-0.0007847132549632541 
0.0008275886584101704 
0 
-6.17041504640071e-06 
0.0007847132549632541 
0.0002704630432336345 
0.0001104262624908859 
-0.0002186383648457168 
0 
0.0002704630432336345 
-0.0001104262624908859 
0.0001451936405809327 
0.0002953087145047045 
-0.000401266121885898 
0 
0.0001451936405809327 
-0.0002953087145047045 
5.540397726770086e-07 
0.0002290173291936973 
-0.0003675798260834307 
0 
5.540397726770086e-07 
-0.0002290173291936973 
0.0002236584124597339 
-0.0002507229672351578 
0.0001679895405081384 
0 
0.0002236584124597339 
0.0002507229672351578 
6.697208689630591e-05 
0.0004096680741145861 
-0.0004957007416071985 
0 
6.697208689630591e-05 
-0.0004096680741145861 
1.046610536678719e-07 
-0.0004065739827408411 
0.000429865692859681 
0 
1.046610536678719e-07 
0.0004065739827408411 
-0.00016655173717461 
-0.0008693622963207003 
0.0008840582930446238 
0 
-0.00016655173717461 
0.0008693622963207003 
0.0001487491383895016 
-0.0001598931155041752 
9.59905716295899e-05 
0 
0.0001487491383895016 
0.0001598931155041752 
-6.344341526780119e-05 
0.0005314369518774713 
-0.0007205415283546785 
0 
-6.344341526780119e-05 
-0.0005314369518774713 
-1.985966212565005e-05 
0.0003483136758381697 
-0.0004613708198750185 
0 
-1.985966212565005e-05 
-0.0003483136758381697 
0.0002116823094854827 
2.277796483831381e-05 
-0.0001391233370301847 
0 
0.0002116823094854827 
-2.277796483831381e-05 
0.0003773291407684891 
0.0004743014625027679 
-0.0006569879633273211 
0 
0.0003773291407684891 
-0.0004743014625027679 
0.000110967660921462 
-0.0004445367238133374 
0.0004944060563389301 
0 
0.000110967660921462 
0.0004445367238133374 
0.0001192461751598649 
-0.0008798540798069646 
0.0009116807175947323 
0 
0.0001192461751598649 
0.0008798540798069646 
0.0001556671994124573 
-0.001113166273936143 
0.001187762161143175 
0 
0.0001556671994124573 
0.001113166273936143 
6.585229544567351e-05 
-0.0005901500873321569 
0.0005821310272027085 
0 
6.585229544567351e-05 
0.0005901500873321569 
-0.0001743680588972788 
0.001101191818647356 
-0.001365916417536206 
0 
-0.0001743680588972788 
-0.001101191818647356 
-0.0001686289502333337 
0.001573905347157019 
-0.001889948460286426 
0 
-0.0001686289502333337 
-0.001573905347157019 
-0.0003586806091091143 
-0.0001672387305547033 
0.0001220600374066973 
0 
-0.0003586806091091143 
0.0001672387305547033 
0.0005719534092053669 
0.002054776854091014 
-0.002459802528779914 
0 
0.0005719534092053669 
-0.002054776854091014 
0.0001214291538157205 
-0.001096612365520057 
0.001162319391729804 
0 
0.0001214291538157205 
0.001096612365520057 
0.000179386323419827 
-0.0008414547979979181 
0.0008962416234353951 
0 
0.000179386323419827 
0.0008414547979979181 
0.0003522985716574638 
-0.0001651344077326548 
8.364080851002951e-05 
0 
0.0003522985716574638 
0.0001651344077326548 
-2.639772806457468e-05 
-0.0003527941173195571 
0.0003310499169933211 
0 
-2.639772806457468e-05 
0.0003527941173195571 
0.000216804199668437 
-0.0008069442153733906 
0.0008566429015886303 
0 
0.000216804199668437 
0.0008069442153733906 
0.0001906480120473839 
-0.0001060162559362688 
8.703513584148455e-05 
0 
0.0001906480120473839 
0.0001060162559362688 
-0.0002652723123078996 
-0.0001997799961840183 
0.0001296959509102617 
0 
-0.0002652723123078996 
0.0001997799961840183 
0.0004416060250003185 
0.001624819813740458 
-0.001963569646326554 
0 
0.0004416060250003185 
-0.001624819813740458 
-0.0001082491025487094 
-0.0004240355753720987 
0.0004072326183185453 
0 
-0.0001082491025487094 
0.0004240355753720987 
0.0001923562041570544 
-0.001395464716592727 
0.001575899998113011 
0 
0.0001923562041570544 
0.001395464716592727 
0.000105557708853565 
0.0002186646375984678 
-0.0003923525397941387 
0 
0.000105557708853565 
-0.0002186646375984678 
0.0001922064075597474 
-0.0002777433795765957 
0.0002729505652225385 
0 
0.0001922064075597474 
0.0002777433795765957 
0.0001348897845979548 
-0.0001887669953336582 
0.0001911355114725291 
0 
0.0001348897845979548 
0.0001887669953336582 
0.0001431267976117241 
-0.0003806544015599917 
0.0003797961631705633 
0 
0.0001431267976117241 
0.0003806544015599917 
-0.0002048534137423355 
3.941797318617622e-05 
-0.0001200695869132556 
0 
-0.0002048534137423355 
-3.941797318617622e-05 
0.0003336902635905223 
0.000128007037604424 
-0.0002148283922708643 
0 
0.0003336902635905223 
-0.000128007037604424 
-3.908023242428147e-05 
0.0004991224087871984 
-0.0006186871457861558 
0 
-3.908023242428147e-05 
-0.0004991224087871984 
4.842927967404252e-05 
-0.0004176348542554901 
0.0004244598778055623 
0 
4.842927967404252e-05 
0.0004176348542554901 
0.0001237663452580611 
0.0004768743692393135 
-0.0006378963399177347 
0 
0.0001237663452580611 
-0.0004768743692393135 
0.0001923576308112789 
0.0002119853226054713 
-0.0003116950354519289 
0 
0.0001923576308112789 
-0.0002119853226054713 
0.0001778464913881187 
-0.0004913990331442722 
0.0005432396143488396 
0 
0.0001778464913881187 
0.0004913990331442722 
0.0001225998852007411 
-0.001362602673668329 
0.001498697781928887 
0 
0.0001225998852007411 
0.001362602673668329 
0.0001926647472323676 
-4.851668262559416e-06 
-6.177811066790854e-05 
0 
0.0001926647472323676 
4.851668262559416e-06 
0.0002309450949619579 
-0.0001212736466406143 
5.968313686140662e-05 
0 
0.0002309450949619579 
0.0001212736466406143 
0.0004257298490226516 
-0.001723265416362146 
0.001927927692719864 
0 
0.0004257298490226516 
0.001723265416362146 
0.0001143565783414 
-0.001262315491708579 
0.00139250683955021 
0 
0.0001143565783414 
0.001262315491708579 
0.000182355393520727 
-0.0002730097502357839 
0.0002252327718741087 
0 
0.000182355393520727 
0.0002730097502357839 
0.0001135110905254164 
0.001551006390979259 
-0.00184150195106847 
0 
0.0001135110905254164 
-0.001551006390979259 
-0.00014212765056959 
0.0009442391510394961 
-0.001147745226225218 
0 
-0.00014212765056959 
-0.0009442391510394961 
0.0002084466132920557 
0.0001236672049887433 
-0.0001880104042829943 
0 
0.0002084466132920557 
-0.0001236672049887433 
7.704671506069685e-05 
-0.0003938194907267358 
0.0003443828211343232 
0 
7.704671506069685e-05 
0.0003938194907267358 
0.0001768928935229625 
0.0008432450958691399 
-0.001042697284761814 
0 
0.0001768928935229625 
-0.0008432450958691399 
0.000270293229075432 
-0.0009894362097093168 
0.001124070841070307 
0 
0.000270293229075432 
0.0009894362097093168 
0.000228803514846045 
-0.002758122648126442 
0.003102920620568792 
0 
0.000228803514846045 
0.002758122648126442 
0.0001582169076514422 
-6.536168820504058e-05 
2.792623896500998e-05 
0 
0.0001582169076514422 
6.536168820504058e-05 
9.05051157984845e-05 
0.001935824302022078 
-0.002234189511827286 
0 
9.05051157984845e-05 
-0.001935824302022078 
-0.0002241205418626603 
-0.0006469765915471238 
0.0006424454592049478 
0 
-0.0002241205418626603 
0.0006469765915471238 
0.0002236307798710877 
0.0006066614696971501 
-0.0007921331816701121 
0 
0.0002236307798710877 
-0.0006066614696971501 
-0.0001687175816981543 
0.0006473155574422591 
-0.000798404035345616 
0 
-0.0001687175816981543 
-0.0006473155574422591 
0.000561701703316078 
0.001659269555417552 
-0.001997583219379114 
0 
0.000561701703316078 
-0.001659269555417552 
4.32921647582479e-05 
-0.0009699631661623739 
0.00107573031209532 
0 
4.32921647582479e-05 
0.0009699631661623739 
-2.314674801724743e-05 
-0.0009638388589667649 
0.00102017671407701 
0 
-2.314674801724743e-05 
0.0009638388589667649 
0.0001545590685293346 
-0.0006188095630046646 
0.0005864593664887362 
0 
0.0001545590685293346 
0.0006188095630046646 
0.0002172238444880623 
-0.0004951471802044151 
0.0005231168961455935 
0 
0.0002172238444880623 
0.0004951471802044151 
0.0001427234627009835 
-0.0002524371152868111 
0.0001932676931073999 
0 
0.0001427234627009835 
0.0002524371152868111 
4.96864960627935e-05 
0.0004523340005097147 
-0.000581522612787383 
0 
4.96864960627935e-05 
-0.0004523340005097147 
-0.0002192068202808875 
0.0002118544548430714 
-0.0003239790965179679 
0 
-0.0002192068202808875 
-0.0002118544548430714 
0.0003866442865694618 
-0.0001072621491576461 
4.617017589545997e-05 
0 
0.0003866442865694618 
0.0001072621491576461 
0.0004198126174359842 
-0.002009494432891276 
0.00223881795233118 
0 
0.0004198126174359842 
0.002009494432891276 
0.0003747584862461582 
-0.00165802871174483 
0.001834719492451737 
0 
0.0003747584862461582 
0.00165802871174483 
0.0003905640405563794 
-0.0002792552104366527 
0.0003130613829450563 
0 
0.0003905640405563794 
0.0002792552104366527 
0.0001747068181795167 
0.0008535936783039434 
-0.001020624698978199 
0 
0.0001747068181795167 
-0.0008535936783039434 
2.822634288617414e-05 
5.208877861269942e-06 
-8.121996885315819e-05 
0 
2.822634288617414e-05 
-5.208877861269942e-06 
-0.0002767302723531312 
0.001165369110389655 
-0.001405761122474679 
0 
-0.0002767302723531312 
-0.001165369110389655 
-0.0005138875485464014 
0.001327254355989609 
-0.001589559800697112 
0 
-0.0005138875485464014 
-0.001327254355989609 
0.0001014983961712296 
-0.0006918311396937033 
0.0007205097232102402 
0 
0.0001014983961712296 
0.0006918311396937033 
0.0004922792432876283 
-0.001413888164389854 
0.0015954194975266 
0 
0.0004922792432876283 
0.001413888164389854 
0.0003890573288186796 
-0.00164837335458985 
0.001788542944844614 
0 
0.0003890573288186796 
0.00164837335458985 
0.0003338614181750247 
0.0006392278907615322 
-0.0008106520925382301 
0 
0.0003338614181750247 
-0.0006392278907615322 
1.632162782656882e-05 
0.000324305056225033 
-0.0004506846905927353 
0 
1.632162782656882e-05 
-0.000324305056225033 
0.0002722883600081452 
0.0001086853368018001 
-0.0001633178377985898 
0 
0.0002722883600081452 
-0.0001086853368018001 
1.778760083939645e-05 
-0.0001887052815550975 
0.0001729371632569951 
0 
1.778760083939645e-05 
0.0001887052815550975 
0.0004010806893505225 
0.0009243986956509092 
-0.001103098696844348 
0 
0.0004010806893505225 
-0.0009243986956509092 
0.0001040945577931331 
0.0002885020777366196 
-0.0004424684109285436 
0 
0.0001040945577931331 
-0.0002885020777366196 
0.0004195782045545009 
-0.0002909112237695104 
0.0002529343549569968 
0 
0.0004195782045545009 
0.0002909112237695104 
0.0002274785011061693 
-0.001970115498433616 
0.002124050716141115 
0 
0.0002274785011061693 
0.001970115498433616 
0.0004565528473169478 
-6.248261398641248e-05 
-1.900093744257532e-06 
0 
0.0004565528473169478 
6.248261398641248e-05 
0.0001833226042071481 
0.0001852449238586532 
-0.0002609560785949079 
0 
0.0001833226042071481 
-0.0001852449238586532 
0.0003077216568770947 
-0.0001486385647056317 
0.0001150932124076825 
0 
0.0003077216568770947 
0.0001486385647056317 
-0.0001224284308574886 
-0.001084574267555338 
0.001176370511602245 
0 
-0.0001224284308574886 
0.001084574267555338 
0.0005174466743143562 
0.0007936617808301275 
-0.000944760056052459 
0 
0.0005174466743143562 
-0.0007936617808301275 
-0.000273986614918674 
-0.0006395171811266765 
0.0006986178656566163 
0 
-0.000273986614918674 
0.0006395171811266765 
5.606908889871187e-05 
-0.001697324618949756 
0.001888669179260828 
0 
5.606908889871187e-05 
0.001697324618949756 
0.0003328078621705247 
-0.0001367421582503726 
0.0001168202264816148 
0 
0.0003328078621705247 
0.0001367421582503726 
0.0002509814114933321 
0.0008019794167690566 
-0.000978682857281751 
0 
0.0002509814114933321 
-0.0008019794167690566 
0.0002383525569926913 
1.378801013371006e-05 
-6.97248267539096e-06 
0 
0.0002383525569926913 
-1.378801013371006e-05 
6.503460607670499e-05 
-0.001309708249157281 
0.001415772492234847 
0 
6.503460607670499e-05 
0.001309708249157281 
0.000563216051092335 
0.0006526654941746026 
-0.0009189595290763963 
0 
0.000563216051092335 
-0.0006526654941746026 
0.000184489181783514 
0.001044836974543835 
-0.001235396225677543 
0 
0.000184489181783514 
-0.001044836974543835 
0.0002098992423494691 
0.000117447889740803 
-0.000169830204547168 
0 
0.0002098992423494691 
-0.000117447889740803 
-0.0003333016572544487 
-0.00183462762609538 
0.001974269587803037 
0 
-0.0003333016572544487 
0.00183462762609538 
0.0002374820101435629 
-0.0001154997875185037 
7.636711843283493e-05 
0 
0.0002374820101435629 
0.0001154997875185037 
0.0002151210017148757 
0.0007842343564323662 
-0.0009423827832992609 
0 
0.0002151210017148757 
-0.0007842343564323662 
8.916290952247505e-05 
0.0003763567708327948 
-0.0004298538186562033 
0 
8.916290952247505e-05 
-0.0003763567708327948 
0.0003606251446697821 
0.0001202849227398479 
-0.0001284605341400855 
0 
0.0003606251446697821 
-0.0001202849227398479 
-0.0001279791493031216 
-0.0003177384386087533 
0.0003185982784554605 
0 
-0.0001279791493031216 
0.0003177384386087533 
0.0004465567837945019 
0.000298545068933274 
-0.0003582261565965998 
0 
0.0004465567837945019 
-0.000298545068933274 
-2.76116341906968e-05 
0.0003270185259503207 
-0.0004381773194465764 
0 
-2.76116341906968e-05 
-0.0003270185259503207 
-0.0001275744636708717 
-0.001349956986681829 
0.001500282630341717 
0 
-0.0001275744636708717 
0.001349956986681829 
-2.48332460787467e-05 
0.0006287462694255916 
-0.0007971243751227673 
0 
-2.48332460787467e-05 
-0.0006287462694255916 
0.0001103055128853737 
0.001010706846788867 
-0.00128033068820917 
0 
0.0001103055128853737 
-0.001010706846788867 
-0.0001765133680848663 
3.949312343974202e-05 
-0.000141358794009747 
0 
-0.0001765133680848663 
-3.949312343974202e-05 
-7.371611416329433e-05 
-0.0006408078015809591 
0.000635467099781227 
0 
-7.371611416329433e-05 
0.0006408078015809591 
-4.148076944148823e-05 
-0.0003227061586131845 
0.0002451281478438396 
0 
-4.148076944148823e-05 
0.0003227061586131845 
-3.663638304829749e-05 
0.000769109956812862 
-0.0009737605583163412 
0 
-3.663638304829749e-05 
-0.000769109956812862 
-2.571690672008343e-05 
0.001396487847989274 
-0.001675523191346471 
0 
-2.571690672008343e-05 
-0.001396487847989274 
-0.0001612385482479451 
0.0003813415483787731 
-0.0006125200163382367 
0 
-0.0001612385482479451 
-0.0003813415483787731 
-0.0003820964763332772 
0.000928187955551051 
-0.001164098541235446 
0 
-0.0003820964763332772 
-0.000928187955551051 
-0.0001169526119219579 
0.00164926549880321 
-0.002006221973576424 
0 
-0.0001169526119219579 
-0.00164926549880321 
-3.879639578212831e-06 
0.0001591656354340583 
-0.0002514466529162396 
0 
-3.879639578212831e-06 
-0.0001591656354340583 
-0.0004389652612537125 
-0.001028832926936154 
0.001095915359491412 
0 
-0.0004389652612537125 
0.001028832926936154 
-0.0001687288037220417 
-0.002458560133542005 
0.002745878470272164 
0 
-0.0001687288037220417 
0.002458560133542005 
-0.0003042212541085443 
0.0008132982587782833 
-0.001011697395836345 
0 
-0.0003042212541085443 
-0.0008132982587782833 
-3.231632719728455e-05 
0.0004058535417537427 
-0.0005863021182486722 
0 
-3.231632719728455e-05 
-0.0004058535417537427 
-1.867162621719965e-05 
-0.001032959487774133 
0.001103329402444156 
0 
-1.867162621719965e-05 
0.001032959487774133 
-5.873964676800456e-05 
-3.158240792077674e-06 
-0.000107034361394584 
0 
-5.873964676800456e-05 
3.158240792077674e-06 
5.338306794822056e-05 
0.0007273315671868357 
-0.0008914743081689663 
0 
5.338306794822056e-05 
-0.0007273315671868357 
-0.000221366116059467 
0.0007756804467843771 
-0.0009543925260592841 
0 
-0.000221366116059467 
-0.0007756804467843771 
-0.0001850470323779018 
0.0003125421816705536 
-0.000489408980285602 
0 
-0.0001850470323779018 
-0.0003125421816705536 
5.469778799116606e-05 
-0.0007252264339432211 
0.0007540892306149145 
0 
5.469778799116606e-05 
0.0007252264339432211 
-0.0003718522706679613 
0.0004191533411931317 
-0.0005690559893209323 
0 
-0.0003718522706679613 
-0.0004191533411931317 
9.456894186041249e-05 
0.001131179921121963 
-0.001424712527932358 
0 
9.456894186041249e-05 
-0.001131179921121963 
-0.0002396518184707514 
-0.002414638565274867 
0.002624188301322467 
0 
-0.0002396518184707514 
0.002414638565274867 
0.0001592152730491386 
-0.0002212063929139106 
0.0001921869702484677 
0 
0.0001592152730491386 
0.0002212063929139106 
-0.0001271210012414996 
0.001830209922220799 
-0.002209653634269882 
0 
-0.0001271210012414996 
-0.001830209922220799 
-0.0001785904479970799 
0.0007309303471294659 
-0.0009319271223415516 
0 
-0.0001785904479970799 
-0.0007309303471294659 
6.270120560110408e-05 
-0.0005653684709127333 
0.0005749742374392713 
0 
6.270120560110408e-05 
0.0005653684709127333 
2.445573534302187e-05 
-0.0005772064435725501 
0.0006298707507708696 
0 
2.445573534302187e-05 
0.0005772064435725501 
-0.0001827427185896183 
0.0004705078366809941 
-0.0006417165936625306 
0 
-0.0001827427185896183 
-0.0004705078366809941 
9.222268659506176e-05 
0.002136652551517682 
-0.002518088632701878 
0 
9.222268659506176e-05 
-0.002136652551517682 
0.0001876464933436883 
0.0006657541530320703 
-0.0008414221988319595 
0 
0.0001876464933436883 
-0.0006657541530320703 
0.0001513230274238212 
-6.458572989129442e-05 
-4.008313711942748e-05 
0 
0.0001513230274238212 
6.458572989129442e-05 
-0.0001201069746986456 
0.0007079997483342888 
-0.0008977560365199356 
0 
-0.0001201069746986456 
-0.0007079997483342888 
5.251071681229294e-05 
-0.0001902619045762476 
0.0001245825266492545 
0 
5.251071681229294e-05 
0.0001902619045762476 
-0.0001326316705627157 
-0.001088955421286273 
0.001177230524518717 
0 
-0.0001326316705627157 
0.001088955421286273 
-0.0003108493530202644 
-0.001746915959531054 
0.001915287190083141 
0 
-0.0003108493530202644 
0.001746915959531054 
-0.0001491177817282851 
-8.136552083228919e-05 
5.372568731854993e-07 
0 
-0.0001491177817282851 
8.136552083228919e-05 
-0.0004744372663716997 
0.001070418160262607 
-0.001252964369860747 
0 
-0.0004744372663716997 
-0.001070418160262607 
1.307961755965654e-05 
-9.855723376348738e-06 
-9.449372354769488e-05 
0 
1.307961755965654e-05 
9.855723376348738e-06 
-0.0001454298607151608 
-0.0002506813915265377 
0.0001638957527071787 
0 
-0.0001454298607151608 
0.0002506813915265377 
-0.0004797176245808102 
0.001471764685517987 
-0.001772950605806473 
0 
-0.0004797176245808102 
-0.001471764685517987 
-0.0004320832086234433 
0.0006544437489361702 
-0.0009374601596150408 
0 
-0.0004320832086234433 
-0.0006544437489361702 
0.0001909139930626578 
-0.0002430065183495893 
0.0001458848306236121 
0 
0.0001909139930626578 
0.0002430065183495893 
-0.0002846452541729578 
-0.001313996589469919 
0.001416180959066849 
0 
-0.0002846452541729578 
0.001313996589469919 
-0.000496383668080807 
0.0008799840110671907 
-0.001124104226319932 
0 
-0.000496383668080807 
-0.0008799840110671907 
-0.0002884838836556923 
-0.0004447796981879287 
0.0004289762395523303 
0 
-0.0002884838836556923 
0.0004447796981879287 
6.92077333706325e-05 
0.000478474399516879 
-0.0006264928442876379 
0 
6.92077333706325e-05 
-0.000478474399516879 
-0.0001572374855588958 
-0.0001593142449880623 
8.546251940391032e-05 
0 
-0.0001572374855588958 
0.0001593142449880623 
-0.0003156461308909361 
0.001057047264268782 
-0.001337591072390825 
0 
-0.0003156461308909361 
-0.001057047264268782 
-0.0003858678230007763 
0.00128215602862396 
-0.001608906201455028 
0 
-0.0003858678230007763 
-0.00128215602862396 
-0.0001232608875360399 
0.0004762556919480617 
-0.0006365849657154783 
0 
-0.0001232608875360399 
-0.0004762556919480617 
-0.0005555078271351966 
-0.0004967522301951935 
0.0005506770409339659 
0 
-0.0005555078271351966 
0.0004967522301951935 
-0.0003494197485492274 
0.0002956594516882951 
-0.0004519256564673952 
0 
-0.0003494197485492274 
-0.0002956594516882951 
-0.0001104715668590203 
-0.000449157110910481 
0.000436610198126636 
0 
-0.0001104715668590203 
0.000449157110910481 
-0.000308088003398379 
-0.0008340482913644309 
0.0008564941286358817 
0 
-0.000308088003398379 
0.0008340482913644309 
-0.0001929405630104861 
-0.0007182974920612534 
0.0006932946203537355 
0 
-0.0001929405630104861 
0.0007182974920612534 
-0.0003338032136168862 
0.0005510276981355922 
-0.0007037710486912033 
0 
-0.0003338032136168862 
-0.0005510276981355922 
-0.0002989462624261468 
0.001479345006323802 
-0.001795855053236633 
0 
-0.0002989462624261468 
-0.001479345006323802 
-6.814925207075181e-05 
0.001494759472391398 
-0.00185877085468236 
0 
-6.814925207075181e-05 
-0.001494759472391398 
-9.558919665156317e-05 
-0.0001221717864367311 
-1.741402146632008e-05 
0 
-9.558919665156317e-05 
0.0001221717864367311 
9.575014993420304e-05 
-0.0001756720495899411 
0.000101923563586676 
0 
9.575014993420304e-05 
0.0001756720495899411 
0.0001909163147464077 
0.0003219207837984494 
-0.0004656761423218479 
0 
0.0001909163147464077 
-0.0003219207837984494 
-0.0004714259401659794 
-0.002130184667174022 
0.002347825876835997 
0 
-0.0004714259401659794 
0.002130184667174022 
-0.0002419590083671619 
-0.0005624118930346109 
0.0005050024422991808 
0 
-0.0002419590083671619 
0.0005624118930346109 
-0.000320325331435966 
0.001351773010753948 
-0.001649631201993642 
0 
-0.000320325331435966 
-0.001351773010753948 
-0.0004055608910546875 
0.001272416308565166 
-0.001591713572243341 
0 
-0.0004055608910546875 
-0.001272416308565166 
-0.0003562932875676209 
0.00165414205883213 
-0.002099332142605891 
0 
-0.0003562932875676209 
-0.00165414205883213 
-0.0004295264307443505 
2.263997281499091e-05 
-0.0001679034974243702 
0 
-0.0004295264307443505 
-2.263997281499091e-05 
-0.0002129859355763898 
0.0001416246226242057 
-0.0002837185186069121 
0 
-0.0002129859355763898 
-0.0001416246226242057 
0.000171499462329051 
0.0005354401135495475 
-0.0006735149475380244 
0 
0.000171499462329051 
-0.0005354401135495475 
-5.066209888483136e-05 
-0.001384138856369019 
0.001473982586738842 
0 
-5.066209888483136e-05 
0.001384138856369019 
-0.0006575473917413973 
0.0008072224914000731 
-0.001108648279618892 
0 
-0.0006575473917413973 
-0.0008072224914000731 
-0.0006651361844370924 
0.001982653079038009 
-0.002453468859097943 
0 
-0.0006651361844370924 
-0.001982653079038009 
-0.0008229594104062559 
0.002488947819316786 
-0.003034030319024883 
0 
-0.0008229594104062559 
-0.002488947819316786 
-0.0003108601898869924 
0.003447195998634757 
-0.004027315406325605 
0 
-0.0003108601898869924 
-0.003447195998634757 
-0.001194295703865707 
-0.003326274223201922 
0.003770045028053484 
0 
-0.001194295703865707 
0.003326274223201922 
-5.491792024861818e-05 
-0.0007595110902932454 
0.0007191312876071006 
0 
-5.491792024861818e-05 
0.0007595110902932454 
-0.0001548068563000163 
0.0006943625020611741 
-0.0008957805058030251 
0 
-0.0001548068563000163 
-0.0006943625020611741 
-0.0001291841942690298 
-0.0009537559186135343 
0.001053707138825035 
0 
-0.0001291841942690298 
0.0009537559186135343 
0.0002353332585985144 
-0.0004659065382999803 
0.0004777025176280894 
0 
0.0002353332585985144 
0.0004659065382999803 
-2.022679866749253e-05 
0.001120186021968638 
-0.001358828510275499 
0 
-2.022679866749253e-05 
-0.001120186021968638 
-0.0002803080073227655 
-0.0007617974569887072 
0.0008493274184218339 
0 
-0.0002803080073227655 
0.0007617974569887072 
0.0002640453797380177 
0.0001321143312844399 
-0.0002471467246851334 
0 
0.0002640453797380177 
-0.0001321143312844399 
-0.0002140028508011893 
0.0004349196464118243 
-0.0006118986224139763 
0 
-0.0002140028508011893 
-0.0004349196464118243 
-3.682896588299041e-06 
0.0003649592885114625 
-0.0005437278025146825 
0 
-3.682896588299041e-06 
-0.0003649592885114625 
3.26710729025268e-05 
0.0003376327369829535 
-0.0004440274317325087 
0 
3.26710729025268e-05 
-0.0003376327369829535 
0.0004351184754981126 
-0.0009008486002072794 
0.001014853600398591 
0 
0.0004351184754981126 
0.0009008486002072794 
0.0004076164495660286 
-0.0005959727013769327 
0.0006603234625063858 
0 
0.0004076164495660286 
0.0005959727013769327 
0.0001565796319239218 
0.0002159315493673921 
-0.0002932105142999624 
0 
0.0001565796319239218 
-0.0002159315493673921 
0.0001032712090273136 
0.0004706405724602812 
-0.0005384496707713408 
0 
0.0001032712090273136 
-0.0004706405724602812 
2.756070051649635e-05 
-0.0002738508438665824 
0.0002600121598493337 
0 
2.756070051649635e-05 
0.0002738508438665824 
0.000274966243954637 
-5.998498260619074e-06 
-6.184030578276522e-05 
0 
0.000274966243954637 
5.998498260619074e-06 
0.0001273911030985152 
-0.0005078924791588176 
0.0004384347026806462 
0 
0.0001273911030985152 
0.0005078924791588176 
0.0001487077706759347 
2.051539557789542e-05 
-8.963793663713692e-05 
0 
0.0001487077706759347 
-2.051539557789542e-05 
-1.105297505035907e-05 
0.0001844810761498486 
-0.0002256965463735555 
0 
-1.105297505035907e-05 
-0.0001844810761498486 
0.0002859459338198913 
-0.0004665959324624921 
0.0005165581042546648 
0 
0.0002859459338198913 
0.0004665959324624921 
-9.992169175493906e-05 
-5.993082984247854e-05 
3.863331228184496e-05 
0 
-9.992169175493906e-05 
5.993082984247854e-05 
-2.461603380861962e-05 
0.0007817680297352061 
-0.0009203554555883043 
0 
-2.461603380861962e-05 
-0.0007817680297352061 
7.631239771969615e-05 
0.0001523119262571014 
-0.0002569316635693286 
0 
7.631239771969615e-05 
-0.0001523119262571014 
4.853226243662232e-05 
-0.0002264237731614453 
0.0002128497822690244 
0 
4.853226243662232e-05 
0.0002264237731614453 
0.0001312296662005149 
-0.0003475488407667796 
0.0003093922441988789 
0 
0.0001312296662005149 
0.0003475488407667796 
-8.099170952340612e-05 
-0.0004801303160060099 
0.0004588842612688912 
0 
-8.099170952340612e-05 
0.0004801303160060099 
-0.0002682361893076618 
-0.0003257600943814068 
0.0002667482333996476 
0 
-0.0002682361893076618 
0.0003257600943814068 
7.070913283857416e-05 
-1.625233592400286e-05 
-7.586562522754466e-05 
0 
7.070913283857416e-05 
1.625233592400286e-05 
-0.0002012646406264979 
0.0005492024113550559 
-0.0006807519361837412 
0 
-0.0002012646406264979 
-0.0005492024113550559 
2.367238108048729e-05 
-0.0002533095340841285 
0.0002522340289207276 
0 
2.367238108048729e-05 
0.0002533095340841285 
3.704835006977439e-05 
0.0004651242362803353 
-0.0006008761490687056 
0 
3.704835006977439e-05 
-0.0004651242362803353 
3.058635757112012e-05 
0.0007426063388337648 
-0.0008977271070763605 
0 
3.058635757112012e-05 
-0.0007426063388337648 
-9.90154067023216e-05 
0.0001924507096294374 
-0.000317706315051662 
0 
-9.90154067023216e-05 
-0.0001924507096294374 
2.05959466118843e-05 
0.0008494008305507717 
-0.001055001282670415 
0 
2.05959466118843e-05 
-0.0008494008305507717 
4.489786522046486e-05 
7.720568669742566e-06 
-7.851842454685971e-05 
0 
4.489786522046486e-05 
-7.720568669742566e-06 
5.737893739670367e-05 
4.834303673987344e-06 
-5.721524815794175e-05 
0 
5.737893739670367e-05 
-4.834303673987344e-06 
-8.058019166074101e-06 
-7.163699509616472e-05 
-7.974358238588495e-06 
0 
-8.058019166074101e-06 
7.163699509616472e-05 
-4.979451061239265e-05 
-0.0007568057745870858 
0.0008293910510774078 
0 
-4.979451061239265e-05 
0.0007568057745870858 
0.0001014663907659862 
0.0001820897234533272 
-0.0002478994244626265 
0 
0.0001014663907659862 
-0.0001820897234533272 
0.0001611728839845263 
0.0003467866286128431 
-0.0004323916217414844 
0 
0.0001611728839845263 
-0.0003467866286128431 
4.440446357944635e-05 
-0.0006415996873312158 
0.000614033937942835 
0 
4.440446357944635e-05 
0.0006415996873312158 
-1.732194733145356e-05 
0.001639872706451275 
-0.002008589461258364 
0 
-1.732194733145356e-05 
-0.001639872706451275 
-5.563772146857613e-05 
-0.0001452961154621399 
0.0001113645186036531 
0 
-5.563772146857613e-05 
0.0001452961154621399 
0.0001666556652669146 
-0.0003611944691766929 
0.000339285438965288 
0 
0.0001666556652669146 
0.0003611944691766929 
1.51893720654147e-05 
6.002926916017428e-05 
-9.490663058589648e-05 
0 
1.51893720654147e-05 
-6.002926916017428e-05 
-8.339957236691654e-05 
-0.001307840192576347 
0.001413294043862894 
0 
-8.339957236691654e-05 
0.001307840192576347 
0.0001828692094259462 
-0.0006135185365579029 
0.0006503719964375405 
0 
0.0001828692094259462 
0.0006135185365579029 
-0.0001025654810088175 
0.0004133149408325021 
-0.0005358606168560934 
0 
-0.0001025654810088175 
-0.0004133149408325021 
-0.0001860602841026045 
0.000651389524350264 
-0.0008578703627041591 
0 
-0.0001860602841026045 
-0.000651389524350264 
0.0001581364119506182 
0.001599974246582124 
-0.001933969685207065 
0 
0.0001581364119506182 
-0.001599974246582124 
-0.0002627772100148228 
0.0001009552243770103 
-0.0002375980874054867 
0 
-0.0002627772100148228 
-0.0001009552243770103 
-0.0002861524140854391 
-0.0005916775536858516 
0.0005462930285688963 
0 
-0.0002861524140854391 
0.0005916775536858516 
-0.0002054284519660629 
0.0006163916999515588 
-0.0007529794716602179 
0 
-0.0002054284519660629 
-0.0006163916999515588 
-6.640861277480801e-05 
0.0001596122277941882 
-0.0002320193726156096 
0 
-6.640861277480801e-05 
-0.0001596122277941882 
2.854343686782068e-05 
-0.0004579131111905607 
0.000454626540688258 
0 
2.854343686782068e-05 
0.0004579131111905607 
7.588771987663342e-05 
-0.0004713421668286329 
0.0004346860731171071 
0 
7.588771987663342e-05 
0.0004713421668286329 
-0.0002604611485874588 
-1.63063888208869e-05 
-7.896486477013496e-05 
0 
-0.0002604611485874588 
1.63063888208869e-05 
0.000321659799889456 
0.0009103333206194485 
-0.001158257997671203 
0 
0.000321659799889456 
-0.0009103333206194485 
8.409323762853067e-05 
-0.0004261781491989274 
0.0004046324306917103 
0 
8.409323762853067e-05 
0.0004261781491989274 
0.0002582281076836717 
-0.0005979806498372697 
0.0006713580917819428 
0 
0.0002582281076836717 
0.0005979806498372697 
-8.123274765849967e-05 
0.000278802246012777 
-0.0004044668373397459 
0 
-8.123274765849967e-05 
-0.000278802246012777 
-0.0001479202159065419 
7.773485638862399e-05 
-0.000171052952338065 
0 
-0.0001479202159065419 
-7.773485638862399e-05 
-6.269713830102454e-05 
-0.0007970275441101305 
0.0008342845939164612 
0 
-6.269713830102454e-05 
0.0007970275441101305 
9.171496967089097e-05 
-0.0004528492490897127 
0.0004469892008568541 
0 
9.171496967089097e-05 
0.0004528492490897127 
-0.0002788410668277653 
0.001018147129117471 
-0.001235438052530694 
0 
-0.0002788410668277653 
-0.001018147129117471 
4.658819749595699e-05 
-0.0006598579770940169 
0.0006422917317518951 
0 
4.658819749595699e-05 
0.0006598579770940169 
0.0004328136833982043 
-0.001296499264807261 
0.001457525039975323 
0 
0.0004328136833982043 
0.001296499264807261 
0.0002318389067548678 
-0.002382946823276025 
0.002666727498929096 
0 
0.0002318389067548678 
0.002382946823276025 
0.0003782757183316578 
-2.264171963483403e-05 
-2.83594062088343e-05 
0 
0.0003782757183316578 
2.264171963483403e-05 
-0.0003115298688510959 
0.0005937391973028306 
-0.0007607798404464047 
0 
-0.0003115298688510959 
-0.0005937391973028306 
-0.0004012665875775808 
0.001291117935020384 
-0.001580197860857082 
0 
-0.0004012665875775808 
-0.001291117935020384 
0.0001014850916616853 
0.001319694748660596 
-0.001545621765416905 
0 
0.0001014850916616853 
-0.001319694748660596 
-9.724622505702659e-05 
0.000993391700592354 
-0.001225831245474642 
0 
-9.724622505702659e-05 
-0.000993391700592354 
-0.0002439782165152451 
-0.0007173530132860506 
0.0007817471583902024 
0 
-0.0002439782165152451 
0.0007173530132860506 
0.0001878105876443501 
-0.0002322992804357867 
0.0002109673684276355 
0 
0.0001878105876443501 
0.0002322992804357867 
8.787795731368336e-05 
-0.001036915976898572 
0.001171746706686943 
0 
8.787795731368336e-05 
0.001036915976898572 
0.0001767623443005242 
-4.891539164615523e-05 
-1.484072702511493e-05 
0 
0.0001767623443005242 
4.891539164615523e-05 
-0.0002463562496781514 
-0.0007132478970428534 
0.0007280857678803939 
0 
-0.0002463562496781514 
0.0007132478970428534 
6.960098232687347e-05 
0.00120256972730591 
-0.001462141947281965 
0 
6.960098232687347e-05 
-0.00120256972730591 
-3.729886590305377e-05 
0.001337556985599943 
-0.001577740777727129 
0 
-3.729886590305377e-05 
-0.001337556985599943 
8.507741443185044e-05 
0.0005977560298644822 
-0.0007705951029529816 
0 
8.507741443185044e-05 
-0.0005977560298644822 
-1.855308289560897e-05 
-0.0007490558804744399 
0.0007607795164265811 
0 
-1.855308289560897e-05 
0.0007490558804744399 
5.901454890414859e-05 
-0.0005290305543011488 
0.0005597648716560303 
0 
5.901454890414859e-05 
0.0005290305543011488 
0.0003166917215546129 
-0.001068202418101541 
0.001162077653746092 
0 
0.0003166917215546129 
0.001068202418101541 
0.0001261735178562071 
2.9515395782187e-05 
-0.00010523671057934 
0 
0.0001261735178562071 
-2.9515395782187e-05 
5.450312771370205e-05 
-0.0004013217374476454 
0.0004514000617454296 
0 
5.450312771370205e-05 
0.0004013217374476454 
0.000153123972687705 
-3.459542563303352e-05 
-1.006700394185718e-05 
0 
0.000153123972687705 
3.459542563303352e-05 
5.924768449291947e-05 
0.0008334840018974296 
-0.001061541355227306 
0 
5.924768449291947e-05 
-0.0008334840018974296 
8.744109402833758e-05 
0.001225899297202963 
-0.001525897132386746 
0 
8.744109402833758e-05 
-0.001225899297202963 
-0.0002731768471162019 
-0.0007201224266996924 
0.0007897220777222395 
0 
-0.0002731768471162019 
0.0007201224266996924 
6.372157028642591e-05 
-0.0003725000319255704 
0.000348251032900166 
0 
6.372157028642591e-05 
0.0003725000319255704 
0.0002225183634709972 
-0.000183822187719877 
0.0001162269216072495 
0 
0.0002225183634709972 
0.000183822187719877 
0.0001918265279920854 
0.0001104050960158107 
-0.0001810629010749464 
0 
0.0001918265279920854 
-0.0001104050960158107 
0.00027232625584435 
-0.001098326513478085 
0.00115430145051597 
0 
0.00027232625584435 
0.001098326513478085 
-0.0001634789196662922 
0.0001397584800478022 
-0.0002595152376150693 
0 
-0.0001634789196662922 
-0.0001397584800478022 
3.488642491768524e-06 
0.00032251735550066 
-0.0004564624272467697 
0 
3.488642491768524e-06 
-0.00032251735550066 
0.0003988485553459625 
0.001285335688392037 
-0.00148430917300041 
0 
0.0003988485553459625 
-0.001285335688392037 
-0.0001954914202293742 
-0.0006697359907905296 
0.0006930287445702379 
0 
-0.0001954914202293742 
0.0006697359907905296 
0.000258301721103417 
-0.0003717304459916325 
0.0003728129612313768 
0 
0.000258301721103417 
0.0003717304459916325 
8.591709012353657e-05 
-0.0006399285519633003 
0.0006713953304012026 
0 
8.591709012353657e-05 
0.0006399285519633003 
0.0002225778923913504 
0.0009335127789041333 
-0.00115330374593328 
0 
0.0002225778923913504 
-0.0009335127789041333 
5.434491422582907e-05 
-0.0001241007290085427 
6.288182310535378e-05 
0 
5.434491422582907e-05 
0.0001241007290085427 
0.0003180317789891479 
0.0004113665461923447 
-0.0005208711823033467 
0 
0.0003180317789891479 
-0.0004113665461923447 
0.0003028508537647646 
-0.000783980401294879 
0.0008373405886332045 
0 
0.0003028508537647646 
0.000783980401294879 
0.0003470682065824189 
-8.749495844976828e-05 
2.420295580167057e-05 
0 
0.0003470682065824189 
8.749495844976828e-05 
-0.000293970869854094 
-0.001845790015710025 
0.001971536722575273 
0 
-0.000293970869854094 
0.001845790015710025 
9.227039515716469e-05 
-7.149149434761486e-05 
5.825576504312042e-05 
0 
9.227039515716469e-05 
7.149149434761486e-05 
0.0001624497744553885 
0.0003894372106767645 
-0.000497070979460128 
0 
0.0001624497744553885 
-0.0003894372106767645 
-2.960316298049365e-05 
0.001364817289555397 
-0.001641407852766629 
0 
-2.960316298049365e-05 
-0.001364817289555397 
3.545100163693223e-05 
-0.0004410190869762696 
0.0004661042010918581 
0 
3.545100163693223e-05 
0.0004410190869762696 
0.0003457852551749489 
-0.0004254542685879435 
0.0004379031993151476 
0 
0.0003457852551749489 
0.0004254542685879435 
0.0002914329540303602 
-0.0001059955632344652 
5.364632294607666e-05 
0 
0.0002914329540303602 
0.0001059955632344652 
0.0002627620356253913 
0.0004696121496821286 
-0.0006075715374548239 
0 
0.0002627620356253913 
-0.0004696121496821286 
9.811175733210506e-07 
-0.002430213544427788 
0.002708851699643286 
0 
9.811175733210506e-07 
0.002430213544427788 
-5.437923378529695e-05 
-0.0003358121474514238 
0.0002912251354385941 
0 
-5.437923378529695e-05 
0.0003358121474514238 
5.371274847938989e-05 
0.0003704392515621072 
-0.000535857312848506 
0 
5.371274847938989e-05 
-0.0003704392515621072 
-6.039469418638483e-05 
0.0008618280383450285 
-0.001048691940563915 
0 
-6.039469418638483e-05 
-0.0008618280383450285 
-0.0004491051885050332 
0.0003002631550922138 
-0.0004578173457571741 
0 
-0.0004491051885050332 
-0.0003002631550922138 
-0.000207796027569277 
0.001582722691005983 
-0.001887354942753313 
0 
-0.000207796027569277 
-0.001582722691005983 
-0.0002265639855419146 
0.001312816708054457 
-0.001631550357990253 
0 
-0.0002265639855419146 
-0.001312816708054457 
-8.830618374149187e-05 
-0.0004728322101307622 
0.0004479244085832746 
0 
-8.830618374149187e-05 
0.0004728322101307622 
-0.0005012416957338282 
-0.001492407411430408 
0.00167535322001673 
0 
-0.0005012416957338282 
0.001492407411430408 
-8.896061527064401e-05 
-0.00039418851358036 
0.0003725350255188648 
0 
-8.896061527064401e-05 
0.00039418851358036 
7.003085686094275e-05 
0.001172740853644235 
-0.001462192745398367 
0 
7.003085686094275e-05 
-0.001172740853644235 
-0.0001229315793125013 
0.001139972195303206 
-0.00141535490802439 
0 
-0.0001229315793125013 
-0.001139972195303206 
-0.0002593506917989377 
0.0004075590900115473 
-0.0005645143155533824 
0 
-0.0002593506917989377 
-0.0004075590900115473 
-0.000141016902314941 
0.0007065461492866556 
-0.0008817769856725134 
0 
-0.000141016902314941 
-0.0007065461492866556 
5.034273247475305e-05 
-0.0001077207947568928 
8.573546611203622e-06 
0 
5.034273247475305e-05 
0.0001077207947568928 
-0.000113084995575646 
-8.284580887214161e-06 
-4.45189982070806e-05 
0 
-0.000113084995575646 
8.284580887214161e-06 
-0.0007714288177424472 
-0.002347269375929256 
0.00259265291193319 
0 
-0.0007714288177424472 
0.002347269375929256 
-4.671233777634607e-05 
0.001718306377201354 
-0.002095730453708983 
0 
-4.671233777634607e-05 
-0.001718306377201354 
-0.0002646438541821247 
0.002302346660786113 
-0.002743963425339349 
0 
-0.0002646438541821247 
-0.002302346660786113 
-0.0002670767657841752 
0.000922909988307562 
-0.001146284870585927 
0 
-0.0002670767657841752 
-0.000922909988307562 
-8.317138497396841e-05 
1.668185826573218e-06 
-9.691876793132924e-05 
0 
-8.317138497396841e-05 
-1.668185826573218e-06 
-0.0004087152510092481 
-1.640788821582967e-05 
-6.67408006304098e-05 
0 
-0.0004087152510092481 
1.640788821582967e-05 
8.117954823582775e-05 
-0.001198846378384861 
0.001272814918057989 
0 
8.117954823582775e-05 
0.001198846378384861 
-0.0001032484194702434 
0.0007070911593769538 
-0.0009145188781440449 
0 
-0.0001032484194702434 
-0.0007070911593769538 
-0.0003975102304983943 
-0.00091123877654088 
0.0009665065064039407 
0 
-0.0003975102304983943 
0.00091123877654088 
4.000518911267973e-05 
8.009021160601635e-05 
-0.0002062693544343431 
0 
4.000518911267973e-05 
-8.009021160601635e-05 
-0.0001873937273401216 
0.000331458260696958 
-0.0004647544914249765 
0 
-0.0001873937273401216 
-0.000331458260696958 
-0.0001082166597461331 
0.0006031797058193394 
-0.0007761424390422407 
0 
-0.0001082166597461331 
-0.0006031797058193394 
-8.605900239078541e-06 
0.0009219367682446964 
-0.001125301466463095 
0 
-8.605900239078541e-06 
-0.0009219367682446964 
0.0001919896012015392 
0.001750037839530338 
-0.002078509552665106 
0 
0.0001919896012015392 
-0.001750037839530338 
-0.0002394801219951097 
-0.0006572804983388856 
0.0006686433465115959 
0 
-0.0002394801219951097 
0.0006572804983388856 
7.315794182631691e-05 
-0.001256194151570954 
0.001343194115230306 
0 
7.315794182631691e-05 
0.001256194151570954 
8.740084028109069e-05 
0.0001294343146131671 
-0.00029148111739366 
0 
8.740084028109069e-05 
-0.0001294343146131671 
-0.0001493244177051606 
-0.0006301790144069461 
0.0006343218834992082 
0 
-0.0001493244177051606 
0.0006301790144069461 
2.437028880011853e-05 
0.0005396719256267008 
-0.000732477622097643 
0 
2.437028880011853e-05 
-0.0005396719256267008 
-4.573568669859937e-05 
0.001032585145567059 
-0.00127711440886844 
0 
-4.573568669859937e-05 
-0.001032585145567059 
-0.000218849917669804 
0.001041858676329652 
-0.001288461659622919 
0 
-0.000218849917669804 
-0.001041858676329652 
-0.0001135522161499676 
0.0002500861392646543 
-0.000345518877141428 
0 
-0.0001135522161499676 
-0.0002500861392646543 
-2.503331352427111e-05 
-0.0008952399537023615 
0.000967349432364772 
0 
-2.503331352427111e-05 
0.0008952399537023615 
-0.0001128121600401529 
-0.0008408805402309065 
0.000888261511671876 
0 
-0.0001128121600401529 
0.0008408805402309065 
0.000137307325177423 
-0.0001085324386567685 
1.255297924504657e-05 
0 
0.000137307325177423 
0.0001085324386567685 
-0.0001381459571208242 
0.00111598994774167 
-0.001322462916431905 
0 
-0.0001381459571208242 
-0.00111598994774167 
-0.000126530152373457 
0.00113312372101702 
-0.001357019762208933 
0 
-0.000126530152373457 
-0.00113312372101702 
9.529657620131015e-05 
0.0008907387131378445 
-0.001061977840574317 
0 
9.529657620131015e-05 
-0.0008907387131378445 
-0.0002493471086036425 
-0.00030517506346974 
0.0002362914949538858 
0 
-0.0002493471086036425 
0.00030517506346974 
-0.0001211690628072166 
-0.0001240103962034958 
8.383094089118573e-05 
0 
-0.0001211690628072166 
0.0001240103962034958 
0.0001931053078309793 
-0.0002624472027105364 
0.0002613717192945261 
0 
0.0001931053078309793 
0.0002624472027105364 
-0.0005389787547851218 
-0.00111753003663457 
0.001186217499752047 
0 
-0.0005389787547851218 
0.00111753003663457 
1.27935448694536e-05 
-0.001133886932745755 
0.001224786242361392 
0 
1.27935448694536e-05 
0.001133886932745755 
6.008445436580156e-05 
-0.0006276787459772281 
0.0006636414466360691 
0 
6.008445436580156e-05 
0.0006276787459772281 
7.019137259350849e-05 
-0.0005836124361948799 
0.0005399687503287288 
0 
7.019137259350849e-05 
0.0005836124361948799 
-0.0001707704609556172 
0.0007777476135241132 
-0.0009761181346459788 
0 
-0.0001707704609556172 
-0.0007777476135241132 
-0.0001559072032913888 
0.0003765624017558361 
-0.0004578808198502905 
0 
-0.0001559072032913888 
-0.0003765624017558361 
9.921913454632528e-05 
0.0006023124536894485 
-0.000749511203143835 
0 
9.921913454632528e-05 
-0.0006023124536894485 
0.0001609769448834473 
0.001185402120775702 
-0.001508258695848878 
0 
0.0001609769448834473 
-0.001185402120775702 
-7.900444848009589e-05 
-0.0005247333220660799 
0.0005275769522847344 
0 
-7.900444848009589e-05 
0.0005247333220660799 
-0.0003564160631598355 
-0.001250648543850551 
0.00132946881595198 
0 
-0.0003564160631598355 
0.001250648543850551 
8.942783171633915e-05 
0.0006392510926423645 
-0.0007887401615065406 
0 
8.942783171633915e-05 
-0.0006392510926423645 
-0.0003312796467425084 
0.0004053149013127292 
-0.0005079835916728905 
0 
-0.0003312796467425084 
-0.0004053149013127292 
-0.000215308498058745 
0.0005054527226032331 
-0.0006831142793123703 
0 
-0.000215308498058745 
-0.0005054527226032331 
-0.0003624598575380072 
0.000626811214394313 
-0.0008393716637526738 
0 
-0.0003624598575380072 
-0.000626811214394313 
-6.382353879791117e-05 
0.0003859152372328868 
-0.0005479267382855086 
0 
-6.382353879791117e-05 
-0.0003859152372328868 
-0.0005899415117236365 
0.001154258611718386 
-0.001434268764114358 
0 
-0.0005899415117236365 
-0.001154258611718386 
-0.000148950467149462 
-5.146637075883248e-05 
-2.559226361807235e-05 
0 
-0.000148950467149462 
5.146637075883248e-05 
-0.0001951030057575406 
-0.0008482054872795436 
0.0009431990319515973 
0 
-0.0001951030057575406 
0.0008482054872795436 
-0.0002221570810874661 
6.508832132024064e-05 
-0.0001324075441817281 
0 
-0.0002221570810874661 
-6.508832132024064e-05 
-2.323884416169053e-05 
0.0001481739544758707 
-0.0002530813913037894 
0 
-2.323884416169053e-05 
-0.0001481739544758707 
-0.0002105041644416385 
0.0005057393729661099 
-0.0006839052715404381 
0 
-0.0002105041644416385 
-0.0005057393729661099 
-0.0002221466403072839 
0.000221543283788813 
-0.000379899946948483 
0 
-0.0002221466403072839 
-0.000221543283788813 
-7.443599754281293e-05 
0.001012966779664728 
-0.001250411264340377 
0 
-7.443599754281293e-05 
-0.001012966779664728 
6.801536345286788e-06 
0.0002810941471794289 
-0.0004880312685243548 
0 
6.801536345286788e-06 
-0.0002810941471794289 
-0.0001916717751235852 
2.86464680034409e-05 
-6.388245037773162e-05 
0 
-0.0001916717751235852 
-2.86464680034409e-05 
-7.577223971757476e-05 
-0.0005828351583598568 
0.0005957812268304467 
0 
-7.577223971757476e-05 
0.0005828351583598568 
-0.0003232881796878098 
-0.001678704291043252 
0.001884799343993934 
0 
-0.0003232881796878098 
0.001678704291043252 
-0.0004309472154961253 
-3.593855638216116e-06 
-5.806567946003821e-05 
0 
-0.0004309472154961253 
3.593855638216116e-06 
-0.0003964131602543886 
0.001525614578636577 
-0.001856579594104565 
0 
-0.0003964131602543886 
-0.001525614578636577 
-0.0004451092241670407 
0.001060990566165847 
-0.001367866340938802 
0 
-0.0004451092241670407 
-0.001060990566165847 
-0.000385879139380889 
0.002357877137086556 
-0.002845611387589405 
0 
-0.000385879139380889 
-0.002357877137086556 
-0.0002113759551930538 
0.001105622379029521 
-0.001395692292677348 
0 
-0.0002113759551930538 
-0.001105622379029521 
-0.0002977923172075335 
-0.001016573480092286 
0.000995267123033528 
0 
-0.0002977923172075335 
0.001016573480092286 
0.0004028678404715927 
0.001018688495050898 
-0.001210522763791379 
0 
0.0004028678404715927 
-0.001018688495050898 
7.728025124195911e-05 
-0.00201005443238153 
0.002192472884005439 
0 
7.728025124195911e-05 
0.00201005443238153 
-0.000337566274183796 
0.0002004451972684402 
-0.0003641391982186493 
0 
-0.000337566274183796 
-0.0002004451972684402 
-0.0008385017961109546 
0.001857819302875073 
-0.002332631306813414 
0 
-0.0008385017961109546 
-0.001857819302875073 
-0.0009872247673269922 
0.003524498712397804 
-0.004220851058222777 
0 
-0.0009872247673269922 
-0.003524498712397804 
-8.561828520941456e-05 
0.001337592526422214 
-0.001638980078885532 
0 
-8.561828520941456e-05 
-0.001337592526422214 
-0.0008933420407876413 
-0.003114405786066909 
0.003526733910626326 
0 
-0.0008933420407876413 
0.003114405786066909 
-6.874052848683261e-05 
9.717299787654932e-05 
-0.0001982025848587842 
0 
-6.874052848683261e-05 
-9.717299787654932e-05 
8.81977923502425e-05 
0.0006131245114628945 
-0.000766450438692572 
0 
8.81977923502425e-05 
-0.0006131245114628945 
0.0001404287813501272 
-0.002117321452497998 
0.002409585800234794 
0 
0.0001404287813501272 
0.002117321452497998 
0.0002190115022361181 
-0.001555835070948717 
0.001760215959641705 
0 
0.0002190115022361181 
0.001555835070948717 
0.0001912040836565468 
0.0003934434090589559 
-0.0004857273756654308 
0 
0.0001912040836565468 
-0.0003934434090589559 
8.123208743484328e-05 
-0.0003387574223517906 
0.0002810399104640956 
0 
8.123208743484328e-05 
0.0003387574223517906 
-5.247905279481213e-05 
-0.00082688032002786 
0.0008160874093487245 
0 
-5.247905279481213e-05 
0.00082688032002786 
4.824928145982502e-05 
0.001531034454369502 
-0.001834112441102226 
0 
4.824928145982502e-05 
-0.001531034454369502 
7.675614088989988e-06 
0.001845201097064458 
-0.002170942056884056 
0 
7.675614088989988e-06 
-0.001845201097064458 
0.0002190893242518095 
-0.0002508396777381191 
0.0002029944982397593 
0 
0.0002190893242518095 
0.0002508396777381191 
0.0002396904646678452 
-0.0003297991219693804 
0.0003602122502931648 
0 
0.0002396904646678452 
0.0003297991219693804 
0.0002613095551410856 
-0.0002749893573357502 
0.000268868684596682 
0 
0.0002613095551410856 
0.0002749893573357502 
0.0001743405505357536 
-0.001014169176763956 
0.00115343950337768 
0 
0.0001743405505357536 
0.001014169176763956 
0.000212226078202802 
0.0002973698559616354 
-0.0003977229993461157 
0 
0.000212226078202802 
-0.0002973698559616354 
3.53536924089266e-05 
0.0001704195422189289 
-0.0002513663280775815 
0 
3.53536924089266e-05 
-0.0001704195422189289 
5.409740927039972e-05 
-0.0001388980726925265 
8.997284228823476e-05 
0 
5.409740927039972e-05 
0.0001388980726925265 
3.017918428345575e-05 
0.000674626337713758 
-0.0008271924177937793 
0 
3.017918428345575e-05 
-0.000674626337713758 
0.0003024118278117361 
0.0005198929333021548 
-0.0006543444835794703 
0 
0.0003024118278117361 
-0.0005198929333021548 
0.0003311525608383515 
-0.0002577600926836344 
0.0002507387474228426 
0 
0.0003311525608383515 
0.0002577600926836344 
-3.549220208684855e-05 
-0.0002773820585959814 
0.0002344804220864748 
0 
-3.549220208684855e-05 
0.0002773820585959814 
-0.0001217478994778962 
2.341713178428055e-05 
-7.12514595747471e-05 
0 
-0.0001217478994778962 
-2.341713178428055e-05 
0.0002500025367769598 
0.0005952493470274199 
-0.000767289952820626 
0 
0.0002500025367769598 
-0.0005952493470274199 
7.694824203949463e-05 
0.0001957011422548649 
-0.0002804728813690005 
0 
7.694824203949463e-05 
-0.0001957011422548649 
0.0003731176265067686 
-0.0003067009970671973 
0.0002637365089798623 
0 
0.0003731176265067686 
0.0003067009970671973 
0.000194867524194357 
-0.0018475514104789 
0.002027583604170473 
0 
0.000194867524194357 
0.0018475514104789 
-7.281155277981037e-05 
0.001223004498687528 
-0.001534305109667474 
0 
-7.281155277981037e-05 
-0.001223004498687528 
4.587503546040748e-05 
-0.0009568371483785845 
0.001000957134273043 
0 
4.587503546040748e-05 
0.0009568371483785845 
-1.658598697726869e-05 
-0.0001327663096068094 
2.827044209909245e-05 
0 
-1.658598697726869e-05 
0.0001327663096068094 
4.149361500164962e-05 
0.0004572367803502964 
-0.0005864339953515583 
0 
4.149361500164962e-05 
-0.0004572367803502964 
0.0002968489876000186 
-0.0001767724817415439 
0.0001302359437165219 
0 
0.0002968489876000186 
0.0001767724817415439 
-6.691073976826849e-05 
-0.0007699965731792108 
0.000765377207353618 
0 
-6.691073976826849e-05 
0.0007699965731792108 
8.606639866101494e-05 
-0.0004637810758203866 
0.000455818974300846 
0 
8.606639866101494e-05 
0.0004637810758203866 
-7.72905043237063e-05 
0.0004168951316918545 
-0.000563647770353816 
0 
-7.72905043237063e-05 
-0.0004168951316918545 
0.0003151182259723887 
0.001354074559307447 
-0.001694524230794078 
0 
0.0003151182259723887 
-0.001354074559307447 
0.0002156597343729626 
-0.001053693783609777 
0.001100000743732509 
0 
0.0002156597343729626 
0.001053693783609777 
-0.0001423724563835752 
-0.0009597868685765523 
0.001047914750398404 
0 
-0.0001423724563835752 
0.0009597868685765523 
0.000210232518082919 
0.0006978477733701532 
-0.0008548605407099315 
0 
0.000210232518082919 
-0.0006978477733701532 
0.0003599792625751682 
-0.0004727038068347786 
0.0004794615271833958 
0 
0.0003599792625751682 
0.0004727038068347786 
0.0001356303241157094 
-0.0007556452727139844 
0.000830595950115517 
0 
0.0001356303241157094 
0.0007556452727139844 
-6.940647783318818e-05 
2.721211553260466e-05 
-0.0001299008321759021 
0 
-6.940647783318818e-05 
-2.721211553260466e-05 
-0.000158972851674707 
0.0002317524106793211 
-0.0003680668396039407 
0 
-0.000158972851674707 
-0.0002317524106793211 
0.000394500649032868 
-0.0005153629035288783 
0.0004438408360978249 
0 
0.000394500649032868 
0.0005153629035288783 
0.0001512811619311804 
4.435173115889869e-05 
-6.540650349937119e-05 
0 
0.0001512811619311804 
-4.435173115889869e-05 
0.0001842056300895125 
-0.0004126116507039205 
0.0004012392491818399 
0 
0.0001842056300895125 
0.0004126116507039205 
0.0002057535013417363 
0.0009926229021704073 
-0.00116367911592368 
0 
0.0002057535013417363 
-0.0009926229021704073 
0.0001772915600498611 
-0.0002686646823291315 
0.0002409575715630741 
0 
0.0001772915600498611 
0.0002686646823291315 
0.0002796148436514837 
-0.0005942387988107455 
0.0006277790601226391 
0 
0.0002796148436514837 
0.0005942387988107455 
0.000223971787781686 
-0.0007715251758028624 
0.0008409609529981899 
0 
0.000223971787781686 
0.0007715251758028624 
0.0002144901659741676 
-0.0002526662061963342 
0.0002144873904002045 
0 
0.0002144901659741676 
0.0002526662061963342 
-4.65240080120356e-05 
0.0001111561726961283 
-0.0001469354085559416 
0 
-4.65240080120356e-05 
-0.0001111561726961283 
0.0001611200989459826 
-0.0003644321262928943 
0.0003133024346835243 
0 
0.0001611200989459826 
0.0003644321262928943 
0.0002298601697874827 
-0.0002044051921072173 
0.0001828458811987956 
0 
0.0002298601697874827 
0.0002044051921072173 
0.000256095425524356 
0.000453248284569952 
-0.0006029540505789703 
0 
0.000256095425524356 
-0.000453248284569952 
0.0005350491377632874 
-0.001463809883403339 
0.001613551780636101 
0 
0.0005350491377632874 
0.001463809883403339 
0.0001543847736560958 
-0.0004353057739208009 
0.0004346324164189197 
0 
0.0001543847736560958 
0.0004353057739208009 
0.0001882797253594637 
5.313312170971375e-05 
-7.824749391325024e-05 
0 
0.0001882797253594637 
-5.313312170971375e-05 
0.0003340735217806564 
0.0002653788436199334 
-0.0003245707243789521 
0 
0.0003340735217806564 
-0.0002653788436199334 
-0.0001671494596602579 
-0.0005081937072929106 
0.000534012129037777 
0 
-0.0001671494596602579 
0.0005081937072929106 
7.98686194506582e-05 
0.0005482313145706091 
-0.0007057694191650385 
0 
7.98686194506582e-05 
-0.0005482313145706091 
-4.499652178104379e-05 
-0.0006888789745760646 
0.0007023242050162151 
0 
-4.499652178104379e-05 
0.0006888789745760646 
-0.0002030556467257727 
0.000498687295135563 
-0.0006683027484785098 
0 
-0.0002030556467257727 
-0.000498687295135563 
-2.757333444850214e-05 
0.0005571176098055525 
-0.0007672941206152098 
0 
-2.757333444850214e-05 
-0.0005571176098055525 
0.000342328250687037 
-0.0003604274646646484 
0.0004126619818012956 
0 
0.000342328250687037 
0.0003604274646646484 
0.0003167009163555718 
-0.0003851919457225257 
0.0004188907873740251 
0 
0.0003167009163555718 
0.0003851919457225257 
0.0002422883990194043 
0.0001172968925695329 
-0.0001790291769133892 
0 
0.0002422883990194043 
-0.0001172968925695329 
-5.250210742575325e-05 
-0.001989332395795911 
0.002206206766264265 
0 
-5.250210742575325e-05 
0.001989332395795911 
9.912566118040445e-05 
-1.858615301310298e-05 
-3.546689076641654e-05 
0 
9.912566118040445e-05 
1.858615301310298e-05 
-2.595486449439655e-05 
-0.0004636538747309268 
0.0004882514195092704 
0 
-2.595486449439655e-05 
0.0004636538747309268 
-3.167767910925574e-05 
0.0008055755887859063 
-0.001006520330291286 
0 
-3.167767910925574e-05 
-0.0008055755887859063 
-0.000344759061788006 
0.001026229208109092 
-0.001293958621283364 
0 
-0.000344759061788006 
-0.001026229208109092 
-0.0003121926780207677 
0.001213574829138844 
-0.001464242596932418 
0 
-0.0003121926780207677 
-0.001213574829138844 
0.0003044310460308743 
0.0007357183193708315 
-0.0008016481527856668 
0 
0.0003044310460308743 
-0.0007357183193708315 
0.0001638956016753424 
-0.0006610513243628642 
0.000652506654137544 
0 
0.0001638956016753424 
0.0006610513243628642 
-1.354052175220499e-05 
-0.0006520412790005812 
0.0006709487964810974 
0 
-1.354052175220499e-05 
0.0006520412790005812 
0.00021518067855761 
-0.0008660501831190584 
0.0009455949025885365 
0 
0.00021518067855761 
0.0008660501831190584 
0.0004067338394229466 
-0.0009187921386641083 
0.0009728856695737323 
0 
0.0004067338394229466 
0.0009187921386641083 
-0.0002694234062808916 
0.0003349908081674866 
-0.0005306968318587929 
0 
-0.0002694234062808916 
-0.0003349908081674866 
0.0001956426424744541 
-0.0003798635225975722 
0.0003590779971486292 
0 
0.0001956426424744541 
0.0003798635225975722 
0.0002813717095358952 
-4.191952757825768e-06 
-7.269960407605083e-05 
0 
0.0002813717095358952 
4.191952757825768e-06 
0.0001078825305160517 
0.0007300708375551292 
-0.0009146112718856558 
0 
0.0001078825305160517 
-0.0007300708375551292 
0.0001008083669955687 
0.0005983308470544823 
-0.0008008775599679533 
0 
0.0001008083669955687 
-0.0005983308470544823 
3.840720683275847e-05 
-0.002096400788409082 
0.002294436533112859 
0 
3.840720683275847e-05 
0.002096400788409082 
0.0003399738770429463 
8.095744965924124e-05 
-0.0001213007710448151 
0 
0.0003399738770429463 
-8.095744965924124e-05 
-0.0001110490827207401 
-0.0003285173267098892 
0.0002863648996943247 
0 
-0.0001110490827207401 
0.0003285173267098892 
-6.87865884757669e-05 
0.0005409024006805016 
-0.0006716332547109381 
0 
-6.87865884757669e-05 
-0.0005409024006805016 
-0.000191491233722014 
0.0002853261100206078 
-0.0004182265127945125 
0 
-0.000191491233722014 
-0.0002853261100206078 
0.0001244202726396429 
-0.0002276999153532282 
0.0002238268374678201 
0 
0.0001244202726396429 
0.0002276999153532282 
0.000224262294963931 
0.001154410414867517 
-0.001345629060882242 
0 
0.000224262294963931 
-0.001154410414867517 
0.0003457674614317009 
0.0001476982272065783 
-0.0002409866690757723 
0 
0.0003457674614317009 
-0.0001476982272065783 
-9.813782228767972e-05 
-0.002419013742549868 
0.002651215739066195 
0 
-9.813782228767972e-05 
0.002419013742549868 
0.0002883764947376803 
-0.0007401347217954372 
0.0007640729012211872 
0 
0.0002883764947376803 
0.0007401347217954372 
0.0001359831219344492 
0.0007457615015147249 
-0.0009215078696561686 
0 
0.0001359831219344492 
-0.0007457615015147249 
2.138357083423866e-05 
-7.926104834128171e-05 
1.361080949044584e-05 
0 
2.138357083423866e-05 
7.926104834128171e-05 
-0.0001316112742965112 
-2.356116139959469e-05 
-0.0001011640222596656 
0 
-0.0001316112742965112 
2.356116139959469e-05 
-2.067436457800949e-05 
0.001008061798718559 
-0.001221619201291505 
0 
-2.067436457800949e-05 
-0.001008061798718559 
3.235106279013553e-05 
0.0004241247139931208 
-0.0005141339935775222 
0 
3.235106279013553e-05 
-0.0004241247139931208 
0.0003622650881030265 
0.0005067371082001458 
-0.0006477306895014137 
0 
0.0003622650881030265 
-0.0005067371082001458 
7.875130907828394e-05 
-0.0009769252270733133 
0.001138282702943819 
0 
7.875130907828394e-05 
0.0009769252270733133 
0.0002351790831749709 
0.0006317434006680822 
-0.0007456785541023878 
0 
0.0002351790831749709 
-0.0006317434006680822 
0.0003552508199814403 
-0.0002858346183106822 
0.0002728997240788416 
0 
0.0003552508199814403 
0.0002858346183106822 
2.98561826751281e-05 
0.0002454248413354377 
-0.0003298023710984095 
0 
2.98561826751281e-05 
-0.0002454248413354377 
0.0001276123592695454 
-0.0008013313452186648 
0.0008604368094788192 
0 
0.0001276123592695454 
0.0008013313452186648 
-3.516747108503149e-05 
0.0001174156644208405 
-0.0001975988109245132 
0 
-3.516747108503149e-05 
-0.0001174156644208405 
0.0004054314869048277 
0.0007350558450176643 
-0.0008990284499490297 
0 
0.0004054314869048277 
-0.0007350558450176643 
0.0002623354857004798 
-0.0007222720522337879 
0.0007443542922281206 
0 
0.0002623354857004798 
0.0007222720522337879 
-0.0006918186425972019 
-0.002113217308402378 
0.002357643993976445 
0 
-0.0006918186425972019 
0.002113217308402378 
0.00020941368983047 
2.566133222394436e-05 
-6.331238732378682e-05 
0 
0.00020941368983047 
-2.566133222394436e-05 
0.000233154870733767 
-3.727471729602012e-05 
-4.069628156454978e-05 
0 
0.000233154870733767 
3.727471729602012e-05 
0.0001093700847002706 
0.001370194501407264 
-0.001575416286331703 
0 
0.0001093700847002706 
-0.001370194501407264 
-2.337177388534011e-05 
-0.0004880150240178259 
0.0004776845557849271 
0 
-2.337177388534011e-05 
0.0004880150240178259 
-2.237105144130771e-05 
-2.731284459185608e-05 
-6.683655892558677e-05 
0 
-2.237105144130771e-05 
2.731284459185608e-05 
0.0003003732150962157 
0.0004691662547420158 
-0.0006042733073826242 
0 
0.0003003732150962157 
-0.0004691662547420158 
0.0003295884445461819 
0.0006669954585090393 
-0.0008483143476478816 
0 
0.0003295884445461819 
-0.0006669954585090393 
-0.0005128117756421173 
-0.00305148614961533 
0.003469870449857743 
0 
-0.0005128117756421173 
0.00305148614961533 
4.76647897487357e-05 
0.0006489731548844813 
-0.0007976346899570713 
0 
4.76647897487357e-05 
-0.0006489731548844813 
2.517202267056464e-05 
0.0009764687783078341 
-0.001251375612322261 
0 
2.517202267056464e-05 
-0.0009764687783078341 
2.960601976618165e-05 
0.000802081715071521 
-0.0009862515551979669 
0 
2.960601976618165e-05 
-0.000802081715071521 
2.712786776782038e-05 
-0.0007150403804797828 
0.0007461622941076603 
0 
2.712786776782038e-05 
0.0007150403804797828 
-5.22734653274857e-05 
-0.0002368468506533049 
0.0001921725357266617 
0 
-5.22734653274857e-05 
0.0002368468506533049 
3.88849313834117e-05 
0.001270797686598463 
-0.001526108859965867 
0 
3.88849313834117e-05 
-0.001270797686598463 
-3.290032439134235e-05 
0.001130026642888272 
-0.001353847519015703 
0 
-3.290032439134235e-05 
-0.001130026642888272 
-0.0007234010302654845 
-0.003720565508672649 
0.004298837094164077 
0 
-0.0007234010302654845 
0.003720565508672649 
-0.0001541254681307978 
0.001434023036627925 
-0.00164693032807712 
0 
-0.0001541254681307978 
-0.001434023036627925 
-7.628859044608897e-05 
0.001938330679847029 
-0.002345315087498579 
0 
-7.628859044608897e-05 
-0.001938330679847029 
-8.461429591574918e-05 
-5.985024251107064e-05 
-6.929005040799976e-05 
0 
-8.461429591574918e-05 
5.985024251107064e-05 
-0.0003230923196495209 
-0.0004328494716497751 
0.0004099456935399791 
0 
-0.0003230923196495209 
0.0004328494716497751 
-0.0004072507569069821 
0.001452605804033683 
-0.001764816475003667 
0 
-0.0004072507569069821 
-0.001452605804033683 
-0.0001429395631280737 
0.001556302455580049 
-0.001873063291975419 
0 
-0.0001429395631280737 
-0.001556302455580049 
-6.415453608022262e-05 
0.0004495011868338345 
-0.0006265203362183123 
0 
-6.415453608022262e-05 
-0.0004495011868338345 
-0.0008597420246507256 
-0.003227033551051782 
0.003617835292891221 
0 
-0.0008597420246507256 
0.003227033551051782 
-0.0001757823328968868 
0.001763401454362744 
-0.002125345609856986 
0 
-0.0001757823328968868 
-0.001763401454362744 
-0.0001647328599072173 
0.001396197448717721 
-0.001741017962426619 
0 
-0.0001647328599072173 
-0.001396197448717721 
5.62700908982029e-05 
0.0003318838128881475 
-0.0004955629883924433 
0 
5.62700908982029e-05 
-0.0003318838128881475 
-5.465647690569305e-05 
-0.0007357155217929104 
0.0007523461515320589 
0 
-5.465647690569305e-05 
0.0007357155217929104 
-0.0001249209241756873 
0.0002872754528970912 
-0.0004511556917104538 
0 
-0.0001249209241756873 
-0.0002872754528970912 
-1.509521191706281e-05 
0.0002906873258888406 
-0.0004294943890883909 
0 
-1.509521191706281e-05 
-0.0002906873258888406 
0.0003711929664922037 
0.0008637018486773436 
-0.00105918295338196 
0 
0.0003711929664922037 
-0.0008637018486773436 
5.418520059485117e-05 
-0.001222007985094183 
0.001337923814777228 
0 
5.418520059485117e-05 
0.001222007985094183 
-9.114587790116905e-05 
0.001574607667019009 
-0.001850813987271968 
0 
-9.114587790116905e-05 
-0.001574607667019009 
-0.0001802699157994183 
0.001358562146788958 
-0.001630243051116698 
0 
-0.0001802699157994183 
-0.001358562146788958 
-0.0001778177573887895 
-0.0005386666550613371 
0.0004383843279407267 
0 
-0.0001778177573887895 
0.0005386666550613371 
1.215473822803182e-05 
-3.687237142306058e-05 
-3.838669737619661e-05 
0 
1.215473822803182e-05 
3.687237142306058e-05 
0.0001484002878872104 
0.0006314903248373219 
-0.000854218210645333 
0 
0.0001484002878872104 
-0.0006314903248373219 
-0.0001847643794620962 
0.0004564852909219918 
-0.0005974076862206765 
0 
-0.0001847643794620962 
-0.0004564852909219918 
2.787920965655681e-06 
-0.001680445784608267 
0.001884056787484493 
0 
2.787920965655681e-06 
0.001680445784608267 
-0.0001878301266980153 
0.000272827368074149 
-0.0003231937001138022 
0 
-0.0001878301266980153 
-0.000272827368074149 
-0.0002724348686003467 
0.000849355662652162 
-0.001096582554288865 
0 
-0.0002724348686003467 
-0.000849355662652162 
-0.0002668253248960443 
0.002186011591654414 
-0.002646877959041774 
0 
-0.0002668253248960443 
-0.002186011591654414 
-0.0002814855208706476 
0.0001158639475843889 
-0.000256041433410011 
0 
-0.0002814855208706476 
-0.0001158639475843889 
-0.0004039702009429515 
0.0001443451284353857 
-0.0003086862746436042 
0 
-0.0004039702009429515 
-0.0001443451284353857 
-0.000140372681675022 
3.759247045833368e-05 
-0.0001216130308029136 
0 
-0.000140372681675022 
-3.759247045833368e-05 
0.0001744856595791049 
0.0005715765568257653 
-0.000700489066241126 
0 
0.0001744856595791049 
-0.0005715765568257653 
-0.0005128189353606977 
-0.001813788709447983 
0.002053440524731419 
0 
-0.0005128189353606977 
0.001813788709447983 
5.685030731324538e-05 
-0.002090947000145617 
0.002324184543529883 
0 
5.685030731324538e-05 
0.002090947000145617 
4.784156360220307e-05 
0.0002461416611125077 
-0.0003458846845194708 
0 
4.784156360220307e-05 
-0.0002461416611125077 
0.0001451369537057657 
0.002368044616018352 
-0.002760222549154241 
0 
0.0001451369537057657 
-0.002368044616018352 
-0.0002076843437001267 
0.0004383506164533038 
-0.0005924157868736707 
0 
-0.0002076843437001267 
-0.0004383506164533038 
-0.0004944186912222843 
0.0003814756343303201 
-0.0005785172779839313 
0 
-0.0004944186912222843 
-0.0003814756343303201 
-0.0004608027102286145 
0.0005565237198617947 
-0.0007717696511016325 
0 
-0.0004608027102286145 
-0.0005565237198617947 
3.500412108434356e-05 
0.001378639604818748 
-0.00170453389176177 
0 
3.500412108434356e-05 
-0.001378639604818748 
-0.0001631406638271966 
-0.002056115669178402 
0.00230543476608654 
0 
-0.0001631406638271966 
0.002056115669178402 
-0.000202308329780004 
-0.001905077110715326 
0.002134368556571621 
0 
-0.000202308329780004 
0.001905077110715326 
0.000109655997103424 
0.0002339803241533498 
-0.0003373991288886583 
0 
0.000109655997103424 
-0.0002339803241533498 
-0.0001191257806463865 
0.001105379128442415 
-0.001363563033228043 
0 
-0.0001191257806463865 
-0.001105379128442415 
-0.0004565916902439246 
-0.000540656295450424 
0.000577520888707306 
0 
-0.0004565916902439246 
0.000540656295450424 
-0.0001951537373712782 
-0.0002529433962806989 
0.0001770062052731248 
0 
-0.0001951537373712782 
0.0002529433962806989 
-0.0002336630048558016 
0.0008646623230242523 
-0.001075702830206474 
0 
-0.0002336630048558016 
-0.0008646623230242523 
0.0004906608778776587 
0.002279974766010582 
-0.00280725703874905 
0 
0.0004906608778776587 
-0.002279974766010582 
3.099622790927786e-05 
-0.00120039696445999 
0.001269601072662437 
0 
3.099622790927786e-05 
0.00120039696445999 
-0.000136031483295068 
-0.001772302291678949 
0.001996614435171906 
0 
-0.000136031483295068 
0.001772302291678949 
0.0001896659057188993 
0.0001465066080372752 
-0.000208524459835416 
0 
0.0001896659057188993 
-0.0001465066080372752 
-0.0001128689274321177 
0.00148356745816665 
-0.001724475368294814 
0 
-0.0001128689274321177 
-0.00148356745816665 
-9.147327130253888e-05 
-0.0003135618043699003 
0.0002564616423099713 
0 
-9.147327130253888e-05 
0.0003135618043699003 
-4.229148993180805e-05 
7.811111158418922e-05 
-0.0001744706663923335 
0 
-4.229148993180805e-05 
-7.811111158418922e-05 
-0.0001938447303941871 
0.001245957902362634 
-0.001467340327766656 
0 
-0.0001938447303941871 
-0.001245957902362634 
0.0002889762556445133 
0.0003133328639562654 
-0.0004282731482310679 
0 
0.0002889762556445133 
-0.0003133328639562654 
-5.758710378702051e-05 
-0.0005435290969837361 
0.0005430272846934407 
0 
-5.758710378702051e-05 
0.0005435290969837361 
5.21927869628106e-05 
-0.0009604275689898238 
0.001059687814856932 
0 
5.21927869628106e-05 
0.0009604275689898238 
-0.0002950095088718738 
0.001255381426820887 
-0.00147013031346732 
0 
-0.0002950095088718738 
-0.001255381426820887 
-0.0002887758045972072 
0.0006620251859414759 
-0.0008409124831274171 
0 
-0.0002887758045972072 
-0.0006620251859414759 
-6.574517520242549e-05 
-0.000409529969936216 
0.0004016384196556972 
0 
-6.574517520242549e-05 
0.000409529969936216 
-4.685120691819433e-05 
-0.0005206856852260769 
0.0005320836087557241 
0 
-4.685120691819433e-05 
0.0005206856852260769 
0.0001725438697020314 
0.0009968905365412885 
-0.00124467847465007 
0 
0.0001725438697020314 
-0.0009968905365412885 
5.855398254928042e-05 
0.0007998584151488208 
-0.001078633858992282 
0 
5.855398254928042e-05 
-0.0007998584151488208 
2.655148509417621e-05 
-0.00127643892780121 
0.001367323336087364 
0 
2.655148509417621e-05 
0.00127643892780121 
-7.225768893274472e-05 
-0.0004271762458130739 
0.0003376049706640399 
0 
-7.225768893274472e-05 
0.0004271762458130739 
-0.0004877823098146718 
-0.00159581518825453 
0.001787367928534834 
0 
-0.0004877823098146718 
0.00159581518825453 
-0.0003951920558827653 
-3.227633770020713e-05 
-7.947541902723772e-05 
0 
-0.0003951920558827653 
3.227633770020713e-05 
-0.0003583556396035981 
0.0002453629865696342 
-0.0003888190625221889 
0 
-0.0003583556396035981 
-0.0002453629865696342 
-0.0002449154139118635 
0.0001181383003358534 
-0.0002705777615570986 
0 
-0.0002449154139118635 
-0.0001181383003358534 
-0.0003089355331698172 
0.001299581641676519 
-0.001617288886133039 
0 
-0.0003089355331698172 
-0.001299581641676519 
-0.0002886897284748707 
0.001700970189030241 
-0.002133964188746344 
0 
-0.0002886897284748707 
-0.001700970189030241 
-0.0001407036287533798 
0.0007713688825208096 
-0.001074038867738711 
0 
-0.0001407036287533798 
-0.0007713688825208096 
-0.0001179115468608381 
0.0014109091917034 
-0.001701563113608968 
0 
-0.0001179115468608381 
-0.0014109091917034 
-0.0001444466568489204 
-0.0007962225143622124 
0.0008638690346815783 
0 
-0.0001444466568489204 
0.0007962225143622124 
-0.0004084778657234589 
-0.0002933635193090641 
0.0002141679849740884 
0 
-0.0004084778657234589 
0.0002933635193090641 
-0.0003963803474491369 
0.002067307544751266 
-0.002527292533751179 
0 
-0.0003963803474491369 
-0.002067307544751266 
-0.0005170830803893532 
0.002573006800052463 
-0.003134106027271566 
0 
-0.0005170830803893532 
-0.002573006800052463 
-0.0004571000948003518 
-0.0002668469735215169 
0.0002088191172123094 
0 
-0.0004571000948003518 
0.0002668469735215169 
-0.0007247025368336648 
-0.002535977311426473 
0.002810428372403076 
0 
-0.0007247025368336648 
0.002535977311426473 
-8.543538439847431e-05 
0.0009417118185201732 
-0.001178206615572894 
0 
-8.543538439847431e-05 
-0.0009417118185201732 
-0.0001023815104761009 
-0.0008283178809500347 
0.0008379224972044994 
0 
-0.0001023815104761009 
0.0008283178809500347 
0.0002174917773600244 
-0.002467883799515498 
0.002823891999839808 
0 
0.0002174917773600244 
0.002467883799515498 
0.0002630619454182202 
-0.002393803778423943 
0.002687253437477812 
0 
0.0002630619454182202 
0.002393803778423943 
-0.0001552129186854621 
0.0003470668297643396 
-0.0004772190099027135 
0 
-0.0001552129186854621 
-0.0003470668297643396 
0.0002658801912613623 
0.001696403660436704 
-0.001977408182089578 
0 
0.0002658801912613623 
-0.001696403660436704 
-0.0002426253119215276 
0.0001161851495691795 
-0.000265738463800508 
0 
-0.0002426253119215276 
-0.0001161851495691795 
0.000115290720483779 
0.001352611934032497 
-0.001622095652051557 
0 
0.000115290720483779 
-0.001352611934032497 
-0.0001992400603195401 
0.002289249035522985 
-0.002703599057734092 
0 
-0.0001992400603195401 
-0.002289249035522985 
0.000268531068118436 
-0.0006773451220602146 
0.0006911953557199328 
0 
0.000268531068118436 
0.0006773451220602146 
0.0005998371749903826 
-0.0007664505155353414 
0.0008458607466841262 
0 
0.0005998371749903826 
0.0007664505155353414 
0.0001594109707991798 
-0.0003933476396806594 
0.0004383573478037254 
0 
0.0001594109707991798 
0.0003933476396806594 
-0.0002130262327795051 
-0.0008765726191280594 
0.0009420494032133863 
0 
-0.0002130262327795051 
0.0008765726191280594 
-0.0001094505216264917 
0.0008111011639563206 
-0.001007859408118507 
0 
-0.0001094505216264917 
-0.0008111011639563206 
-5.878598655653411e-05 
0.0007301313355054912 
-0.0009562884573315739 
0 
-5.878598655653411e-05 
-0.0007301313355054912 
4.999759809295509e-05 
0.0001595615624153272 
-0.0002569889612863405 
0 
4.999759809295509e-05 
-0.0001595615624153272 
3.911184928253124e-05 
0.0003947015842402621 
-0.0005634995159807881 
0 
3.911184928253124e-05 
-0.0003947015842402621 
0.0003074931694301821 
-0.0004747243077632462 
0.0004417503551546263 
0 
0.0003074931694301821 
0.0004747243077632462 
0.000307452007904749 
-0.000418033509217738 
0.0004243705982873314 
0 
0.000307452007904749 
0.000418033509217738 
2.324168850969547e-05 
-0.0006373584425507209 
0.0006681858138429808 
0 
2.324168850969547e-05 
0.0006373584425507209 
1.36105022434892e-05 
0.0005325094093559812 
-0.0006430754346617762 
0 
1.36105022434892e-05 
-0.0005325094093559812 
0.0001441009382552878 
0.000216773855847791 
-0.0003169896206610844 
0 
0.0001441009382552878 
-0.000216773855847791 
0.0002189356241790139 
0.0003958126151630847 
-0.00046210806936587 
0 
0.0002189356241790139 
-0.0003958126151630847 
0.0001842244159065927 
-3.55469137717466e-05 
-3.04880490303772e-07 
0 
0.0001842244159065927 
3.55469137717466e-05 
0.0002471200684099487 
-0.0008921418278623623 
0.0009136234915129905 
0 
0.0002471200684099487 
0.0008921418278623623 
6.64932145906321e-05 
0.001072351844209909 
-0.001336644149936411 
0 
6.64932145906321e-05 
-0.001072351844209909 
1.065458771300801e-05 
-0.0002999721939969633 
0.0002624306835186223 
0 
1.065458771300801e-05 
0.0002999721939969633 
8.194924779667411e-06 
8.126682183532153e-05 
-0.0001722599301791075 
0 
8.194924779667411e-06 
-8.126682183532153e-05 
3.6128300204693e-06 
0.0006140638786818822 
-0.0007542389214059416 
0 
3.6128300204693e-06 
-0.0006140638786818822 
0.0001524840860046152 
-0.0005672975187711178 
0.0006010299061664261 
0 
0.0001524840860046152 
0.0005672975187711178 
0.0001561661709341262 
-0.001260123063223213 
0.001376841272897051 
0 
0.0001561661709341262 
0.001260123063223213 
0.0001052816242186151 
-0.001098832676181315 
0.001214908272269073 
0 
0.0001052816242186151 
0.001098832676181315 
-0.0001226688231964999 
0.001287450489485777 
-0.001566563269214026 
0 
-0.0001226688231964999 
-0.001287450489485777 
0.000189591430665397 
0.0003087713512974088 
-0.0004208594236750357 
0 
0.000189591430665397 
-0.0003087713512974088 
0.0001267020667087122 
-0.0006209917472912895 
0.0006781076327111845 
0 
0.0001267020667087122 
0.0006209917472912895 
-9.324414615722557e-05 
-0.001989050124840074 
0.002210578432835909 
0 
-9.324414615722557e-05 
0.001989050124840074 
0.0002881351879774487 
0.0005687067506990937 
-0.0006581144116948493 
0 
0.0002881351879774487 
-0.0005687067506990937 
0.0002276293244250814 
-0.00048464245851466 
0.0004710242323447175 
0 
0.0002276293244250814 
0.00048464245851466 
0.0001645444009411693 
0.0003530802487342265 
-0.0004844158310322342 
0 
0.0001645444009411693 
-0.0003530802487342265 
5.516507074841188e-05 
0.0002602178776264761 
-0.0003576667735891836 
0 
5.516507074841188e-05 
-0.0002602178776264761 
-0.000139450511073292 
0.001006030626103762 
-0.001271347199031827 
0 
-0.000139450511073292 
-0.001006030626103762 
-0.0004293489822048221 
-0.0009913720661741947 
0.001075619075512178 
0 
-0.0004293489822048221 
0.0009913720661741947 
7.881975718987797e-05 
0.00113072447555074 
-0.001324728211062771 
0 
7.881975718987797e-05 
-0.00113072447555074 
-0.0002723473374431082 
0.0004778726143488459 
-0.0006099677579881196 
0 
-0.0002723473374431082 
-0.0004778726143488459 
-6.368078866871586e-06 
0.000559791316636194 
-0.0007326658045308613 
0 
-6.368078866871586e-06 
-0.000559791316636194 
-9.403944488611762e-05 
0.0001587630437777879 
-0.0002595324649791754 
0 
-9.403944488611762e-05 
-0.0001587630437777879 
4.119066509940372e-05 
-0.0003979717375837852 
0.0004015975750397018 
0 
4.119066509940372e-05 
0.0003979717375837852 
0.0001445032049521614 
-0.0003327510137786361 
0.0003557061057505517 
0 
0.0001445032049521614 
0.0003327510137786361 
0.0004605489470548872 
3.828177609707398e-05 
-8.670535353626715e-05 
0 
0.0004605489470548872 
-3.828177609707398e-05 
-0.0001079988014826705 
-0.0006340674780780681 
0.0005951758015671263 
0 
-0.0001079988014826705 
0.0006340674780780681 
-7.943561359842126e-05 
0.00110752418390063 
-0.001361532481006321 
0 
-7.943561359842126e-05 
-0.00110752418390063 
-0.0001530769442839863 
0.001018946150067697 
-0.001232609971543947 
0 
-0.0001530769442839863 
-0.001018946150067697 
-6.348314329575187e-05 
-0.0007161086519502902 
0.0007046720089628724 
0 
-6.348314329575187e-05 
0.0007161086519502902 
4.59931836936037e-05 
1.028267540357188e-05 
-6.23955358211751e-05 
0 
4.59931836936037e-05 
-1.028267540357188e-05 
3.635272564703019e-05 
-0.0002540761349181309 
0.0002456499821026943 
0 
3.635272564703019e-05 
0.0002540761349181309 
-5.079639655082358e-05 
-0.000290911335707456 
0.000279282267222914 
0 
-5.079639655082358e-05 
0.000290911335707456 
0.0002331545824071547 
8.025082206622195e-05 
-0.000153418279735177 
0 
0.0002331545824071547 
-8.025082206622195e-05 
-2.200377741400808e-05 
-0.0009678030547137097 
0.001016142547498956 
0 
-2.200377741400808e-05 
0.0009678030547137097 
0.0001177212000521619 
-0.0004736231981851541 
0.0004481690266932593 
0 
0.0001177212000521619 
0.0004736231981851541 
3.408934915611203e-05 
0.0001376211882850388 
-0.0002288527059165731 
0 
3.408934915611203e-05 
-0.0001376211882850388 
-3.357812594750547e-05 
-0.001500717347363308 
0.001596287054481411 
0 
-3.357812594750547e-05 
0.001500717347363308 
2.909941677795984e-05 
0.0001950597409527159 
-0.0003273033779915638 
0 
2.909941677795984e-05 
-0.0001950597409527159 
-0.0002431247840603633 
0.001388371368627208 
-0.001662455872617253 
0 
-0.0002431247840603633 
-0.001388371368627208 
-8.978488332433458e-05 
0.001523100363034152 
-0.001800667250724145 
0 
-8.978488332433458e-05 
-0.001523100363034152 
-0.0001322225498579323 
0.0002310510271829098 
-0.0003074429210313908 
0 
-0.0001322225498579323 
-0.0002310510271829098 
-0.0005542927163287983 
-0.002269107790832355 
0.002536079973227207 
0 
-0.0005542927163287983 
0.002269107790832355 
0.0001979873054366609 
0.0002877528223506014 
-0.0003493633367046678 
0 
0.0001979873054366609 
-0.0002877528223506014 
-0.0002093862184927596 
-6.265122502314764e-05 
-2.215386904611603e-05 
0 
-0.0002093862184927596 
6.265122502314764e-05 
-0.000268005926900565 
-0.0004799355824817105 
0.0004155308978288369 
0 
-0.000268005926900565 
0.0004799355824817105 
-0.0001708788099001364 
0.001571744906169778 
-0.001934595327734738 
0 
-0.0001708788099001364 
-0.001571744906169778 
-0.0004184103866519199 
0.00130212883531909 
-0.001617113301540521 
0 
-0.0004184103866519199 
-0.00130212883531909 
-0.0002919544655739557 
0.0009383508348668435 
-0.001164436376095064 
0 
-0.0002919544655739557 
-0.0009383508348668435 
-9.428358363549742e-06 
0.0007677634014233478 
-0.0009513891683090498 
0 
-9.428358363549742e-06 
-0.0007677634014233478 
-0.0003808074558962905 
-0.0008992828602360316 
0.0009693397601682181 
0 
-0.0003808074558962905 
0.0008992828602360316 
-0.0001491622686456945 
0.000671658111923668 
-0.0007813073714304301 
0 
-0.0001491622686456945 
-0.000671658111923668 
-9.158818645047544e-05 
0.001780865753495166 
-0.002097739608749649 
0 
-9.158818645047544e-05 
-0.001780865753495166 
-0.0004047547537531708 
0.0004827321808676109 
-0.0006942076951698384 
0 
-0.0004047547537531708 
-0.0004827321808676109 
3.051685488763355e-05 
-0.0002232482714323719 
0.0001952573320542595 
0 
3.051685488763355e-05 
0.0002232482714323719 
-7.721270447702307e-05 
0.0005311589871132701 
-0.000696266177306176 
0 
-7.721270447702307e-05 
-0.0005311589871132701 
-4.712348837665681e-05 
0.0002526099535955014 
-0.0003382769961111337 
0 
-4.712348837665681e-05 
-0.0002526099535955014 
1.5825318171201e-05 
-0.0008265428137917513 
0.0009098452434203056 
0 
1.5825318171201e-05 
0.0008265428137917513 
-0.0002474320115863958 
-0.0008795142060391108 
0.0009367282999003317 
0 
-0.0002474320115863958 
0.0008795142060391108 
-6.973024727489187e-05 
0.0006035340231074761 
-0.0006921136280732561 
0 
-6.973024727489187e-05 
-0.0006035340231074761 
-0.0001622744773999071 
0.0009425482325240785 
-0.001155273301445757 
0 
-0.0001622744773999071 
-0.0009425482325240785 
3.125780888479859e-05 
0.0005202020664040411 
-0.0007109093098385768 
0 
3.125780888479859e-05 
-0.0005202020664040411 
-0.0001373897601696446 
-0.000927214526550074 
0.0009551227358025594 
0 
-0.0001373897601696446 
0.000927214526550074 
1.456869173882355e-06 
0.0001151292548973733 
-0.0001938033228197936 
0 
1.456869173882355e-06 
-0.0001151292548973733 
8.103456832609374e-05 
0.0005255187086431306 
-0.0006523444820250787 
0 
8.103456832609374e-05 
-0.0005255187086431306 
-0.00016708123097812 
0.0001261224687458769 
-0.000276694870566185 
0 
-0.00016708123097812 
-0.0001261224687458769 
-7.758447409521564e-05 
-0.001796560137231486 
0.001903487170620262 
0 
-7.758447409521564e-05 
0.001796560137231486 
9.036586439808442e-05 
0.00057896662756849 
-0.0007544536235130681 
0 
9.036586439808442e-05 
-0.00057896662756849 
-2.875801733806036e-05 
0.001155503207725703 
-0.001407658735008262 
0 
-2.875801733806036e-05 
-0.001155503207725703 
-0.0002611231290498385 
-0.000499268002193324 
0.0004870288121583686 
0 
-0.0002611231290498385 
0.000499268002193324 
0.0001990581300984218 
-0.00102131269788851 
0.001070311708821432 
0 
0.0001990581300984218 
0.00102131269788851 
8.000896840025572e-05 
0.0002203069443911641 
-0.0002789003918470873 
0 
8.000896840025572e-05 
-0.0002203069443911641 
-0.0001693019562884348 
0.0006285781990963601 
-0.0008116444156173043 
0 
-0.0001693019562884348 
-0.0006285781990963601 
0.0002302064099683136 
0.0006057016275479994 
-0.000778827919043826 
0 
0.0002302064099683136 
-0.0006057016275479994 
9.342547465470327e-05 
-0.001879356924300943 
0.002086644005728206 
0 
9.342547465470327e-05 
0.001879356924300943 
0.0001900451709541126 
0.00035063038184535 
-0.0004947272784735832 
0 
0.0001900451709541126 
-0.00035063038184535 
-0.0001080379901532762 
0.0013456556448238 
-0.001592923780004533 
0 
-0.0001080379901532762 
-0.0013456556448238 
-0.0001939393573837766 
0.0001957845544200455 
-0.0003006072833673694 
0 
-0.0001939393573837766 
-0.0001957845544200455 
-0.0002023515854916216 
-0.001395991778815177 
0.001477757518219771 
0 
-0.0002023515854916216 
0.001395991778815177 
1.93166197706096e-05 
0.001138388770583337 
-0.001380550593510476 
0 
1.93166197706096e-05 
-0.001138388770583337 
0.0001737572986231403 
0.0008540901950298828 
-0.001044366495484326 
0 
0.0001737572986231403 
-0.0008540901950298828 
0.0001698588388537289 
-0.0006235102459740175 
0.0006254849225714253 
0 
0.0001698588388537289 
0.0006235102459740175 
-0.0001887704459895134 
-0.002761024138677163 
0.003072133271968425 
0 
-0.0001887704459895134 
0.002761024138677163 
-5.44951563785512e-07 
0.0009785969723169624 
-0.001196725430188809 
0 
-5.44951563785512e-07 
-0.0009785969723169624 
-0.0001971883617418229 
0.001496294827324311 
-0.001770689377425279 
0 
-0.0001971883617418229 
-0.001496294827324311 
-0.0001379009079193232 
0.001018738127198649 
-0.001286845043594391 
0 
-0.0001379009079193232 
-0.001018738127198649 
-0.0002841543561000672 
-0.0006653387384817524 
0.0006077173588959914 
0 
-0.0002841543561000672 
0.0006653387384817524 
0.0001481613467088682 
0.0008869071957650878 
-0.001051554735430436 
0 
0.0001481613467088682 
-0.0008869071957650878 
4.61350372870877e-05 
0.0005149694480986142 
-0.0006742688802118886 
0 
4.61350372870877e-05 
-0.0005149694480986142 
-8.961268141678928e-05 
-0.000510417712837039 
0.0005259574413399413 
0 
-8.961268141678928e-05 
0.000510417712837039 
-0.0006698141206857902 
-0.004866455165870394 
0.005559688874954587 
0 
-0.0006698141206857902 
0.004866455165870394 
0.0003138240698553998 
0.0002647970793906189 
-0.0002954531602607203 
0 
0.0003138240698553998 
-0.0002647970793906189 
2.018719762657952e-05 
0.001259188590723979 
-0.001520935101226649 
0 
2.018719762657952e-05 
-0.001259188590723979 
-8.489098243393475e-05 
0.001614663441276298 
-0.001963551768982203 
0 
-8.489098243393475e-05 
-0.001614663441276298 
-0.0003027928232111041 
0.000425372400019719 
-0.0006112423603968959 
0 
-0.0003027928232111041 
-0.000425372400019719 
-0.0004759281481740159 
0.001058318374425712 
-0.001358332189468801 
0 
-0.0004759281481740159 
-0.001058318374425712 
0.0001405878943185792 
0.002259201920547238 
-0.002632595643027872 
0 
0.0001405878943185792 
-0.002259201920547238 
-7.72308280180616e-06 
-0.0003676580015499766 
0.000361982178919771 
0 
-7.72308280180616e-06 
0.0003676580015499766 
-0.0004260231444096277 
-0.003625178610116494 
0.004112748689289146 
0 
-0.0004260231444096277 
0.003625178610116494 
-3.919138080358723e-05 
0.0006392467226370288 
-0.0008480100831630313 
0 
-3.919138080358723e-05 
-0.0006392467226370288 
-0.0003056433258816456 
0.002245961178266603 
-0.002677615987645284 
0 
-0.0003056433258816456 
-0.002245961178266603 
-2.466010475665303e-05 
-0.0001944473893905042 
8.660181743180786e-05 
0 
-2.466010475665303e-05 
0.0001944473893905042 
-0.0001198801532016534 
-0.0006493807022186842 
0.0006264785695914465 
0 
-0.0001198801532016534 
0.0006493807022186842 
7.974512686078677e-05 
0.0009453520500502886 
-0.001159953571672185 
0 
7.974512686078677e-05 
-0.0009453520500502886 
-7.421133222832135e-05 
0.0009391360819627142 
-0.001138308705115815 
0 
-7.421133222832135e-05 
-0.0009391360819627142 
0.000400568401527941 
0.000281390317611648 
-0.0004057695559690003 
0 
0.000400568401527941 
-0.000281390317611648 
-0.0003600882753517818 
-0.003031579444348302 
0.00342974961565931 
0 
-0.0003600882753517818 
0.003031579444348302 
0.0004266137371586938 
0.0006708306766989991 
-0.0008312589439934193 
0 
0.0004266137371586938 
-0.0006708306766989991 
3.626511057892933e-05 
0.0009542550274261966 
-0.001134576945927446 
0 
3.626511057892933e-05 
-0.0009542550274261966 
0.0002507889863651266 
-0.0002947930007283368 
0.0002650861476254723 
0 
0.0002507889863651266 
0.0002947930007283368 
0.0001428660859180099 
-0.0002718067850520632 
0.0002324563515693066 
0 
0.0001428660859180099 
0.0002718067850520632 
2.962645122562332e-05 
0.0007352855609045606 
-0.0009391480383571469 
0 
2.962645122562332e-05 
-0.0007352855609045606 
0.0001268985181130974 
0.001088178231092783 
-0.001284582031239198 
0 
0.0001268985181130974 
-0.001088178231092783 
0.0002208134792364845 
-0.0004402680141514924 
0.0004505531705701846 
0 
0.0002208134792364845 
0.0004402680141514924 
6.62744265823042e-05 
-0.001390243269556219 
0.001539324987627404 
0 
6.62744265823042e-05 
0.001390243269556219 
0.000338895190225584 
0.0006279887780733928 
-0.0007521460866472529 
0 
0.000338895190225584 
-0.0006279887780733928 
0.0002094785814236121 
0.0007252115132860392 
-0.0008531309248223004 
0 
0.0002094785814236121 
-0.0007252115132860392 
0.0002791609970513601 
-0.0009107582371966515 
0.0009549485908166808 
0 
0.0002791609970513601 
0.0009107582371966515 
0.0005838617337767057 
0.0004052452457063272 
-0.0005500963099530635 
0 
0.0005838617337767057 
-0.0004052452457063272 
0.0002921920479830065 
-0.0005774129078743522 
0.0006180145652140399 
0 
0.0002921920479830065 
0.0005774129078743522 
0.0003273444182585893 
-0.000117676716818171 
2.010726733507292e-05 
0 
0.0003273444182585893 
0.000117676716818171 
0.0003357284713498579 
-0.001273937882937786 
0.001376090288558172 
0 
0.0003357284713498579 
0.001273937882937786 
0.0003751976242222583 
-0.0006979170162679434 
0.0007014099691587077 
0 
0.0003751976242222583 
0.0006979170162679434 
7.930402288814106e-05 
0.000781802892335558 
-0.0008895350166030238 
0 
7.930402288814106e-05 
-0.000781802892335558 
-8.054137730118815e-05 
0.001017843761745183 
-0.001223592095086583 
0 
-8.054137730118815e-05 
-0.001017843761745183 
1.41213142683222e-05 
2.336228238682192e-05 
-7.826644347210982e-05 
0 
1.41213142683222e-05 
-2.336228238682192e-05 
0.0004183621735143318 
0.0007907112360768456 
-0.000956614067505929 
0 
0.0004183621735143318 
-0.0007907112360768456 
0.0001225983026575381 
0.0009903319926100646 
-0.001152146243867593 
0 
0.0001225983026575381 
-0.0009903319926100646 
0.0002968911562346463 
-9.430644019449838e-05 
8.784427275204797e-05 
0 
0.0002968911562346463 
9.430644019449838e-05 
-0.0001868906839435788 
-0.003275231758049728 
0.003736244977734253 
0 
-0.0001868906839435788 
0.003275231758049728 
3.635610449615054e-05 
-0.0004890160368561872 
0.0004810536715571742 
0 
3.635610449615054e-05 
0.0004890160368561872 
0.0001100779886557436 
0.000460486656781719 
-0.0005980550313042702 
0 
0.0001100779886557436 
-0.000460486656781719 
-9.148121420178057e-05 
0.002285749749107796 
-0.002668228571220798 
0 
-9.148121420178057e-05 
-0.002285749749107796 
-0.0001569060623916239 
0.0002165356443416011 
-0.0003039120263595169 
0 
-0.0001569060623916239 
-0.0002165356443416011 
0.0001236290538302581 
2.800664305129357e-05 
-4.725834905509013e-05 
0 
0.0001236290538302581 
-2.800664305129357e-05 
-9.62379033268361e-05 
0.0001472410335049012 
-0.0002336963556747107 
0 
-9.62379033268361e-05 
-0.0001472410335049012 
-7.720313833457632e-05 
0.0009026705135802656 
-0.001112900927359258 
0 
-7.720313833457632e-05 
-0.0009026705135802656 
-0.0002491394665734651 
-0.002404639947154262 
0.002783474118075841 
0 
-0.0002491394665734651 
0.002404639947154262 
-4.042183086851475e-05 
0.000108260035951874 
-0.0001620255470319791 
0 
-4.042183086851475e-05 
-0.000108260035951874 
-0.0001883536141978955 
0.001232396213275328 
-0.001482414360990858 
0 
-0.0001883536141978955 
-0.001232396213275328 
-5.571512621476292e-05 
0.0008470847471350116 
-0.001051583480661625 
0 
-5.571512621476292e-05 
-0.0008470847471350116 
1.583528442725848e-06 
-0.0009861275892486779 
0.001052909446588223 
0 
1.583528442725848e-06 
0.0009861275892486779 
3.318397017095795e-05 
-0.001117936269590051 
0.001216892039996202 
0 
3.318397017095795e-05 
0.001117936269590051 
0.0001433338839886438 
0.001625397110654965 
-0.001894512468231484 
0 
0.0001433338839886438 
-0.001625397110654965 
0.0004310796878854003 
0.001383482041572134 
-0.001700464032026711 
0 
0.0004310796878854003 
-0.001383482041572134 
-0.000578988353112087 
-0.002414997522717217 
0.002720069392255891 
0 
-0.000578988353112087 
0.002414997522717217 
0.0001101866187919938 
-0.0006840190949916171 
0.0007336493508298058 
0 
0.0001101866187919938 
0.0006840190949916171 
-2.036188526140523e-05 
0.0006768789176540714 
-0.000844562116849921 
0 
-2.036188526140523e-05 
-0.0006768789176540714 
-0.0001786784819801682 
0.001269474854330397 
-0.001540742928098384 
0 
-0.0001786784819801682 
-0.001269474854330397 
0.0001871373228062314 
-0.0005172624093412301 
0.0004743834223141659 
0 
0.0001871373228062314 
0.0005172624093412301 
-0.0002275656421115942 
-0.0008671998768593309 
0.0009441345539357635 
0 
-0.0002275656421115942 
0.0008671998768593309 
-0.00020006249173785 
0.001167582068134501 
-0.001432880230946545 
0 
-0.00020006249173785 
-0.001167582068134501 
0.0003029296960615407 
0.0004507929982809519 
-0.0006137887814790964 
0 
0.0003029296960615407 
-0.0004507929982809519 
-0.0001699430688361327 
-0.001095061472811715 
0.001190744118925206 
0 
-0.0001699430688361327 
0.001095061472811715 
-0.0002870557072888427 
-0.0007357169364969173 
0.0007290713546964514 
0 
-0.0002870557072888427 
0.0007357169364969173 
7.582961122488523e-05 
0.001321535291200554 
-0.001587289505689919 
0 
7.582961122488523e-05 
-0.001321535291200554 
-0.0001786024366700365 
0.000946487850100596 
-0.001184979800859414 
0 
-0.0001786024366700365 
-0.000946487850100596 
-5.238200366018607e-05 
-0.0008802068434827496 
0.0009360044970371736 
0 
-5.238200366018607e-05 
0.0008802068434827496 
-9.303928318718491e-05 
-0.0005653941542007073 
0.0005790749318301141 
0 
-9.303928318718491e-05 
0.0005653941542007073 
-3.249504531695957e-05 
0.00100190190646131 
-0.001238870557005164 
0 
-3.249504531695957e-05 
-0.00100190190646131 
2.960724619209137e-05 
0.001260226480815742 
-0.001598224896256443 
0 
2.960724619209137e-05 
-0.001260226480815742 
-0.000277606148022711 
-0.001429751334622745 
0.001570416440654008 
0 
-0.000277606148022711 
0.001429751334622745 
-0.0003139471781653737 
-0.0009208245020366222 
0.0008852112967900062 
0 
-0.0003139471781653737 
0.0009208245020366222 
-8.072122585875969e-05 
-0.001041721125400457 
0.001111309682045181 
0 
-8.072122585875969e-05 
0.001041721125400457 
-0.0003188009059489311 
0.0003454296192664742 
-0.0004956816271590611 
0 
-0.0003188009059489311 
-0.0003454296192664742 
-0.0006769191914747371 
-0.0008831850263510488 
0.0009043430801850787 
0 
-0.0006769191914747371 
0.0008831850263510488 
-0.0002158048814592664 
0.0006126654552287639 
-0.0008577932200499938 
0 
-0.0002158048814592664 
-0.0006126654552287639 
-0.00030134993677956 
0.001874072995245234 
-0.002287700212544646 
0 
-0.00030134993677956 
-0.001874072995245234 
-4.270216643127795e-05 
0.001682436784467949 
-0.002084934929261508 
0 
-4.270216643127795e-05 
-0.001682436784467949 
-0.0002778752624501165 
0.0003664072975827276 
-0.0005527185180538437 
0 
-0.0002778752624501165 
-0.0003664072975827276 
-0.0001104403043166406 
0.0008974491441102318 
-0.001140058050895239 
0 
-0.0001104403043166406 
-0.0008974491441102318 
-0.0003074214695358602 
-0.0003018657302640816 
0.0002467641993899409 
0 
-0.0003074214695358602 
0.0003018657302640816 
-0.000211402766090049 
-0.0001849760868453531 
6.179622023147764e-05 
0 
-0.000211402766090049 
0.0001849760868453531 
-0.0003811639059795622 
0.0003792051442315379 
-0.0005329079720065806 
0 
-0.0003811639059795622 
-0.0003792051442315379 
2.975656761669807e-05 
0.001508973638922778 
-0.001833448080389858 
0 
2.975656761669807e-05 
-0.001508973638922778 
-0.0003874280092396097 
-0.001161308825414097 
0.00122169249319777 
0 
-0.0003874280092396097 
0.001161308825414097 
-0.0003661284027945986 
-0.0004262465682670508 
0.0003611619865486826 
0 
-0.0003661284027945986 
0.0004262465682670508 
-0.0003785153491591836 
0.001390922625168579 
-0.001727952228195807 
0 
-0.0003785153491591836 
-0.001390922625168579 
0.0002510322627840699 
0.0006099861848357748 
-0.0007822085973141649 
0 
0.0002510322627840699 
-0.0006099861848357748 
0.0003853021368455892 
-0.002675643966845965 
0.003052303292956297 
0 
0.0003853021368455892 
0.002675643966845965 
0.000174956318993883 
-0.002602639074535023 
0.002938990020405638 
0 
0.000174956318993883 
0.002602639074535023 
4.422486798477297e-05 
0.0005135454575878769 
-0.0006325916613128297 
0 
4.422486798477297e-05 
-0.0005135454575878769 
0.0003785861914725316 
0.000915093742771359 
-0.001123944665088161 
0 
0.0003785861914725316 
-0.000915093742771359 
-9.097612010855103e-05 
-3.089748046351156e-05 
-6.053860228378545e-05 
0 
-9.097612010855103e-05 
3.089748046351156e-05 
0.0003065071152250212 
0.0005771447561334071 
-0.000777501036319971 
0 
0.0003065071152250212 
-0.0005771447561334071 
0.0001984267555658535 
0.0009809617357201248 
-0.001211363959135975 
0 
0.0001984267555658535 
-0.0009809617357201248 
0.0005697251716229221 
0.0001708680931955074 
-0.0002295167773962571 
0 
0.0005697251716229221 
-0.0001708680931955074 
0.0006381967219163756 
-0.0003513613380595287 
0.0004398587908316156 
0 
0.0006381967219163756 
0.0003513613380595287 
0.0003047235070676835 
-0.00232862120443751 
0.002645053305552406 
0 
0.0003047235070676835 
0.00232862120443751 
0.0003540380084953149 
-0.001874834707284998 
0.002077529216978812 
0 
0.0003540380084953149 
0.001874834707284998 
-4.794320115528287e-05 
0.0009802592281305609 
-0.00117157737244322 
0 
-4.794320115528287e-05 
-0.0009802592281305609 
3.620366843039898e-05 
0.001751859048166429 
-0.002093603956139093 
0 
3.620366843039898e-05 
-0.001751859048166429 
0.0004300649570557659 
-0.0001186296562909849 
9.433751923205185e-05 
0 
0.0004300649570557659 
0.0001186296562909849 
0.000326057724764743 
-0.0006835979298531454 
0.0006806912001312222 
0 
0.000326057724764743 
0.0006835979298531454 
0.0001666358812213448 
-0.000415971586128378 
0.0003921678943595535 
0 
0.0001666358812213448 
0.000415971586128378 
0.0003925775023948475 
0.0005378293520102913 
-0.0005936541774506915 
0 
0.0003925775023948475 
-0.0005378293520102913 
6.609254427842412e-05 
5.312183910155389e-05 
-8.140095807428114e-05 
0 
6.609254427842412e-05 
-5.312183910155389e-05 
0.0001886979964554104 
0.001087156159888471 
-0.001303756407157493 
0 
0.0001886979964554104 
-0.001087156159888471 
0.0002682431749762741 
-0.0003077710233177203 
0.0002961714192099364 
0 
0.0002682431749762741 
0.0003077710233177203 
0.000184098858100138 
-0.0005426208617106901 
0.000572412478143208 
0 
0.000184098858100138 
0.0005426208617106901 
0.0004957212310941055 
-0.0005491622770301599 
0.0005916292024109593 
0 
0.0004957212310941055 
0.0005491622770301599 
0.0001150969856732076 
-0.001460391128522508 
0.001596949565550481 
0 
0.0001150969856732076 
0.001460391128522508 
0.0001082509113899673 
0.0009137575345114877 
-0.001097519217396635 
0 
0.0001082509113899673 
-0.0009137575345114877 
0.0002967214482044547 
-0.001918151706331023 
0.002157187920894134 
0 
0.0002967214482044547 
0.001918151706331023 
0.0001192443376785472 
-0.0001156080282020516 
9.013169970791077e-05 
0 
0.0001192443376785472 
0.0001156080282020516 
0.0005364743186203996 
0.001717504721471209 
-0.002020098137818169 
0 
0.0005364743186203996 
-0.001717504721471209 
-2.040747308027836e-05 
-0.001160417144224601 
0.00122102465497479 
0 
-2.040747308027836e-05 
0.001160417144224601 
0.0001609281361667138 
-0.001395402522712923 
0.001543001749616565 
0 
0.0001609281361667138 
0.001395402522712923 
9.772606444999258e-05 
-0.0002354324931265794 
0.0002010643554556978 
0 
9.772606444999258e-05 
0.0002354324931265794 
-1.353608488052256e-05 
0.001091414073437222 
-0.001316372069615775 
0 
-1.353608488052256e-05 
-0.001091414073437222 
-0.0001823526202269389 
-0.0003025609885098694 
0.0002300135573177844 
0 
-0.0001823526202269389 
0.0003025609885098694 
7.320817777151524e-05 
-0.001865864610108628 
0.002080161870390594 
0 
7.320817777151524e-05 
0.001865864610108628 
-5.524356630898258e-05 
-0.001578594340056427 
0.001721503715614029 
0 
-5.524356630898258e-05 
0.001578594340056427 
-0.0001409503125086669 
0.0008625884102273437 
-0.001080151501477284 
0 
-0.0001409503125086669 
-0.0008625884102273437 
-0.0005074834868663708 
0.0004828781433654119 
-0.0006520449390497003 
0 
-0.0005074834868663708 
-0.0004828781433654119 
-6.846795815693607e-05 
0.0006440139552252197 
-0.0008235279914591968 
0 
-6.846795815693607e-05 
-0.0006440139552252197 
-0.000238583021172522 
0.001665152937402004 
-0.001969532488836532 
0 
-0.000238583021172522 
-0.001665152937402004 
-0.0002835747866934257 
0.001829375104916059 
-0.002188338892465527 
0 
-0.0002835747866934257 
